IRI,0,1,2,3,4,5,6,7,8,9,10,11,12,13,14,15,16,17,18,19,20,21,22,23,24,25,26,27,28,29,30,31,32,33,34,35,36,37,38,39,40,41,42,43,44,45,46,47,48,49,50,51,52,53,54,55,56,57,58,59,60,61,62,63,64,65,66,67,68,69,70,71,72,73,74,75,76,77,78,79,80,81,82,83,84,85,86,87,88,89,90,91,92,93,94,95,96,97,98,99,100,101,102,103,104,105,106,107,108,109,110,111,112,113,114,115,116,117,118,119,120,121,122,123,124,125,126,127,128,129,130,131,132,133,134,135,136,137,138,139,140,141,142,143,144,145,146,147,148,149,150,151,152,153,154,155,156,157,158,159,160,161,162,163,164,165,166,167,168,169,170,171,172,173,174,175,176,177,178,179,180,181,182,183,184,185,186,187,188,189,190,191,192,193,194,195,196,197,198,199,200,201,202,203,204,205,206,207,208,209,210,211,212,213,214,215,216,217,218,219,220,221,222,223,224,225,226,227,228,229,230,231,232,233,234,235,236,237,238,239,240,241,242,243,244,245,246,247,248,249,250,251,252,253,254,255,256,257,258,259,260,261,262,263,264,265,266,267,268,269,270,271,272,273,274,275,276,277,278,279,280,281,282,283,284,285,286,287,288,289,290,291,292,293,294,295,296,297,298,299,300,301,302,303,304,305,306,307,308,309,310,311,312,313,314,315,316,317,318,319,320,321,322,323,324,325,326,327,328,329,330,331,332,333,334,335,336,337,338,339,340,341,342,343,344,345,346,347,348,349,350,351,352,353,354,355,356,357,358,359,360,361,362,363,364,365,366,367,368,369,370,371,372,373,374,375,376,377,378,379,380,381,382,383,384,385,386,387,388,389,390,391,392,393,394,395,396,397,398,399,400,401,402,403,404,405,406,407,408,409,410,411,412,413,414,415,416,417,418,419,420,421,422,423,424,425,426,427,428,429,430,431,432,433,434,435,436,437,438,439,440,441,442,443,444,445,446,447,448,449,450,451,452,453,454,455,456,457,458,459,460,461,462,463,464,465,466,467,468,469,470,471,472,473,474,475,476,477,478,479,480,481,482,483,484,485,486,487,488,489,490,491,492,493,494,495,496,497,498,499,500,501,502,503,504,505,506,507,508,509,510,511,512,513,514,515,516,517,518,519,520,521,522,523,524,525,526,527,528,529,530,531,532,533,534,535,536,537,538,539,540,541,542,543,544,545,546,547,548,549,550,551,552,553,554,555,556,557,558,559,560,561,562,563,564,565,566,567,568,569,570,571,572,573,574,575,576,577,578,579,580,581,582,583,584,585,586,587,588,589,590,591,592,593,594,595,596,597,598,599,600,601,602,603,604,605,606,607,608,609,610,611,612,613,614,615,616,617,618,619,620,621,622,623,624,625,626,627,628,629,630,631,632,633,634,635,636,637,638,639,640,641,642,643,644,645,646,647,648,649,650,651,652,653,654,655,656,657,658,659,660,661,662,663,664,665,666,667,668,669,670,671,672,673,674,675,676,677,678,679,680,681,682,683,684,685,686,687,688,689,690,691,692,693,694,695,696,697,698,699,700,701,702,703,704,705,706,707,708,709,710,711,712,713,714,715,716,717,718,719,720,721,722,723,724,725,726,727,728,729,730,731,732,733,734,735,736,737,738,739,740,741,742,743,744,745,746,747,748,749,750,751,752,753,754,755,756,757,758,759,760,761,762,763,764,765,766,767,768,769,770,771,772,773,774,775,776,777,778,779,780,781,782,783,784,785,786,787,788,789,790,791,792,793,794,795,796,797,798,799,800,801,802,803,804,805,806,807,808,809,810,811,812,813,814,815,816,817,818,819,820,821,822,823,824,825,826,827,828,829,830,831,832,833,834,835,836,837,838,839,840,841,842,843,844,845,846,847,848,849,850,851,852,853,854,855,856,857,858,859,860,861,862,863,864,865,866,867,868,869,870,871,872,873,874,875,876,877,878,879,880,881,882,883,884,885,886,887,888,889,890,891,892,893,894,895,896,897,898,899,900,901,902,903,904,905,906,907,908,909,910,911,912,913,914,915,916,917,918,919,920,921,922,923,924,925,926,927,928,929,930,931,932,933,934,935,936,937,938,939,940,941,942,943,944,945,946,947,948,949,950,951,952,953,954,955,956,957,958,959,960,961,962,963,964,965,966,967,968,969,970,971,972,973,974,975,976,977,978,979,980,981,982,983,984,985,986,987,988,989,990,991,992,993,994,995,996,997,998,999,1000,1001,1002,1003,1004,1005,1006,1007,1008,1009,1010,1011,1012,1013,1014,1015,1016,1017,1018,1019,1020,1021,1022,1023,1024,1025,1026,1027,1028,1029,1030,1031,1032,1033,1034,1035,1036,1037,1038,1039,1040,1041,1042,1043,1044,1045,1046,1047,1048,1049,1050,1051,1052,1053,1054,1055,1056,1057,1058,1059,1060,1061,1062,1063,1064,1065,1066,1067,1068,1069,1070,1071,1072,1073,1074,1075,1076,1077,1078,1079,1080,1081,1082,1083,1084,1085,1086,1087,1088,1089,1090,1091,1092,1093,1094,1095,1096,1097,1098,1099,1100,1101,1102,1103,1104,1105,1106,1107,1108,1109,1110,1111,1112,1113,1114,1115,1116,1117,1118,1119,1120,1121,1122,1123,1124,1125,1126,1127,1128,1129,1130,1131,1132,1133,1134,1135,1136,1137,1138,1139,1140,1141,1142,1143,1144,1145,1146,1147,1148,1149,1150,1151,1152,1153,1154,1155,1156,1157,1158,1159,1160,1161,1162,1163,1164,1165,1166,1167,1168,1169,1170,1171,1172,1173,1174,1175,1176,1177,1178,1179,1180,1181,1182,1183,1184,1185,1186,1187,1188,1189,1190,1191,1192,1193,1194,1195,1196,1197,1198,1199,1200,1201,1202,1203,1204,1205,1206,1207,1208,1209,1210,1211,1212,1213,1214,1215,1216,1217,1218,1219,1220,1221,1222,1223,1224,1225,1226,1227,1228,1229,1230,1231,1232,1233,1234,1235,1236,1237,1238,1239,1240,1241,1242,1243,1244,1245,1246,1247,1248,1249,1250,1251,1252,1253,1254,1255,1256,1257,1258,1259,1260,1261,1262,1263,1264,1265,1266,1267,1268,1269,1270,1271,1272,1273,1274,1275,1276,1277,1278,1279,1280,1281,1282,1283,1284,1285,1286,1287,1288,1289,1290,1291,1292,1293,1294,1295,1296,1297,1298,1299,1300,1301,1302,1303,1304,1305,1306,1307,1308,1309,1310,1311,1312,1313,1314,1315,1316,1317,1318,1319,1320,1321,1322,1323,1324,1325,1326,1327,1328,1329,1330,1331,1332,1333,1334,1335,1336,1337,1338,1339,1340,1341,1342,1343,1344,1345,1346,1347,1348,1349,1350,1351,1352,1353,1354,1355,1356,1357,1358,1359,1360,1361,1362,1363,1364,1365,1366,1367,1368,1369,1370,1371,1372,1373,1374,1375,1376,1377,1378,1379,1380,1381,1382,1383,1384,1385,1386,1387,1388,1389,1390,1391,1392,1393,1394,1395,1396,1397,1398,1399,1400,1401,1402,1403,1404,1405,1406,1407,1408,1409,1410,1411,1412,1413,1414,1415,1416,1417,1418,1419,1420,1421,1422,1423,1424,1425,1426,1427,1428,1429,1430,1431,1432,1433,1434,1435,1436,1437,1438,1439,1440,1441,1442,1443,1444,1445,1446,1447,1448,1449,1450,1451,1452,1453,1454,1455,1456,1457,1458,1459,1460,1461,1462,1463,1464,1465,1466,1467,1468,1469,1470,1471,1472,1473,1474,1475,1476,1477,1478,1479,1480,1481,1482,1483,1484,1485,1486,1487,1488,1489,1490,1491,1492,1493,1494,1495,1496,1497,1498,1499,1500,1501,1502,1503,1504,1505,1506,1507,1508,1509,1510,1511,1512,1513,1514,1515,1516,1517,1518,1519,1520,1521,1522,1523,1524,1525,1526,1527,1528,1529,1530,1531,1532,1533,1534,1535,1536,1537,1538,1539,1540,1541,1542,1543,1544,1545,1546,1547,1548,1549,1550,1551,1552,1553,1554,1555,1556,1557,1558,1559,1560,1561,1562,1563,1564,1565,1566,1567,1568,1569,1570,1571,1572,1573,1574,1575,1576,1577,1578,1579,1580,1581,1582,1583,1584,1585,1586,1587,1588,1589,1590,1591,1592,1593,1594,1595,1596,1597,1598,1599,1600,1601,1602,1603,1604,1605,1606,1607,1608,1609,1610,1611,1612,1613,1614,1615,1616,1617,1618,1619,1620,1621,1622,1623,1624,1625,1626,1627,1628,1629,1630,1631,1632,1633,1634,1635,1636,1637,1638,1639,1640,1641,1642,1643,1644,1645,1646,1647,1648,1649,1650,1651,1652,1653,1654,1655,1656,1657,1658,1659,1660,1661,1662,1663,1664,1665,1666,1667,1668,1669,1670,1671,1672,1673,1674,1675,1676,1677,1678,1679,1680,1681,1682,1683,1684,1685,1686,1687,1688,1689,1690,1691,1692,1693,1694,1695,1696,1697,1698,1699,1700,1701,1702,1703,1704,1705,1706,1707,1708,1709,1710,1711,1712,1713,1714,1715,1716,1717,1718,1719,1720,1721,1722,1723,1724,1725,1726,1727,1728,1729,1730,1731,1732,1733,1734,1735,1736,1737,1738,1739,1740,1741,1742,1743,1744,1745,1746,1747,1748,1749,1750,1751,1752,1753,1754,1755,1756,1757,1758,1759,1760,1761,1762,1763,1764,1765,1766,1767,1768,1769,1770,1771,1772,1773,1774,1775,1776,1777,1778,1779,1780,1781,1782,1783,1784,1785,1786,1787,1788,1789,1790,1791,1792,1793,1794,1795,1796,1797,1798,1799,1800,1801,1802,1803,1804,1805,1806,1807,1808,1809,1810,1811,1812,1813,1814,1815,1816,1817,1818,1819,1820,1821,1822,1823,1824,1825,1826,1827,1828,1829,1830,1831,1832,1833,1834,1835,1836,1837,1838,1839,1840,1841,1842,1843,1844,1845,1846,1847,1848,1849,1850,1851,1852,1853,1854,1855,1856,1857,1858,1859,1860,1861,1862,1863,1864,1865,1866,1867,1868,1869,1870,1871,1872,1873,1874,1875,1876,1877,1878,1879,1880,1881,1882,1883,1884,1885,1886,1887,1888,1889,1890,1891,1892,1893,1894,1895,1896,1897,1898,1899,1900,1901,1902,1903,1904,1905,1906,1907,1908,1909,1910,1911,1912,1913,1914,1915,1916,1917,1918,1919,1920,1921,1922,1923,1924,1925,1926,1927,1928,1929,1930,1931,1932,1933,1934,1935,1936,1937,1938,1939,1940,1941,1942,1943,1944,1945,1946,1947,1948,1949,1950,1951,1952,1953,1954,1955,1956,1957,1958,1959,1960,1961,1962,1963,1964,1965,1966,1967,1968,1969,1970,1971,1972,1973,1974,1975,1976,1977,1978,1979,1980,1981,1982,1983,1984,1985,1986,1987,1988,1989,1990,1991,1992,1993,1994,1995,1996,1997,1998,1999,2000,2001,2002,2003,2004,2005,2006,2007,2008,2009,2010,2011,2012,2013,2014,2015,2016,2017,2018,2019,2020,2021,2022,2023,2024,2025,2026,2027,2028,2029,2030,2031,2032,2033,2034,2035,2036,2037,2038,2039,2040,2041,2042,2043,2044,2045,2046,2047,2048,2049,2050,2051,2052,2053,2054,2055,2056,2057,2058,2059,2060,2061,2062,2063,2064,2065,2066,2067,2068,2069,2070,2071,2072,2073,2074,2075,2076,2077,2078,2079,2080,2081,2082,2083,2084,2085,2086,2087,2088,2089,2090,2091,2092,2093,2094,2095,2096,2097,2098,2099,2100,2101,2102,2103,2104,2105,2106,2107,2108,2109,2110,2111,2112,2113,2114,2115,2116,2117,2118,2119,2120,2121,2122,2123,2124,2125,2126,2127,2128,2129,2130,2131,2132,2133,2134,2135,2136,2137,2138,2139,2140,2141,2142,2143,2144,2145,2146,2147,2148,2149,2150,2151,2152,2153,2154,2155,2156,2157,2158,2159,2160,2161,2162,2163,2164,2165,2166,2167,2168,2169,2170,2171,2172,2173,2174,2175,2176,2177,2178,2179,2180,2181,2182,2183,2184,2185,2186,2187,2188,2189,2190,2191,2192,2193,2194,2195,2196,2197,2198,2199,2200,2201,2202,2203,2204,2205,2206,2207,2208,2209,2210,2211,2212,2213,2214,2215,2216,2217,2218,2219,2220,2221,2222,2223,2224,2225,2226,2227,2228,2229,2230,2231,2232,2233,2234,2235,2236,2237,2238,2239,2240,2241,2242,2243,2244,2245,2246,2247,2248,2249,2250,2251,2252,2253,2254,2255,2256,2257,2258,2259,2260,2261,2262,2263,2264,2265,2266,2267,2268,2269,2270,2271,2272,2273,2274,2275,2276,2277,2278,2279,2280,2281,2282,2283,2284,2285,2286,2287,2288,2289,2290,2291,2292,2293,2294,2295,2296,2297,2298,2299,2300,2301,2302,2303,2304,2305,2306,2307,2308,2309,2310,2311,2312,2313,2314,2315,2316,2317,2318,2319,2320,2321,2322,2323,2324,2325,2326,2327,2328,2329,2330,2331,2332,2333,2334,2335,2336,2337,2338,2339,2340,2341,2342,2343,2344,2345,2346,2347,2348,2349,2350,2351,2352,2353,2354,2355,2356,2357,2358,2359,2360,2361,2362,2363,2364,2365,2366,2367,2368,2369,2370,2371,2372,2373,2374,2375,2376,2377,2378,2379,2380,2381,2382,2383,2384,2385,2386,2387,2388,2389,2390,2391,2392,2393,2394,2395,2396,2397,2398,2399,2400,2401,2402,2403,2404,2405,2406,2407,2408,2409,2410,2411,2412,2413,2414,2415,2416,2417,2418,2419,2420,2421,2422,2423,2424,2425,2426,2427,2428,2429,2430,2431,2432,2433,2434,2435,2436,2437,2438,2439,2440,2441,2442,2443,2444,2445,2446,2447,2448,2449,2450,2451,2452,2453,2454,2455,2456,2457,2458,2459,2460,2461,2462,2463,2464,2465,2466,2467,2468,2469,2470,2471,2472,2473,2474,2475,2476,2477,2478,2479,2480,2481,2482,2483,2484,2485,2486,2487,2488,2489,2490,2491,2492,2493,2494,2495,2496,2497,2498,2499,2500,2501,2502,2503,2504,2505,2506,2507,2508,2509,2510,2511,2512,2513,2514,2515,2516,2517,2518,2519,2520,2521,2522,2523,2524,2525,2526,2527,2528,2529,2530,2531,2532,2533,2534,2535,2536,2537,2538,2539,2540,2541,2542,2543,2544,2545,2546,2547,2548,2549,2550,2551,2552,2553,2554,2555,2556,2557,2558,2559,2560,2561,2562,2563,2564,2565,2566,2567,2568,2569,2570,2571,2572,2573,2574,2575,2576,2577,2578,2579,2580,2581,2582,2583,2584,2585,2586,2587,2588,2589,2590,2591,2592,2593,2594,2595,2596,2597,2598,2599,2600,2601,2602,2603,2604,2605,2606,2607,2608,2609,2610,2611,2612,2613,2614,2615,2616,2617,2618,2619,2620,2621,2622,2623,2624,2625,2626,2627,2628,2629,2630,2631,2632,2633,2634,2635,2636,2637,2638,2639,2640,2641,2642,2643,2644,2645,2646,2647,2648,2649,2650,2651,2652,2653,2654,2655,2656,2657,2658,2659,2660,2661,2662,2663,2664,2665,2666,2667,2668,2669,2670,2671,2672,2673,2674,2675,2676,2677,2678,2679,2680,2681,2682,2683,2684,2685,2686,2687,2688,2689,2690,2691,2692,2693,2694,2695,2696,2697,2698,2699,2700,2701,2702,2703,2704,2705,2706,2707,2708,2709,2710,2711,2712,2713,2714,2715,2716,2717,2718,2719,2720,2721,2722,2723,2724,2725,2726,2727,2728,2729,2730,2731,2732,2733,2734,2735,2736,2737,2738,2739,2740,2741,2742,2743,2744,2745,2746,2747,2748,2749,2750,2751,2752,2753,2754,2755,2756,2757,2758,2759,2760,2761,2762,2763,2764,2765,2766,2767,2768,2769,2770,2771,2772,2773,2774,2775,2776,2777,2778,2779,2780,2781,2782,2783,2784,2785,2786,2787,2788,2789,2790,2791,2792,2793,2794,2795,2796,2797,2798,2799,2800,2801,2802,2803,2804,2805,2806,2807,2808,2809,2810,2811,2812,2813,2814,2815,2816,2817,2818,2819,2820,2821,2822,2823,2824,2825,2826,2827,2828,2829,2830,2831,2832,2833,2834,2835,2836,2837,2838,2839,2840,2841,2842,2843,2844,2845,2846,2847,2848,2849,2850,2851,2852,2853,2854,2855,2856,2857,2858,2859,2860,2861,2862,2863,2864,2865,2866,2867,2868,2869,2870,2871,2872,2873,2874,2875,2876,2877,2878,2879,2880,2881,2882,2883,2884,2885,2886,2887,2888,2889,2890,2891,2892,2893,2894,2895,2896,2897,2898,2899,2900,2901,2902,2903,2904,2905,2906,2907,2908,2909,2910,2911,2912,2913,2914,2915,2916,2917,2918,2919,2920,2921,2922,2923,2924,2925,2926,2927,2928,2929,2930,2931,2932,2933,2934,2935,2936,2937,2938,2939,2940,2941,2942,2943,2944,2945,2946,2947,2948,2949,2950,2951,2952,2953,2954,2955,2956,2957,2958,2959,2960,2961,2962,2963,2964,2965,2966,2967,2968,2969,2970,2971,2972,2973,2974,2975,2976,2977,2978,2979,2980,2981,2982,2983,2984,2985,2986,2987,2988,2989,2990,2991,2992,2993,2994,2995,2996,2997,2998,2999,3000,3001,3002,3003,3004,3005,3006,3007,3008,3009,3010,3011,3012,3013,3014,3015,3016,3017,3018,3019,3020,3021,3022,3023,3024,3025,3026,3027,3028,3029,3030,3031,3032,3033,3034,3035,3036,3037,3038,3039,3040,3041,3042,3043,3044,3045,3046,3047,3048,3049,3050,3051,3052,3053,3054,3055,3056,3057,3058,3059,3060,3061,3062,3063,3064,3065,3066,3067,3068,3069,3070,3071,3072,3073,3074,3075,3076,3077,3078,3079,3080,3081,3082,3083,3084,3085,3086,3087,3088,3089,3090,3091,3092,3093,3094,3095,3096,3097,3098,3099,3100,3101,3102,3103,3104,3105,3106,3107,3108,3109,3110,3111,3112,3113,3114,3115,3116,3117,3118,3119,3120,3121,3122,3123,3124,3125,3126,3127,3128,3129,3130,3131,3132,3133,3134,3135,3136,3137,3138,3139,3140,3141,3142,3143,3144,3145,3146,3147,3148,3149,3150,3151,3152,3153,3154,3155,3156,3157,3158,3159,3160,3161,3162,3163,3164,3165,3166,3167,3168,3169,3170,3171,3172,3173,3174,3175,3176,3177,3178,3179,3180,3181,3182,3183,3184,3185,3186,3187,3188,3189,3190,3191,3192,3193,3194,3195,3196,3197,3198,3199,3200,3201,3202,3203,3204,3205,3206,3207,3208,3209,3210,3211,3212,3213,3214,3215,3216,3217,3218,3219,3220,3221,3222,3223,3224,3225,3226,3227,3228,3229,3230,3231,3232,3233,3234,3235,3236,3237,3238,3239,3240,3241,3242,3243,3244,3245,3246,3247,3248,3249,3250,3251,3252,3253,3254,3255,3256,3257,3258,3259,3260,3261,3262,3263,3264,3265,3266,3267,3268,3269,3270,3271,3272,3273,3274,3275,3276,3277,3278,3279,3280,3281,3282,3283,3284,3285,3286,3287,3288,3289,3290,3291,3292,3293,3294,3295,3296,3297,3298,3299,3300,3301,3302,3303,3304,3305,3306,3307,3308,3309,3310,3311,3312,3313,3314,3315,3316,3317,3318,3319,3320,3321,3322,3323,3324,3325,3326,3327,3328,3329,3330,3331,3332,3333,3334,3335,3336,3337,3338,3339,3340,3341,3342,3343,3344,3345,3346,3347,3348,3349,3350,3351,3352,3353,3354,3355,3356,3357,3358,3359,3360,3361,3362,3363,3364,3365,3366,3367,3368,3369,3370,3371,3372,3373,3374,3375,3376,3377,3378,3379,3380,3381,3382,3383,3384,3385,3386,3387,3388,3389,3390,3391,3392,3393,3394,3395,3396,3397,3398,3399,3400,3401,3402,3403,3404,3405,3406,3407,3408,3409,3410,3411,3412,3413,3414,3415,3416,3417,3418,3419,3420,3421,3422,3423,3424,3425,3426,3427,3428,3429,3430,3431,3432,3433,3434,3435,3436,3437,3438,3439,3440,3441,3442,3443,3444,3445,3446,3447,3448,3449,3450,3451,3452,3453,3454,3455,3456,3457,3458,3459,3460,3461,3462,3463,3464,3465,3466,3467,3468,3469,3470,3471,3472,3473,3474,3475,3476,3477,3478,3479,3480,3481,3482,3483,3484,3485,3486,3487,3488,3489,3490,3491,3492,3493,3494,3495,3496,3497,3498,3499,3500,3501,3502,3503,3504,3505,3506,3507,3508,3509,3510,3511,3512,3513,3514,3515,3516,3517,3518,3519,3520,3521,3522,3523,3524,3525,3526,3527,3528,3529,3530,3531,3532,3533,3534,3535,3536,3537,3538,3539,3540,3541,3542,3543,3544,3545,3546,3547,3548,3549,3550,3551,3552,3553,3554,3555,3556,3557,3558,3559,3560,3561,3562,3563,3564,3565,3566,3567,3568,3569,3570,3571,3572,3573,3574,3575,3576,3577,3578,3579,3580,3581,3582,3583,3584,3585,3586,3587,3588,3589,3590,3591,3592,3593,3594,3595,3596,3597,3598,3599,3600,3601,3602,3603,3604,3605,3606,3607,3608,3609,3610,3611,3612,3613,3614,3615,3616,3617,3618,3619,3620,3621,3622,3623,3624,3625,3626,3627,3628,3629,3630,3631,3632,3633,3634,3635,3636,3637,3638,3639,3640,3641,3642,3643,3644,3645,3646,3647,3648,3649,3650,3651,3652,3653,3654,3655,3656,3657,3658,3659,3660,3661,3662,3663,3664,3665,3666,3667,3668,3669,3670,3671,3672,3673,3674,3675,3676,3677,3678,3679,3680,3681,3682,3683,3684,3685,3686,3687,3688,3689,3690,3691,3692,3693,3694,3695,3696,3697,3698,3699,3700,3701,3702,3703,3704,3705,3706,3707,3708,3709,3710,3711,3712,3713,3714,3715,3716,3717,3718,3719,3720,3721,3722,3723,3724,3725,3726,3727,3728,3729,3730,3731,3732,3733,3734,3735,3736,3737,3738,3739,3740,3741,3742,3743,3744,3745,3746,3747,3748,3749,3750,3751,3752,3753,3754,3755,3756,3757,3758,3759,3760,3761,3762,3763,3764,3765,3766,3767,3768,3769,3770,3771,3772,3773,3774,3775,3776,3777,3778,3779,3780,3781,3782,3783,3784,3785,3786,3787,3788,3789,3790,3791,3792,3793,3794,3795,3796,3797,3798,3799,3800,3801,3802,3803,3804,3805,3806,3807,3808,3809,3810,3811,3812,3813,3814,3815,3816,3817,3818,3819,3820,3821,3822,3823,3824,3825,3826,3827,3828,3829,3830,3831,3832,3833,3834,3835,3836,3837,3838,3839,3840,3841,3842,3843,3844,3845,3846,3847,3848,3849,3850,3851,3852,3853,3854,3855,3856,3857,3858,3859,3860,3861,3862,3863,3864,3865,3866,3867,3868,3869,3870,3871,3872,3873,3874,3875,3876,3877,3878,3879,3880,3881,3882,3883,3884,3885,3886,3887,3888,3889,3890,3891,3892,3893,3894,3895,3896,3897,3898,3899,3900,3901,3902,3903,3904,3905,3906,3907,3908,3909,3910,3911,3912,3913,3914,3915,3916,3917,3918,3919,3920,3921,3922,3923,3924,3925,3926,3927,3928,3929,3930,3931,3932,3933,3934,3935,3936,3937,3938,3939,3940,3941,3942,3943,3944,3945,3946,3947,3948,3949,3950,3951,3952,3953,3954,3955,3956,3957,3958,3959,3960,3961,3962,3963,3964,3965,3966,3967,3968,3969,3970,3971,3972,3973,3974,3975,3976,3977,3978,3979,3980,3981,3982,3983,3984,3985,3986,3987,3988,3989,3990,3991,3992,3993,3994,3995,3996,3997,3998,3999,4000,4001,4002,4003,4004,4005,4006,4007,4008,4009,4010,4011,4012,4013,4014,4015,4016,4017,4018,4019,4020,4021,4022,4023,4024,4025,4026,4027,4028,4029,4030,4031,4032,4033,4034,4035,4036,4037,4038,4039,4040,4041,4042,4043,4044,4045,4046,4047,4048,4049,4050,4051,4052,4053,4054,4055,4056,4057,4058,4059,4060,4061,4062,4063,4064,4065,4066,4067,4068,4069,4070,4071,4072,4073,4074,4075,4076,4077,4078,4079,4080,4081,4082,4083,4084,4085,4086,4087,4088,4089,4090,4091,4092,4093,4094,4095
https://example/iri1,0.004627227783203125,0.01201629638671875,0.019561767578125,0.0008244514465332031,-0.00612640380859375,-0.02325439453125,-0.00399017333984375,0.0227508544921875,0.0308074951171875,-0.01384735107421875,0.00872039794921875,-0.01629638671875,0.0145721435546875,0.006381988525390625,-0.0006432533264160156,-0.0018596649169921875,0.0153350830078125,0.0014324188232421875,0.00872802734375,-0.0235443115234375,-0.00357818603515625,-0.0146942138671875,0.00962066650390625,-0.006214141845703125,0.01148223876953125,-0.0171051025390625,-0.0013275146484375,-0.0287017822265625,0.01395416259765625,0.01096343994140625,0.01499176025390625,0.0017595291137695312,0.0019054412841796875,0.01517486572265625,-0.0183868408203125,0.0037555694580078125,0.0079193115234375,-0.0016727447509765625,0.01358795166015625,0.0219879150390625,-0.0088958740234375,-0.00441741943359375,0.0018777847290039062,-0.002964019775390625,0.0247344970703125,-0.0048065185546875,0.02801513671875,0.01386260986328125,-0.01318359375,-0.00775146484375,-0.020904541015625,-0.0079345703125,-0.012786865234375,0.11456298828125,-0.0157928466796875,-0.0095062255859375,0.0187225341796875,-0.0034008026123046875,0.004791259765625,-0.01325225830078125,-0.00762939453125,0.0036640167236328125,0.00015366077423095703,-0.02215576171875,0.01087188720703125,-0.005619049072265625,-0.0179901123046875,-0.020477294921875,-0.0185699462890625,-0.02099609375,-0.0148468017578125,0.00527191162109375,-0.0158538818359375,-0.00739288330078125,0.0138397216796875,-0.04547119140625,-0.005596160888671875,-0.00897216796875,0.0009050369262695312,-0.00777435302734375,0.0010862350463867188,0.00038695335388183594,0.007503509521484375,0.0198974609375,0.01212310791015625,0.05291748046875,-0.0025463104248046875,0.00023102760314941406,0.0243072509765625,-0.0024394989013671875,-1.6927719116210938e-05,0.044586181640625,0.0034027099609375,-0.056915283203125,-0.005512237548828125,-0.0128021240234375,-0.01580810546875,-0.006832122802734375,0.018096923828125,-0.006725311279296875,0.006992340087890625,-0.00936126708984375,-0.005054473876953125,-0.0162353515625,0.00594329833984375,-0.018829345703125,-0.002414703369140625,0.01190948486328125,-0.023345947265625,0.0178680419921875,0.0037975311279296875,0.0009355545043945312,0.00241851806640625,0.02362060546875,-0.007587432861328125,0.0089111328125,-0.01213836669921875,0.00821685791015625,-0.01334381103515625,0.01136016845703125,-0.0018663406372070312,-0.0117340087890625,-0.007312774658203125,-0.00521087646484375,-0.0029430389404296875,-0.0026340484619140625,-0.0267486572265625,-0.006511688232421875,-0.032684326171875,-0.005767822265625,0.0062103271484375,-0.00336456298828125,-0.0037021636962890625,0.01020050048828125,0.0009946823120117188,0.00811004638671875,-0.02288818359375,0.019622802734375,-0.00823974609375,0.0305938720703125,0.00670623779296875,-0.01116180419921875,-0.006710052490234375,-0.00658416748046875,0.00972747802734375,-0.0182342529296875,-0.022308349609375,-0.00814056396484375,0.00678253173828125,0.0013284683227539062,0.006740570068359375,0.01407623291015625,0.00994110107421875,0.0099945068359375,-0.00720977783203125,-0.01174163818359375,-0.00783538818359375,0.0125579833984375,-0.0019702911376953125,-0.0156402587890625,0.02337646484375,-0.00054931640625,0.0021820068359375,0.0008096694946289062,-0.00519561767578125,-0.01218414306640625,0.02056884765625,-0.02264404296875,0.00345611572265625,-0.01358795166015625,-0.004177093505859375,-0.011810302734375,-0.0131378173828125,0.0186004638671875,0.0171051025390625,0.00537109375,0.01513671875,0.0052490234375,0.04119873046875,-0.01117706298828125,-0.0085296630859375,-0.020904541015625,0.0223541259765625,-0.0150299072265625,-0.025390625,-0.0025386810302734375,-0.021636962890625,0.00482940673828125,-0.023681640625,0.00975799560546875,-0.009857177734375,0.010894775390625,0.00421905517578125,0.01409912109375,-0.0014486312866210938,0.026763916015625,-0.0169830322265625,0.0037937164306640625,-0.0160675048828125,0.006900787353515625,-0.0126800537109375,-0.01898193359375,-0.0007467269897460938,-0.0134124755859375,0.003452301025390625,0.022857666015625,0.007083892822265625,0.00421142578125,0.0018463134765625,-0.00757598876953125,0.0154266357421875,-0.004070281982421875,-0.011444091796875,-0.0028438568115234375,-0.01507568359375,0.015655517578125,0.01512908935546875,-0.0162353515625,0.01922607421875,-0.012115478515625,-0.00704193115234375,0.0108489990234375,-0.003002166748046875,0.0137481689453125,0.005916595458984375,0.01045989990234375,-0.019378662109375,-0.0130615234375,-0.00353240966796875,-0.0099945068359375,0.006404876708984375,-0.0033092498779296875,0.0009207725524902344,0.01297760009765625,-0.0077667236328125,0.0007386207580566406,0.0252532958984375,0.0024871826171875,-0.00039958953857421875,-0.020263671875,0.016998291015625,0.0069580078125,-0.017547607421875,-0.031646728515625,-0.0001169443130493164,-0.00930023193359375,0.01055145263671875,0.004669189453125,0.021270751953125,0.02154541015625,0.017730712890625,0.0111236572265625,0.01557159423828125,-0.026824951171875,-0.008148193359375,-0.0037517547607421875,-0.00882720947265625,6.896257400512695e-05,-0.00630950927734375,0.01062774658203125,-0.0237884521484375,0.0024013519287109375,0.031524658203125,-0.005237579345703125,-0.0211029052734375,0.0009198188781738281,-0.025299072265625,-0.0162353515625,0.0236663818359375,-0.00040030479431152344,0.0008802413940429688,0.01605224609375,0.01175689697265625,-0.004913330078125,-0.007328033447265625,0.008819580078125,-0.0021820068359375,0.01433563232421875,-0.0013647079467773438,-0.012054443359375,-0.00919342041015625,-0.003253936767578125,-0.026123046875,-0.01491546630859375,0.0030765533447265625,0.01366424560546875,-0.006847381591796875,-0.000888824462890625,0.005764007568359375,0.00884246826171875,-0.0021038055419921875,-0.0231475830078125,-0.03790283203125,-0.006114959716796875,-0.0160980224609375,-0.01065826416015625,-0.0034027099609375,-0.01026153564453125,0.01316070556640625,0.0025386810302734375,0.029693603515625,0.005321502685546875,0.01277923583984375,0.01055145263671875,-0.0155181884765625,0.01094818115234375,-0.009979248046875,0.0174713134765625,-0.0205230712890625,-0.007137298583984375,-0.005645751953125,-0.0511474609375,-0.0276031494140625,0.0025234222412109375,0.008148193359375,-0.0167388916015625,0.002685546875,-0.01517486572265625,0.0093994140625,-0.00249481201171875,0.0225830078125,-0.0147705078125,-0.09521484375,0.01369476318359375,0.01288604736328125,0.0006775856018066406,-0.0027675628662109375,-0.00701904296875,0.01062774658203125,0.0157928466796875,0.01055908203125,0.0125274658203125,0.01067352294921875,0.00811767578125,-0.00685882568359375,-0.002201080322265625,0.0015716552734375,0.004840850830078125,-0.0024566650390625,-0.0013113021850585938,0.0229034423828125,0.0098114013671875,0.007350921630859375,-0.0084686279296875,-0.0029888153076171875,0.01129150390625,0.0038242340087890625,-0.01465606689453125,0.012298583984375,0.01128387451171875,0.0002486705780029297,0.002323150634765625,0.003597259521484375,0.01334381103515625,0.01068115234375,-0.016448974609375,-0.004329681396484375,0.005283355712890625,0.00464630126953125,-0.0276947021484375,0.007114410400390625,-0.01200103759765625,-0.006496429443359375,0.00920867919921875,0.00839996337890625,-0.01314544677734375,0.009246826171875,0.004802703857421875,-0.0165557861328125,-0.002796173095703125,-5.0008296966552734e-05,-0.0006279945373535156,-0.0196533203125,-0.0234832763671875,-0.01727294921875,0.01148223876953125,-0.0008082389831542969,0.0104217529296875,0.00701141357421875,-0.0022945404052734375,-0.01025390625,-0.036865234375,0.002101898193359375,0.00568389892578125,-0.0199432373046875,-0.0002522468566894531,-0.027435302734375,-0.005035400390625,-0.0052032470703125,0.002101898193359375,-0.002071380615234375,-0.0003573894500732422,-0.0294952392578125,-0.013153076171875,-0.00444793701171875,0.0010461807250976562,-0.0121002197265625,-0.0159149169921875,-0.0030651092529296875,-0.003650665283203125,0.0257110595703125,-0.0208740234375,-0.002178192138671875,-0.0255279541015625,0.0236053466796875,0.021697998046875,-0.00021600723266601562,0.0028285980224609375,0.0038013458251953125,-0.0008625984191894531,-0.0225372314453125,0.0113372802734375,0.006946563720703125,0.0010538101196289062,-0.00383758544921875,0.0025043487548828125,-0.00968170166015625,-0.019378662109375,-0.0411376953125,0.0162353515625,0.01039886474609375,-0.0013446807861328125,-0.0046234130859375,-0.0037689208984375,0.0117645263671875,-0.00724029541015625,-0.0146942138671875,0.015350341796875,-0.0026798248291015625,-0.0288848876953125,-0.004638671875,0.00571441650390625,0.0054473876953125,0.0099639892578125,-0.00885009765625,0.0084686279296875,0.0047454833984375,0.0014696121215820312,-0.01165771484375,0.00930023193359375,-0.03765869140625,-0.00012123584747314453,0.00803375244140625,0.00196075439453125,0.00650787353515625,-0.00850677490234375,0.0204010009765625,0.0102996826171875,0.0006079673767089844,-0.01214599609375,0.01001739501953125,6.788969039916992e-05,0.0119171142578125,-0.01055145263671875,-0.01702880859375,0.00577545166015625,0.003665924072265625,-0.0204925537109375,-0.0045623779296875,0.005100250244140625,-0.00012105703353881836,0.0065155029296875,-0.0208740234375,0.017059326171875,-0.0212249755859375,0.0021953582763671875,-0.01078033447265625,-0.01395416259765625,0.019622802734375,-0.004344940185546875,0.018768310546875,0.0004131793975830078,-0.00612640380859375,-0.00856781005859375,0.00295257568359375,-0.0183258056640625,-0.0177001953125,0.01212310791015625,-0.0091400146484375,-0.01263427734375,0.00457763671875,-0.006591796875,-0.01061248779296875,-0.0148468017578125,-0.0175628662109375,-0.00801849365234375,-0.0004763603210449219,0.00839996337890625,0.0207977294921875,0.00799560546875,0.01275634765625,-0.0079193115234375,-0.0045166015625,-0.0032138824462890625,0.0028553009033203125,-0.033111572265625,0.0097503662109375,-0.0126953125,-0.029571533203125,0.018798828125,0.01125335693359375,0.00528717041015625,-0.0283050537109375,0.0091705322265625,-0.01186370849609375,0.01611328125,0.018035888671875,-0.01342010498046875,-0.006595611572265625,0.0203399658203125,-0.0008573532104492188,-0.020782470703125,0.00315093994140625,0.0155487060546875,-0.034759521484375,0.00931549072265625,0.0006184577941894531,-0.011016845703125,-0.013275146484375,0.028594970703125,-0.005596160888671875,-0.0218963623046875,-0.005062103271484375,-0.007694244384765625,-0.005908966064453125,0.00974273681640625,0.0279693603515625,-0.01715087890625,0.006504058837890625,0.013916015625,-0.007221221923828125,0.0194244384765625,0.033538818359375,-0.0013599395751953125,0.01519012451171875,0.006900787353515625,0.0182342529296875,0.012298583984375,-0.01175689697265625,0.0016984939575195312,-0.00788116455078125,0.0127105712890625,-0.003284454345703125,0.005645751953125,0.01873779296875,-0.007167816162109375,0.003505706787109375,0.0007638931274414062,0.0245513916015625,-0.00432586669921875,-0.006793975830078125,-0.00872802734375,0.1524658203125,0.00409698486328125,0.0020084381103515625,-0.004638671875,0.00923919677734375,0.005245208740234375,0.01160430908203125,-0.0034027099609375,0.00027441978454589844,-0.01129913330078125,0.007366180419921875,-0.0108642578125,0.021087646484375,0.01342010498046875,0.021575927734375,-0.0243072509765625,1.901388168334961e-05,-0.0080718994140625,-0.0085906982421875,0.032501220703125,0.0206146240234375,-0.0016841888427734375,0.012054443359375,0.00860595703125,-0.0034027099609375,0.01432037353515625,-0.08349609375,0.02020263671875,-0.016326904296875,0.024932861328125,-0.0012044906616210938,-0.007720947265625,0.0157623291015625,0.0043182373046875,-0.007785797119140625,-0.0167999267578125,-0.011932373046875,0.0007014274597167969,0.01099395751953125,0.0039520263671875,0.0027561187744140625,0.0038166046142578125,0.01065826416015625,-0.02069091796875,0.0136566162109375,0.0085601806640625,0.03228759765625,-0.002788543701171875,-0.01328277587890625,0.0104217529296875,0.006103515625,0.01271820068359375,-0.0151519775390625,-0.0238189697265625,-0.012054443359375,0.021636962890625,0.0022754669189453125,-0.0132598876953125,0.0175933837890625,0.006557464599609375,-0.00125885009765625,-0.007396697998046875,0.0092010498046875,-0.02239990234375,-0.001796722412109375,-0.011016845703125,0.00933837890625,-0.0016965866088867188,0.034027099609375,0.005046844482421875,0.0106353759765625,0.01116180419921875,-0.018829345703125,-0.02130126953125,-0.01024627685546875,0.01898193359375,0.01096343994140625,-0.00041961669921875,-0.024200439453125,0.01522064208984375,0.0148773193359375,-0.0056610107421875,-0.0243682861328125,-0.01247406005859375,0.004207611083984375,-0.006206512451171875,-0.04052734375,-0.007160186767578125,0.0102996826171875,0.01244354248046875,-0.006496429443359375,-0.004680633544921875,0.019500732421875,0.0273895263671875,-0.0011568069458007812,0.00353240966796875,0.0171051025390625,-0.0227508544921875,0.007564544677734375,-0.0001741647720336914,0.01053619384765625,-0.006153106689453125,0.0084991455078125,-0.0029277801513671875,0.0251007080078125,-0.00878143310546875,0.007114410400390625,-0.007541656494140625,-0.0372314453125,0.00882720947265625,-0.042144775390625,0.006378173828125,-0.012451171875,0.00920867919921875,0.053375244140625,-0.0033626556396484375,0.00252532958984375,0.00423431396484375,-0.0263824462890625,0.0045318603515625,-0.00010448694229125977,0.002166748046875,0.0063323974609375,-0.0101470947265625,0.0168304443359375,0.0294647216796875,-0.00466156005859375,0.003509521484375,0.0184173583984375,0.0013713836669921875,-0.0198211669921875,-0.0026988983154296875,-0.0102996826171875,0.0167236328125,-0.0183563232421875,0.0018482208251953125,-0.029510498046875,-0.0102386474609375,-0.015960693359375,-0.01995849609375,-0.006923675537109375,0.0034465789794921875,-0.0124359130859375,-0.0206451416015625,-0.0130157470703125,-0.0155487060546875,-0.0254974365234375,0.009246826171875,0.00983428955078125,0.004085540771484375,0.0103912353515625,-0.01319122314453125,-0.006160736083984375,-0.1651611328125,0.024200439453125,0.005931854248046875,0.00531005859375,0.01031494140625,-0.01702880859375,-0.004913330078125,-0.006114959716796875,-0.003833770751953125,-0.0118408203125,-0.004058837890625,-0.00843048095703125,-0.0253448486328125,0.001373291015625,-0.0239105224609375,0.01038360595703125,0.0196533203125,-0.003814697265625,-0.01160430908203125,-0.01351165771484375,0.01910400390625,-0.0185089111328125,-0.0191497802734375,0.028839111328125,0.0009608268737792969,0.00609588623046875,0.0032749176025390625,0.0071868896484375,0.001384735107421875,0.007175445556640625,-0.0184326171875,-0.01336669921875,-0.01406097412109375,0.00563812255859375,0.016082763671875,0.01776123046875,0.0045623779296875,0.021270751953125,0.009124755859375,-0.01043701171875,-0.019805908203125,0.0033969879150390625,0.0256195068359375,-0.00757598876953125,0.00385284423828125,-0.006267547607421875,0.0096588134765625,0.00893402099609375,0.0161285400390625,-0.01325225830078125,0.006526947021484375,-0.01358795166015625,0.0067291259765625,-0.01062774658203125,-0.0163421630859375,0.007568359375,-0.0233612060546875,0.0264434814453125,0.0019283294677734375,0.00994873046875,0.0209808349609375,0.01898193359375,-0.0035419464111328125,-0.003955841064453125,-0.0239410400390625,0.029205322265625,-0.021484375,0.004123687744140625,0.0125732421875,-0.0008301734924316406,0.007904052734375,-0.029388427734375,0.04205322265625,0.007419586181640625,-0.01218414306640625,-0.0012807846069335938,-0.0172882080078125,-0.00445556640625,-0.01047515869140625,-0.018310546875,-0.0085601806640625,-0.001628875732421875,-0.004497528076171875,0.0178375244140625,-0.0018377304077148438,0.00897216796875,0.0030364990234375,0.002719879150390625,-0.0030498504638671875,-0.006839752197265625,-0.00946807861328125,0.00821685791015625,0.0166473388671875,-0.0016021728515625,-0.0029010772705078125,-0.0152587890625,-0.009124755859375,-0.0159759521484375,-0.01316070556640625,-0.005649566650390625,-0.006168365478515625,-0.0061798095703125,-0.007694244384765625,-0.002193450927734375,0.0283050537109375,0.01389312744140625,0.0026416778564453125,0.0017843246459960938,0.007659912109375,-0.0313720703125,0.0037784576416015625,0.01491546630859375,0.0012054443359375,-0.00489044189453125,-0.0069732666015625,-0.024566650390625,0.01508331298828125,-0.00225067138671875,-0.00470733642578125,-0.004306793212890625,-0.0004286766052246094,-0.0251617431640625,0.034576416015625,-0.0099639892578125,0.0001283884048461914,0.0180511474609375,0.0015459060668945312,-0.007114410400390625,-0.002834320068359375,0.016143798828125,-0.0199737548828125,0.0024623870849609375,0.000568389892578125,0.00946044921875,0.0080413818359375,0.002323150634765625,0.042144775390625,0.008575439453125,0.005695343017578125,0.004913330078125,0.0007643699645996094,-0.010894775390625,-0.01666259765625,-0.0098724365234375,0.0010509490966796875,0.01085662841796875,-0.00875091552734375,0.0180816650390625,-0.0161590576171875,-0.003856658935546875,0.01788330078125,-0.01378631591796875,0.0067596435546875,0.01336669921875,0.0202178955078125,0.008636474609375,-0.0027484893798828125,0.0213623046875,0.0178985595703125,-0.0182952880859375,0.0222015380859375,-0.025390625,-0.01329803466796875,-0.01154327392578125,-0.0138397216796875,0.006504058837890625,0.031982421875,0.0048065185546875,-0.025604248046875,0.00048160552978515625,0.0216522216796875,0.009765625,0.0225677490234375,-0.00447845458984375,-0.005603790283203125,0.01262664794921875,-0.00582122802734375,-0.0185394287109375,0.0115509033203125,-0.0150299072265625,-0.006801605224609375,0.01959228515625,-0.0020236968994140625,-0.0163421630859375,0.003284454345703125,8.273124694824219e-05,0.029144287109375,-0.00954437255859375,-0.00868988037109375,-0.026092529296875,-0.002048492431640625,0.0063629150390625,0.0058135986328125,0.011749267578125,0.029327392578125,-0.01238250732421875,-0.0008978843688964844,0.01068878173828125,-0.0123138427734375,0.00537109375,0.0091705322265625,0.006023406982421875,0.003528594970703125,-0.0003046989440917969,-0.002964019775390625,0.0134429931640625,0.002498626708984375,0.0032520294189453125,0.0223846435546875,-0.021728515625,-0.035125732421875,-0.00868988037109375,0.0011396408081054688,-0.000370025634765625,-0.03253173828125,0.00801849365234375,0.00196075439453125,-0.0019779205322265625,-0.00997161865234375,-0.00447845458984375,0.00820159912109375,-0.00405120849609375,0.005931854248046875,-0.0203094482421875,0.005985260009765625,-0.004215240478515625,0.016021728515625,0.012054443359375,0.01158905029296875,-0.01849365234375,0.015716552734375,-0.017791748046875,-0.005970001220703125,-0.00594329833984375,-0.0050048828125,0.0181732177734375,-0.004932403564453125,-0.0084991455078125,0.0044403076171875,0.0036869049072265625,0.0222015380859375,-0.00013637542724609375,-0.006031036376953125,-0.00988006591796875,0.0020847320556640625,0.01226806640625,0.01312255859375,0.00997161865234375,0.00624847412109375,-0.0209503173828125,0.00396728515625,0.001705169677734375,-0.00925445556640625,0.005619049072265625,0.00653839111328125,0.018218994140625,0.01323699951171875,0.005828857421875,0.03448486328125,0.0034275054931640625,0.00982666015625,-0.002201080322265625,-0.01605224609375,0.021820068359375,-0.006679534912109375,0.0033740997314453125,0.0264739990234375,0.0007390975952148438,-0.00882720947265625,0.0014209747314453125,-0.0081634521484375,-0.00616455078125,0.007373809814453125,0.0010919570922851562,-0.01522064208984375,0.020904541015625,-0.01248931884765625,-0.01357269287109375,0.024444580078125,0.0002727508544921875,0.0299835205078125,-0.002674102783203125,0.00864410400390625,0.0081329345703125,-0.003482818603515625,0.0017147064208984375,0.00909423828125,-0.0210113525390625,0.039398193359375,-0.00940704345703125,0.0086212158203125,-0.01318359375,-0.0008559226989746094,0.00565338134765625,-0.037261962890625,-0.017181396484375,0.0147705078125,-0.0164031982421875,-0.001766204833984375,-0.004825592041015625,0.031005859375,0.006710052490234375,0.0182342529296875,-0.00251007080078125,-0.0228729248046875,0.001903533935546875,0.00901031494140625,-0.0333251953125,-0.00020122528076171875,0.0131378173828125,-0.01171112060546875,0.0157012939453125,-0.00838470458984375,-0.0021514892578125,0.0112152099609375,-0.016448974609375,-0.0155487060546875,0.00620269775390625,-0.0019931793212890625,-0.006320953369140625,-0.01116943359375,-0.005764007568359375,-0.0177001953125,-0.00678253173828125,-0.0259246826171875,-0.1370849609375,0.01629638671875,0.0037288665771484375,0.0073394775390625,-0.0003120899200439453,0.01238250732421875,0.00403594970703125,-0.0133514404296875,0.0186920166015625,0.01407623291015625,0.005596160888671875,-0.0538330078125,0.0094757080078125,-0.0029315948486328125,0.0186920166015625,-0.0231475830078125,0.0198211669921875,-0.061859130859375,-0.0005903244018554688,0.0029659271240234375,-0.003856658935546875,-0.0027408599853515625,0.01373291015625,0.0031375885009765625,-4.941225051879883e-05,0.003673553466796875,0.007167816162109375,-0.0152435302734375,-0.023193359375,-0.007038116455078125,0.00673675537109375,-0.01062774658203125,-0.0005230903625488281,-0.0020885467529296875,0.007312774658203125,0.0130462646484375,-0.0012836456298828125,-0.018402099609375,-0.0108642578125,0.0096435546875,-0.027862548828125,-0.014984130859375,0.00853729248046875,0.0013685226440429688,-0.002552032470703125,0.0074920654296875,-0.01239776611328125,-0.00609588623046875,-0.01531982421875,-0.0089874267578125,0.00440216064453125,-0.0205230712890625,0.0175933837890625,-0.0008358955383300781,-0.00455474853515625,-0.016998291015625,0.01160430908203125,-0.002246856689453125,0.00762176513671875,-0.007778167724609375,-0.016326904296875,0.0014362335205078125,0.02154541015625,-0.03790283203125,-0.004764556884765625,0.01256561279296875,-0.018768310546875,0.00667572021484375,-0.00911712646484375,-0.00180816650390625,-0.004543304443359375,0.0176544189453125,-0.005321502685546875,0.0159149169921875,-0.004749298095703125,-0.006206512451171875,-0.007419586181640625,0.0034236907958984375,0.006561279296875,-0.01422119140625,-0.0088043212890625,-0.003902435302734375,0.018463134765625,0.00885009765625,-0.019989013671875,0.00562286376953125,0.0006761550903320312,0.0157623291015625,-0.0034694671630859375,0.0047454833984375,0.0192413330078125,0.0009975433349609375,0.0032100677490234375,-0.004947662353515625,0.00391387939453125,0.1383056640625,0.00263214111328125,-0.02069091796875,-0.017120361328125,0.01435089111328125,0.006526947021484375,0.005161285400390625,-0.0208282470703125,-0.005359649658203125,0.01177978515625,0.00937652587890625,-0.025115966796875,-0.0230712890625,-0.00868988037109375,0.00872802734375,-0.00975799560546875,0.00458526611328125,0.0027484893798828125,0.00916290283203125,0.0011034011840820312,-0.0033054351806640625,0.01152801513671875,-0.008453369140625,-0.00589752197265625,0.00940704345703125,0.005046844482421875,0.007110595703125,0.01276397705078125,0.01141357421875,0.019775390625,-0.0013380050659179688,0.0008320808410644531,-0.006122589111328125,0.0201263427734375,-0.0227508544921875,-0.0024318695068359375,-0.00016045570373535156,-0.0002390146255493164,0.003993988037109375,-0.01666259765625,0.00910186767578125,-0.0079803466796875,-0.013214111328125,0.00799560546875,0.0037708282470703125,-0.0014028549194335938,0.01367950439453125,0.00626373291015625,-0.0014629364013671875,0.0059051513671875,0.00907135009765625,-0.00096893310546875,-0.008880615234375,0.004695892333984375,-0.017303466796875,-0.0038013458251953125,-0.01139068603515625,-0.008575439453125,0.004619598388671875,-0.00403594970703125,0.0170135498046875,-0.032928466796875,-0.00827789306640625,-0.0015354156494140625,-0.01323699951171875,-0.0211334228515625,-0.013641357421875,-0.0287322998046875,0.006641387939453125,-0.0184326171875,-0.0128173828125,-0.016357421875,0.014404296875,-0.0086517333984375,-0.00493621826171875,-0.00122833251953125,-0.002002716064453125,0.005153656005859375,-0.01276397705078125,0.00013172626495361328,0.0222625732421875,-0.01012420654296875,-0.0081024169921875,-0.0070037841796875,-0.005298614501953125,-0.0163726806640625,0.0024166107177734375,-0.01337432861328125,0.006023406982421875,0.0012569427490234375,0.01001739501953125,-0.0172882080078125,-0.01517486572265625,0.0169677734375,0.00848388671875,-0.0027637481689453125,-0.01473236083984375,-0.0233154296875,-0.004665374755859375,0.00833892822265625,-0.00621795654296875,-0.0005116462707519531,0.00911712646484375,-0.0038051605224609375,-0.00466156005859375,0.01189422607421875,0.001068115234375,0.019561767578125,0.01334381103515625,0.00714874267578125,0.018951416015625,-0.006320953369140625,-0.01177978515625,0.005268096923828125,0.01511383056640625,0.003734588623046875,0.002040863037109375,0.02215576171875,0.0275115966796875,-0.02459716796875,-0.01470184326171875,-0.0206451416015625,0.00951385498046875,-0.006427764892578125,-0.005138397216796875,0.0174102783203125,0.0034503936767578125,-0.019927978515625,0.01322174072265625,-0.004436492919921875,0.0044403076171875,0.01435089111328125,-0.0225067138671875,-0.01517486572265625,-0.01200103759765625,0.002384185791015625,-0.0142059326171875,0.0195159912109375,0.00714874267578125,-0.0033321380615234375,0.0189056396484375,0.00458526611328125,0.00879669189453125,-0.005413055419921875,0.0139007568359375,0.0006704330444335938,-0.00252532958984375,-0.0156707763671875,-0.01334381103515625,0.0189666748046875,-0.012176513671875,-0.0283660888671875,-0.0090179443359375,-0.0070953369140625,-0.0243682861328125,0.002849578857421875,-0.00818634033203125,-0.0203094482421875,-0.0155487060546875,0.019073486328125,0.01366424560546875,0.012359619140625,0.03680419921875,-0.0119476318359375,0.02105712890625,0.0037059783935546875,0.01453399658203125,-0.002750396728515625,0.00943756103515625,-0.0084991455078125,0.00539398193359375,0.0231475830078125,0.0102996826171875,0.0086822509765625,0.007732391357421875,-0.006832122802734375,0.002506256103515625,-0.0007386207580566406,-0.0097198486328125,-0.002574920654296875,-0.021209716796875,0.018707275390625,0.03662109375,-0.005718231201171875,-0.0178375244140625,0.03314208984375,0.002605438232421875,0.012664794921875,0.00038695335388183594,-0.002712249755859375,0.011871337890625,-0.0018396377563476562,0.01239776611328125,0.005634307861328125,7.623434066772461e-05,0.0207672119140625,0.024688720703125,0.0019350051879882812,-0.01049041748046875,0.0149688720703125,-0.0011701583862304688,-0.00738525390625,0.0151519775390625,-0.025390625,0.0011167526245117188,0.015411376953125,-0.0003819465637207031,-0.01316070556640625,-0.0087432861328125,0.006832122802734375,-0.00905609130859375,0.0001246929168701172,0.0260162353515625,-0.02362060546875,0.0085906982421875,-0.00904083251953125,0.01161956787109375,-0.00588226318359375,0.003551483154296875,0.0016031265258789062,0.0203399658203125,-0.011810302734375,-0.0280914306640625,-0.0018873214721679688,-0.0204010009765625,-0.00200653076171875,0.00783538818359375,0.0132904052734375,0.0020999908447265625,-0.002155303955078125,-0.024017333984375,0.01015472412109375,-0.01342010498046875,-0.01180267333984375,0.022369384765625,0.01081085205078125,-0.0136260986328125,0.005313873291015625,0.024322509765625,0.00775146484375,0.03546142578125,0.0086517333984375,0.0156707763671875,-0.0009098052978515625,-0.03753662109375,-0.0013113021850585938,-0.014495849609375,0.048370361328125,0.01053619384765625,-0.01142120361328125,0.054351806640625,0.012237548828125,0.01244354248046875,-0.0121917724609375,-0.01373291015625,0.01284027099609375,0.034759521484375,0.01812744140625,0.008544921875,0.0140380859375,0.0261077880859375,-0.006031036376953125,-0.00013720989227294922,0.0187225341796875,0.004108428955078125,-0.00380706787109375,0.00080108642578125,-0.010955810546875,-0.006587982177734375,-0.007747650146484375,-0.0015087127685546875,0.030914306640625,0.0037708282470703125,0.00572967529296875,-0.003383636474609375,-0.0168609619140625,-0.0211334228515625,0.0219268798828125,-0.0037517547607421875,0.006427764892578125,0.0020389556884765625,-0.0033130645751953125,-0.0030498504638671875,-0.0162506103515625,0.01181793212890625,0.0014162063598632812,-0.003757476806640625,0.0093536376953125,0.01032257080078125,0.0083465576171875,-0.0156402587890625,0.004543304443359375,-0.01531219482421875,0.0260162353515625,0.0234375,0.0162811279296875,-0.00881195068359375,0.019775390625,-0.00870513916015625,-0.0238189697265625,0.005512237548828125,0.00811767578125,-0.0053253173828125,-0.0750732421875,-0.0117034912109375,-0.010528564453125,0.0321044921875,-0.00028586387634277344,-0.024810791015625,-0.030487060546875,0.00487518310546875,0.002285003662109375,-0.00577545166015625,0.0012903213500976562,-0.00928497314453125,-0.01157379150390625,-0.011810302734375,0.027130126953125,0.0213165283203125,-0.0094146728515625,0.01168060302734375,-0.00446319580078125,0.02459716796875,-0.01137542724609375,0.0078277587890625,-0.0050048828125,-0.0090484619140625,-0.01358795166015625,0.0171661376953125,-0.0070953369140625,0.0043487548828125,-0.00353240966796875,0.00019109249114990234,-0.00981903076171875,0.005413055419921875,0.026214599609375,-0.0022411346435546875,0.0092926025390625,-0.01085662841796875,0.006793975830078125,-0.005420684814453125,-0.0254974365234375,0.0088043212890625,-0.00577545166015625,0.0116729736328125,-0.0026645660400390625,0.0012979507446289062,0.01027679443359375,-0.0273895263671875,0.0090484619140625,0.0025272369384765625,-0.00794219970703125,0.0013704299926757812,-0.009124755859375,-0.004119873046875,-0.0072784423828125,-0.01806640625,-0.0084991455078125,-0.0275726318359375,0.016357421875,0.0238800048828125,0.0653076171875,-0.01004791259765625,0.01154327392578125,-0.0238037109375,-0.0034961700439453125,-0.0115966796875,0.0255126953125,0.006191253662109375,0.004108428955078125,0.0217742919921875,-0.005474090576171875,0.01305389404296875,0.0004591941833496094,0.00115966796875,-0.01204681396484375,0.00775909423828125,0.003520965576171875,0.00832366943359375,0.003154754638671875,0.0188140869140625,0.0008444786071777344,0.0245513916015625,-0.0122222900390625,0.004444122314453125,0.0264739990234375,-0.0071868896484375,0.005558013916015625,0.00020015239715576172,0.006664276123046875,-0.0157470703125,0.0191802978515625,0.0177459716796875,-0.03411865234375,0.02386474609375,0.01206207275390625,0.0017938613891601562,-0.0101776123046875,0.0115814208984375,0.0021820068359375,0.0099334716796875,-0.002593994140625,0.024078369140625,-0.01241302490234375,-0.01181793212890625,-0.00293731689453125,0.0164794921875,-0.0186309814453125,0.003246307373046875,-0.0019969940185546875,0.0108642578125,0.0011644363403320312,-0.0177459716796875,0.002384185791015625,0.00801849365234375,-0.009246826171875,-0.005184173583984375,-0.0004057884216308594,-0.00286865234375,-0.0022430419921875,-0.01007080078125,0.01690673828125,-0.003650665283203125,-0.004131317138671875,0.00921630859375,-0.0034885406494140625,0.0163116455078125,0.0216827392578125,-0.0257720947265625,0.0279693603515625,0.008331298828125,0.0030345916748046875,-0.0125732421875,0.01549530029296875,-0.0193634033203125,0.00411224365234375,0.0179901123046875,0.0008344650268554688,4.655122756958008e-05,0.0008053779602050781,-0.0198211669921875,-0.01611328125,-0.0247650146484375,-0.0049591064453125,-0.01404571533203125,-0.026153564453125,-0.0011692047119140625,-0.0084686279296875,-0.00374603271484375,-0.0094451904296875,0.018890380859375,0.0198822021484375,0.0236358642578125,-0.0199737548828125,7.104873657226562e-05,-0.006931304931640625,-0.0006384849548339844,0.006679534912109375,-0.0017843246459960938,0.0188751220703125,-0.0142059326171875,-0.00922393798828125,0.01160430908203125,-0.009490966796875,-0.00921630859375,0.0007052421569824219,-0.01029205322265625,0.0006380081176757812,0.020782470703125,0.002269744873046875,-0.0076141357421875,0.00017082691192626953,-0.0081939697265625,0.00011098384857177734,0.00820159912109375,0.0010843276977539062,0.00021195411682128906,0.0094451904296875,0.00545501708984375,-0.016754150390625,-0.010498046875,0.00829315185546875,0.02703857421875,0.010528564453125,-0.0031185150146484375,-0.0086212158203125,-0.02105712890625,0.01436614990234375,-0.00595855712890625,0.02001953125,0.0281524658203125,-9.799003601074219e-05,0.00186920166015625,-0.0008225440979003906,-0.007541656494140625,-0.01824951171875,-0.0242767333984375,-0.023590087890625,0.01166534423828125,0.0238800048828125,0.01442718505859375,-0.024383544921875,0.0185546875,-0.03619384765625,0.01549530029296875,-0.000644683837890625,0.020111083984375,0.007503509521484375,-0.005870819091796875,-0.005451202392578125,-0.010406494140625,0.00933837890625,-0.00421905517578125,0.00943756103515625,0.02008056640625,0.004230499267578125,-0.052978515625,-0.00653839111328125,0.03033447265625,-0.0200653076171875,0.018341064453125,-0.021820068359375,-0.0184326171875,0.00519561767578125,0.00627899169921875,0.004520416259765625,0.00650787353515625,0.00858306884765625,0.0192718505859375,-0.0031070709228515625,-0.0136566162109375,-0.0013065338134765625,0.013946533203125,0.0057830810546875,-0.00856781005859375,0.0075836181640625,-0.021240234375,0.003368377685546875,0.01291656494140625,-0.013916015625,0.004932403564453125,0.0079345703125,-0.005645751953125,0.0043182373046875,0.00946807861328125,0.0002627372741699219,0.0216064453125,0.02459716796875,0.0364990234375,-0.0275726318359375,0.0006318092346191406,0.0197906494140625,0.0027637481689453125,-0.0002168416976928711,0.010833740234375,0.01016998291015625,0.0223236083984375,-0.02239990234375,-0.007778167724609375,0.0020656585693359375,0.00258636474609375,-0.00583648681640625,-0.025115966796875,0.004322052001953125,-0.00762939453125,-0.007694244384765625,0.00276947021484375,0.0235748291015625,0.0140228271484375,-0.0002613067626953125,-0.01195526123046875,-0.023193359375,0.005268096923828125,-1.817941665649414e-05,-0.003688812255859375,-0.024658203125,-0.0266571044921875,-0.0006718635559082031,0.0127716064453125,0.0047607421875,-0.01088714599609375,0.029876708984375,-0.005115509033203125,-0.0152587890625,-0.00591278076171875,-0.01384735107421875,0.00725555419921875,0.0085296630859375,-0.01238250732421875,0.018035888671875,0.0025386810302734375,-0.015655517578125,-0.0189208984375,0.0116729736328125,0.003429412841796875,-0.0178680419921875,0.00835418701171875,0.0121002197265625,0.0195770263671875,-0.0158233642578125,-0.0273284912109375,0.0134124755859375,-0.0102996826171875,-0.0223236083984375,0.01215362548828125,-0.012481689453125,-0.0102386474609375,-0.0202789306640625,-0.00968170166015625,0.0231781005859375,0.00147247314453125,0.00835418701171875,0.01029205322265625,0.0188140869140625,-0.0173797607421875,0.0017080307006835938,0.00930023193359375,0.007328033447265625,0.003742218017578125,-0.001190185546875,-0.0093994140625,0.01280975341796875,0.01239776611328125,0.00011485815048217773,0.0229644775390625,0.0074462890625,0.010772705078125,-0.01380157470703125,-0.002521514892578125,0.0002841949462890625,0.0188751220703125,0.0158233642578125,-0.0027103424072265625,-0.0099334716796875,-0.00766754150390625,-0.0151519775390625,0.0008869171142578125,-0.00637054443359375,0.0186004638671875,0.01480865478515625,-0.01471710205078125,-0.0003502368927001953,0.03924560546875,-0.021392822265625,-0.00838470458984375,0.00406646728515625,0.0017900466918945312,0.00478363037109375,-0.01239776611328125,-0.0092926025390625,0.004283905029296875,0.0021190643310546875,-0.005893707275390625,0.015533447265625,0.002857208251953125,-0.0179901123046875,-0.004367828369140625,-0.004322052001953125,0.01194000244140625,0.015869140625,-0.010894775390625,-0.018890380859375,-0.007793426513671875,0.0161285400390625,-0.0146636962890625,0.00640106201171875,-0.004871368408203125,0.029876708984375,-0.01129150390625,-0.0234527587890625,0.0213623046875,-0.01404571533203125,-0.00872802734375,0.01470184326171875,-0.00691986083984375,0.00257110595703125,0.009857177734375,0.01323699951171875,-0.0052337646484375,0.0029850006103515625,-0.0031375885009765625,-0.003459930419921875,-0.0264892578125,0.004364013671875,-0.0018892288208007812,0.027069091796875,-0.01175689697265625,-0.016143798828125,-0.0086212158203125,0.0010557174682617188,0.00821685791015625,-0.0029449462890625,-0.0222015380859375,0.0032939910888671875,-0.00824737548828125,0.036651611328125,0.0092620849609375,-0.00507354736328125,0.0057373046875,0.0015125274658203125,-0.0057525634765625,-0.0015802383422851562,0.005695343017578125,0.001766204833984375,0.00966644287109375,-0.00357818603515625,-0.005886077880859375,-0.0026397705078125,-0.01398468017578125,0.00795745849609375,-0.0038738250732421875,-0.01142120361328125,-0.01617431640625,0.007785797119140625,-2.6285648345947266e-05,-0.005443572998046875,0.031524658203125,0.004547119140625,-0.01386260986328125,0.003765106201171875,-0.01084136962890625,-0.01495361328125,-0.01708984375,0.0191650390625,0.00554656982421875,-0.0124664306640625,-0.0199737548828125,-0.0258026123046875,0.01099395751953125,0.014007568359375,-0.0046844482421875,0.01427459716796875,0.01474761962890625,0.0140380859375,-0.0035152435302734375,0.0247344970703125,0.01776123046875,0.01511383056640625,-0.01102447509765625,-0.015869140625,-0.0087432861328125,-0.0021610260009765625,0.0014600753784179688,0.02313232421875,0.0147552490234375,0.012451171875,-0.0115966796875,0.0012598037719726562,-0.0338134765625,-0.01016998291015625,-0.01432037353515625,0.0037708282470703125,-0.008941650390625,-0.00766754150390625,0.0121002197265625,0.004123687744140625,0.003719329833984375,-0.0213775634765625,0.00870513916015625,0.0168609619140625,-0.00258636474609375,0.01605224609375,0.0171356201171875,-0.033050537109375,-0.00582122802734375,-0.0206146240234375,-0.00678253173828125,-0.0013179779052734375,-0.006565093994140625,0.00214385986328125,0.0085906982421875,-0.02069091796875,0.004787445068359375,-0.00290679931640625,0.01036834716796875,-0.0007510185241699219,-0.0035190582275390625,0.00331878662109375,-0.009552001953125,0.0165863037109375,0.030120849609375,-0.01425933837890625,-0.004486083984375,-0.0035572052001953125,0.0020542144775390625,0.00917816162109375,0.009613037109375,-0.0048828125,-0.0146026611328125,-0.00498199462890625,-0.00357818603515625,-0.006931304931640625,-0.0225830078125,-0.0087127685546875,0.014556884765625,-0.01308441162109375,0.00992584228515625,-0.0116424560546875,0.0208740234375,-0.0115814208984375,-0.00821685791015625,-0.0086517333984375,0.01229095458984375,-0.0226898193359375,0.0014553070068359375,0.007114410400390625,-0.0232086181640625,0.0283050537109375,0.0155181884765625,-0.01087188720703125,-0.0169219970703125,0.01128387451171875,0.004497528076171875,-0.0318603515625,-0.0167236328125,-0.0005617141723632812,0.0054168701171875,-0.022491455078125,-0.0038738250732421875,0.0202178955078125,-0.0134124755859375,0.0031299591064453125,-0.0011816024780273438,0.00925445556640625,0.001384735107421875,0.01442718505859375,-0.0200653076171875,-0.009490966796875,-0.00876617431640625,0.006381988525390625,-0.0010824203491210938,-0.008453369140625,0.00940704345703125,-0.01395416259765625,0.0015115737915039062,0.002410888671875,-0.00226593017578125,0.023345947265625,-0.0019435882568359375,-0.016754150390625,-0.0220947265625,0.009613037109375,-0.0152435302734375,-0.0053863525390625,0.0154266357421875,-0.01380157470703125,-0.0010004043579101562,-0.006866455078125,-0.0027523040771484375,-0.0005125999450683594,0.0010843276977539062,0.0010652542114257812,0.001628875732421875,0.01090240478515625,-0.00897979736328125,-0.0026302337646484375,-0.024261474609375,0.01136016845703125,0.0112152099609375,-8.082389831542969e-05,-0.004039764404296875,-0.004413604736328125,-0.005794525146484375,-0.01043701171875,-0.005340576171875,-0.007076263427734375,-0.019500732421875,-0.006561279296875,0.01800537109375,-0.0193634033203125,-0.0008211135864257812,-0.0088348388671875,-0.002002716064453125,-0.01959228515625,-0.009735107421875,0.019195556640625,-0.0189361572265625,0.0027923583984375,-0.0083160400390625,0.0139312744140625,0.004238128662109375,-0.0122222900390625,-0.00920867919921875,-0.0147857666015625,0.004955291748046875,-0.0189208984375,-0.0044403076171875,-0.0109405517578125,-0.00345611572265625,-0.006366729736328125,-0.004852294921875,0.0024280548095703125,0.0017576217651367188,-0.0236358642578125,-0.00788116455078125,0.005786895751953125,0.00555419921875,0.01232147216796875,0.0127105712890625,-0.0213775634765625,0.008270263671875,0.005321502685546875,-0.00783538818359375,0.004604339599609375,-0.0175018310546875,0.01027679443359375,-0.020538330078125,-0.01259613037109375,-0.0245513916015625,0.0238037109375,-0.00878143310546875,0.00862884521484375,-0.003910064697265625,0.007022857666015625,0.0210723876953125,0.0161285400390625,0.03948974609375,0.01898193359375,0.033111572265625,-0.00345611572265625,0.01171112060546875,0.0001283884048461914,0.0199737548828125,0.0010461807250976562,-0.0204010009765625,0.0002758502960205078,-0.0116729736328125,-0.0168304443359375,-0.0283355712890625,0.0040130615234375,0.0148468017578125,-0.00605010986328125,0.0019283294677734375,-0.004177093505859375,0.002716064453125,0.00841522216796875,-0.00691986083984375,0.0019102096557617188,-0.017242431640625,-0.011627197265625,0.027801513671875,0.006710052490234375,-0.032867431640625,-0.0034503936767578125,0.01275634765625,-0.0125579833984375,-0.0165252685546875,-0.0221099853515625,0.01375579833984375,-0.018341064453125,0.01413726806640625,0.001255035400390625,-0.0009708404541015625,0.0273895263671875,-0.01605224609375,0.005672454833984375,-0.015960693359375,0.00241851806640625,0.006866455078125,0.00678253173828125,0.0087738037109375,0.019500732421875,0.0035457611083984375,-0.0156097412109375,0.003940582275390625,-0.0027637481689453125,0.0099639892578125,-0.0021820068359375,-0.024078369140625,-0.01038360595703125,-0.00589752197265625,-0.011810302734375,0.00982666015625,0.0230560302734375,0.0061798095703125,0.0040130615234375,-0.00211334228515625,0.0070037841796875,0.01198577880859375,-0.0108489990234375,-0.00010514259338378906,-0.0024967193603515625,-0.021759033203125,-0.007091522216796875,-0.0226898193359375,0.01442718505859375,0.00933837890625,-0.010101318359375,-0.012542724609375,-0.006931304931640625,0.0088043212890625,-0.034698486328125,0.006412506103515625,-0.00899505615234375,0.01169586181640625,-0.0016040802001953125,-0.0061492919921875,-0.01666259765625,-0.00562286376953125,-0.00102996826171875,-0.005817413330078125,0.01435089111328125,0.007122039794921875,0.0167694091796875,-0.003917694091796875,0.0190582275390625,-0.0002677440643310547,-0.048828125,-0.0016021728515625,-0.0219573974609375,-0.013519287109375,-0.005443572998046875,0.02264404296875,-0.0019321441650390625,-0.00586700439453125,-0.01377105712890625,0.01337432861328125,-0.0017442703247070312,0.0163421630859375,-0.0007381439208984375,0.0030498504638671875,-0.022003173828125,-0.00914764404296875,-0.002330780029296875,-0.0041656494140625,-0.018951416015625,-0.0128936767578125,0.00408172607421875,0.006046295166015625,0.019683837890625,0.007022857666015625,0.0121917724609375,-0.0286407470703125,0.020233154296875,0.01160430908203125,-0.01404571533203125,-0.0034656524658203125,-0.00989532470703125,-0.01349639892578125,0.0005793571472167969,-0.026275634765625,0.00254058837890625,0.01470184326171875,0.02374267578125,-0.0171051025390625,0.0017919540405273438,-0.006755828857421875,0.006099700927734375,0.015655517578125,-0.0006809234619140625,0.0276031494140625,0.006328582763671875,0.0065460205078125,-0.0178070068359375,0.004573822021484375,-0.020843505859375,0.0203094482421875,-0.002758026123046875,0.033050537109375,0.0183258056640625,0.0159912109375,-0.0018787384033203125,0.0109710693359375,0.0051727294921875,-0.005474090576171875,0.01291656494140625,0.0161285400390625,-0.01122283935546875,0.01222991943359375,0.005077362060546875,0.0001100301742553711,-0.01001739501953125,0.01096343994140625,0.0027523040771484375,-0.0173492431640625,-0.01511383056640625,0.02471923828125,0.03143310546875,-0.046417236328125,-0.00766754150390625,0.01092529296875,0.0114593505859375,-0.002368927001953125,0.019012451171875,-0.007358551025390625,0.00743865966796875,0.00592041015625,-0.0107269287109375,0.0032558441162109375,0.009521484375,-0.0238800048828125,0.004512786865234375,0.00772857666015625,0.02142333984375,-0.0185546875,-0.0017728805541992188,-0.00650787353515625,-0.0185699462890625,-0.01690673828125,0.0079193115234375,-0.00011551380157470703,0.01277923583984375,-0.006443023681640625,-0.0357666015625,-0.00954437255859375,0.0002416372299194336,0.00325775146484375,0.043853759765625,-0.00018334388732910156,0.013519287109375,-0.01053619384765625,-0.033233642578125,0.017547607421875,-0.0214385986328125,0.0038013458251953125,-0.0169830322265625,0.0273590087890625,0.036529541015625,-0.0292816162109375,0.031463623046875,-0.002254486083984375,0.0189056396484375,0.0202178955078125,-0.03485107421875,-0.0153656005859375,-0.0012006759643554688,0.0002448558807373047,-0.0172271728515625,-0.0228424072265625,-0.00492095947265625,-0.01507568359375,-0.00213623046875,-0.006206512451171875,-0.007030487060546875,0.00806427001953125,-3.2782554626464844e-06,-0.004093170166015625,-0.00624847412109375,-0.0023403167724609375,-0.0022735595703125,-0.0028438568115234375,-0.01160430908203125,-0.021209716796875,0.00118255615234375,-0.01446533203125,-0.003665924072265625,0.00882720947265625,-0.0014677047729492188,0.0164337158203125,0.005786895751953125,-0.003025054931640625,-0.0126953125,0.0090484619140625,-0.00489044189453125,-0.0135650634765625,-0.01235198974609375,0.00887298583984375,0.007266998291015625,-0.0159912109375,-0.0189971923828125,0.0017261505126953125,-0.0186309814453125,0.014556884765625,0.004283905029296875,-0.00933837890625,0.004161834716796875,-0.0156707763671875,-0.004734039306640625,0.0175933837890625,-0.01971435546875,0.0021495819091796875,0.012939453125,-0.00804901123046875,0.00357818603515625,0.00738525390625,-0.0145721435546875,0.006748199462890625,0.003875732421875,0.008453369140625,0.0005121231079101562,-0.0099945068359375,0.00870513916015625,0.0134429931640625,0.0056610107421875,0.0112762451171875,-0.022552490234375,-0.0146942138671875,0.002117156982421875,-0.005107879638671875,0.01226043701171875,0.004215240478515625,-0.0235137939453125,-0.0116424560546875,4.220008850097656e-05,-0.021484375,1.3053417205810547e-05,0.00460052490234375,0.01105499267578125,0.0012073516845703125,0.0161895751953125,-0.00743865966796875,7.146596908569336e-05,-0.01202392578125,-0.0229034423828125,-0.009490966796875,0.0115966796875,0.01233673095703125,0.017425537109375,0.005580902099609375,0.0092315673828125,-0.010589599609375,-0.00714874267578125,-0.00775909423828125,-0.00902557373046875,-0.006877899169921875,0.01247406005859375,0.005809783935546875,-0.0004432201385498047,-0.005359649658203125,0.021820068359375,-0.00266265869140625,0.0031642913818359375,0.0120697021484375,-0.0035839080810546875,-0.0010042190551757812,0.0243988037109375,0.0132904052734375,0.007633209228515625,-0.03363037109375,-0.01039886474609375,0.01404571533203125,0.01215362548828125,0.0004706382751464844,0.007328033447265625,-0.007160186767578125,0.0057220458984375,-0.00919342041015625,0.00936126708984375,0.0012159347534179688,0.023406982421875,0.007358551025390625,0.027069091796875,0.018035888671875,0.01018524169921875,0.006633758544921875,0.0275726318359375,0.00417327880859375,-0.0140838623046875,-0.00604248046875,-0.006832122802734375,-0.0030517578125,-0.00959014892578125,0.00824737548828125,-0.00540924072265625,0.0166015625,-0.01335906982421875,-0.0290374755859375,-0.0139312744140625,0.0267333984375,-0.002536773681640625,0.01398468017578125,-0.009918212890625,-0.00582122802734375,0.00757598876953125,0.033172607421875,0.030487060546875,0.0011310577392578125,0.00215911865234375,0.00034165382385253906,0.0002789497375488281,0.00809478759765625,-0.0009217262268066406,0.017608642578125,0.00408935546875,0.019927978515625,0.005550384521484375,0.004154205322265625,0.019195556640625,-0.02374267578125,0.000823974609375,-0.01544189453125,-0.0142974853515625,0.00919342041015625,0.0163421630859375,-0.0098724365234375,-0.0194854736328125,0.02301025390625,0.00799560546875,0.0137176513671875,0.0089111328125,0.0186920166015625,-0.0246734619140625,-0.0010957717895507812,-0.0203399658203125,-0.01824951171875,0.0097808837890625,-0.0112457275390625,0.010040283203125,0.0119781494140625,0.0160675048828125,-0.003879547119140625,-0.0157623291015625,-0.00992584228515625,0.006694793701171875,-0.0218963623046875,0.0055084228515625,-0.00936126708984375,0.006977081298828125,-0.0010004043579101562,0.0005664825439453125,0.02001953125,-0.0288848876953125,-0.033050537109375,0.01071929931640625,-0.01593017578125,0.004543304443359375,0.0065155029296875,0.00031876564025878906,-0.0231475830078125,0.004283905029296875,0.0023136138916015625,-0.002414703369140625,0.0106353759765625,-0.00864410400390625,0.012237548828125,0.021453857421875,-0.01096343994140625,0.0215301513671875,0.018157958984375,-0.026275634765625,0.00811767578125,-0.029693603515625,-0.011627197265625,-0.01285552978515625,-0.01154327392578125,0.0012292861938476562,-0.01107025146484375,0.0030364990234375,-0.0160064697265625,0.0110015869140625,-0.0034694671630859375,-0.0146636962890625,0.0007891654968261719,0.0184783935546875,-0.0015439987182617188,-0.0102691650390625,-0.0018663406372070312,0.0227508544921875,0.00018715858459472656,-0.010711669921875,0.008087158203125,0.0179901123046875,-0.027252197265625,-0.0245819091796875,0.009918212890625,0.005840301513671875,-0.0087738037109375,-0.0408935546875,-0.002422332763671875,0.0200653076171875,0.0140228271484375,-0.001064300537109375,-0.02178955078125,0.00399017333984375,0.001789093017578125,-0.0045623779296875,0.02154541015625,0.0151519775390625,0.0300445556640625,0.006443023681640625,-0.00238800048828125,0.01474761962890625,-0.00988006591796875,0.0140838623046875,-0.01238250732421875,-0.005031585693359375,0.00045990943908691406,-0.0166168212890625,0.01019287109375,-0.01557159423828125,-0.004558563232421875,0.01416778564453125,-0.0075225830078125,0.0042877197265625,-0.0037479400634765625,0.01000213623046875,-0.01064300537109375,0.0038299560546875,-0.00738525390625,-0.004070281982421875,-0.007503509521484375,-0.0008034706115722656,-0.01349639892578125,-0.0028896331787109375,-0.007778167724609375,0.0139312744140625,-0.0240478515625,-0.0036602020263671875,-0.004131317138671875,0.018463134765625,-0.005100250244140625,0.0034389495849609375,0.0014400482177734375,-0.006122589111328125,0.031524658203125,0.004611968994140625,-0.00643157958984375,-0.005584716796875,-0.0082855224609375,0.00131988525390625,-0.01416778564453125,0.00202178955078125,-0.007183074951171875,-0.004886627197265625,-0.00429534912109375,-0.023773193359375,-0.01290130615234375,0.0019369125366210938,0.00559234619140625,-0.01453399658203125,-0.0269927978515625,-0.00096893310546875,0.0007839202880859375,-0.01153564453125,-0.029571533203125,0.0202789306640625,-0.0107269287109375,-0.0127105712890625,0.00743865966796875,-0.003322601318359375,0.007541656494140625,-0.0101470947265625,-0.0031261444091796875,-0.0099945068359375,-0.0122833251953125,-0.016448974609375,-0.00041794776916503906,-0.0074310302734375,0.00930023193359375,0.0089874267578125,-0.0021514892578125,-0.012603759765625,0.01262664794921875,0.0106353759765625,-0.0125732421875,-0.0177154541015625,-0.01520538330078125,-0.014404296875,-0.029541015625,0.0002410411834716797,0.00899505615234375,0.01153564453125,-0.004970550537109375,-0.0139312744140625,0.0025730133056640625,-0.005359649658203125,-0.020843505859375,0.03216552734375,-0.0221099853515625,0.00753021240234375,0.006107330322265625,-0.001453399658203125,0.003208160400390625,0.00772857666015625,0.0227813720703125,0.0013227462768554688,0.006626129150390625,-0.01380157470703125,-0.0043182373046875,-0.0020275115966796875,0.002223968505859375,-0.02105712890625,0.004608154296875,0.01331329345703125,-0.0181732177734375,0.0069580078125,-0.01904296875,0.00539398193359375,0.01389312744140625,7.021427154541016e-05,-0.0020656585693359375,0.014373779296875,0.0008330345153808594,0.002338409423828125,0.0113983154296875,-0.01152801513671875,-0.029388427734375,-0.023345947265625,-0.026275634765625,-0.009796142578125,-0.0006899833679199219,0.0099639892578125,-0.01322174072265625,-0.01387786865234375,0.0254974365234375,0.01462554931640625,-0.0221099853515625,0.003337860107421875,-0.01465606689453125,0.0018320083618164062,0.00289154052734375,-0.00366973876953125,0.005786895751953125,-0.00865936279296875,-0.0272064208984375,-0.0256805419921875,0.006427764892578125,-0.0016889572143554688,-0.00927734375,0.004085540771484375,-0.0179595947265625,-0.035186767578125,0.003665924072265625,-0.0117645263671875,0.021392822265625,0.0008597373962402344,0.01335906982421875,-0.006450653076171875,0.0135345458984375,-0.015838623046875,0.01464080810546875,0.0108642578125,-0.017852783203125,-0.01387786865234375,-0.0024433135986328125,0.00081634521484375,0.0196685791015625,-0.005245208740234375,-0.0037822723388671875,0.0030994415283203125,-0.007640838623046875,-0.006542205810546875,0.00865936279296875,0.003604888916015625,0.001373291015625,-0.008575439453125,-0.06329345703125,0.0028591156005859375,-0.0105743408203125,-0.016632080078125,-0.0004813671112060547,0.0113067626953125,-0.01522064208984375,0.0268402099609375,0.0101318359375,0.0006833076477050781,-0.00949859619140625,0.00995635986328125,0.0347900390625,-0.004726409912109375,-0.00748443603515625,-0.00859832763671875,-0.003787994384765625,-0.0014009475708007812,0.04913330078125,-0.0191497802734375,0.0251617431640625,-0.017578125,0.004367828369140625,-0.02288818359375,0.002048492431640625,-0.0249481201171875,-0.0190887451171875,0.016693115234375,0.0080108642578125,0.003917694091796875,0.0096282958984375,-0.003101348876953125,-0.0038604736328125,-0.0033168792724609375,-0.01153564453125,0.004787445068359375,0.009857177734375,-0.019927978515625,0.017913818359375,-0.005542755126953125,-0.01482391357421875,-0.0022068023681640625,-0.0023670196533203125,-0.004802703857421875,0.006748199462890625,-0.002887725830078125,-0.011260986328125,-0.0030956268310546875,0.019317626953125,0.017425537109375,0.01568603515625,0.00374603271484375,-0.0343017578125,-0.01358795166015625,0.021759033203125,-0.0152435302734375,0.0260162353515625,-0.039825439453125,0.0014934539794921875,-0.023529052734375,-0.017364501953125,0.013458251953125,0.0046539306640625,-0.0189971923828125,-0.00525665283203125,0.0020294189453125,-0.0012903213500976562,-0.005107879638671875,0.01526641845703125,0.00540924072265625,0.0091705322265625,0.005481719970703125,0.010345458984375,0.003101348876953125,-0.0037841796875,0.00821685791015625,-0.0202484130859375,-0.0157012939453125,-0.014495849609375,-0.0196990966796875,-0.0262451171875,0.0145721435546875,-0.006626129150390625,0.0173492431640625,-0.005279541015625,0.0132293701171875,0.0239715576171875,0.002593994140625,0.010986328125,-0.002201080322265625,-0.0181884765625,-0.010345458984375,0.01244354248046875,0.01517486572265625,0.00927734375,0.00469970703125,0.00971221923828125,0.011199951171875,0.01317596435546875,-0.023956298828125,0.003154754638671875,-0.01360321044921875,0.035369873046875,-8.285045623779297e-06,0.006023406982421875,-0.027496337890625,-0.0262603759765625,-0.0006909370422363281,0.01849365234375,0.003292083740234375,0.017425537109375,0.01177978515625,0.0011034011840820312,0.01271820068359375,-0.01678466796875,-0.00653076171875,0.0021152496337890625,-0.037017822265625,0.00472259521484375,-0.0247650146484375,0.01015472412109375,0.0024394989013671875,0.004093170166015625,-0.0177764892578125,0.0022106170654296875,0.017791748046875,0.003604888916015625,0.003719329833984375,0.006557464599609375,-0.01453399658203125,0.00490570068359375,0.0221099853515625,0.016998291015625,0.01224517822265625,-0.0036373138427734375,0.0169525146484375,-0.0088043212890625,0.023193359375,0.01087188720703125,0.010711669921875,0.02496337890625,0.0135650634765625,-0.0196380615234375,-0.020599365234375,0.0029010772705078125,-0.004711151123046875,-0.004398345947265625,-0.00308990478515625,-0.00359344482421875,0.011932373046875,0.00812530517578125,0.0131988525390625,-0.00923919677734375,0.00777435302734375,0.0193939208984375,-0.03668212890625,-0.00550079345703125,0.002655029296875,0.020599365234375,-0.004638671875,0.005741119384765625,0.00794219970703125,-0.0013685226440429688,-0.005889892578125,0.0006537437438964844,-0.0009336471557617188,-0.0100555419921875,0.01557159423828125,-0.016815185546875,-0.02783203125,0.007350921630859375,0.004077911376953125,-0.00939178466796875,-0.00620269775390625,-0.01404571533203125,-0.007793426513671875,-0.00742340087890625,0.0033740997314453125,-0.006938934326171875,-0.016998291015625,0.004924774169921875,-0.024627685546875,-0.004924774169921875,-0.0306396484375,0.022613525390625,0.0011157989501953125,-0.019927978515625,-0.018035888671875,0.00818634033203125,-0.0321044921875,-0.003437042236328125,0.011474609375,-0.004093170166015625,-0.006847381591796875,-0.0012083053588867188,0.0150604248046875,-0.0247344970703125,-0.005268096923828125,-0.012542724609375,-0.0016088485717773438,-0.00826263427734375,-0.00399017333984375,-0.012908935546875,-0.004703521728515625,0.01418304443359375,0.00261688232421875,-0.00638580322265625,0.01171875,-0.006008148193359375,-0.002086639404296875,-0.0113372802734375,0.01270294189453125,-0.005115509033203125,-0.0166778564453125,-0.032684326171875,0.0018482208251953125,-0.0277252197265625,-0.0130462646484375,0.01229095458984375,0.02838134765625,-0.01141357421875,-0.0015687942504882812,-0.007503509521484375,-0.0032901763916015625,-0.0128326416015625,-0.0184173583984375,0.00583648681640625,0.0186004638671875,0.0167388916015625,-0.023834228515625,-0.00855255126953125,0.01763916015625,-0.00954437255859375,0.023895263671875,-0.00466156005859375,0.018280029296875,-0.00208282470703125,0.0081024169921875,0.0364990234375,0.01154327392578125,-0.0207977294921875,-0.0036602020263671875,0.01104736328125,0.0059661865234375,0.004913330078125,0.0241241455078125,-0.03631591796875,-0.0214691162109375,0.030670166015625,0.032135009765625,-0.0157012939453125,0.01323699951171875,0.006725311279296875,0.0243377685546875,0.01142120361328125,-0.0232696533203125,0.00656890869140625,0.0027370452880859375,-0.01165771484375,0.0018854141235351562,-0.01090240478515625,0.042633056640625,0.0038204193115234375,-0.0191802978515625,0.03375244140625,0.0172882080078125,-0.007076263427734375,-0.006687164306640625,0.007694244384765625,0.015655517578125,0.00542449951171875,-0.006214141845703125,-0.000568389892578125,-6.496906280517578e-05,0.01126861572265625,-0.014892578125,-0.023895263671875,-0.00945281982421875,0.0142974853515625,-0.007450103759765625,0.0139007568359375,0.015869140625,0.025909423828125,-0.0001977682113647461,-0.004108428955078125,0.0192718505859375,0.021728515625,0.0156707763671875,-0.02764892578125,-0.01256561279296875,0.0236053466796875,-0.01502227783203125,0.008026123046875,-0.007457733154296875,0.01064300537109375,-0.008331298828125,0.0229644775390625,0.003875732421875,-0.006000518798828125,0.021636962890625,0.00783538818359375,-0.02020263671875,-0.0121307373046875,-0.0189971923828125,-0.008697509765625,-0.0196533203125,-0.01898193359375,-0.002490997314453125,-0.0007381439208984375,0.006427764892578125,0.0025386810302734375,0.0120849609375,0.01076507568359375,0.0175933837890625,-0.008392333984375,0.137451171875,-0.0195159912109375,0.0084075927734375,-0.0084381103515625,0.04473876953125,0.001514434814453125,-0.01280975341796875,0.01386260986328125,0.01184844970703125,0.002971649169921875,0.005321502685546875,0.0027751922607421875,0.0165252685546875,0.025360107421875,0.00818634033203125,0.005847930908203125,0.005401611328125,-0.0086517333984375,0.010406494140625,0.0066375732421875,0.00685882568359375,0.00626373291015625,-0.0175323486328125,-0.01261138916015625,-0.00954437255859375,0.005054473876953125,0.019134521484375,-0.006664276123046875,0.004375457763671875,0.0094146728515625,0.0130462646484375,-0.0038928985595703125,0.0085906982421875,0.00673675537109375,0.01149749755859375,-0.0015516281127929688,-0.005367279052734375,-0.01053619384765625,-0.003936767578125,0.0157623291015625,-0.00894927978515625,0.0202789306640625,-0.00617218017578125,-0.0140228271484375,-0.0004291534423828125,-0.0013408660888671875,-0.02398681640625,-0.01010894775390625,-0.00994110107421875,-0.01178741455078125,-0.0022335052490234375,-0.0005164146423339844,-0.00374603271484375,0.0034503936767578125,-0.01285552978515625,-0.0041046142578125,0.007183074951171875,0.0069122314453125,0.0303802490234375,0.0066375732421875,-0.011871337890625,-0.010040283203125,0.015167236328125,0.0124969482421875,0.0222930908203125,0.002292633056640625,-0.00533294677734375,-0.0009140968322753906,-0.01453399658203125,-0.0219268798828125,-0.0015621185302734375,-0.0208892822265625,0.0271759033203125,0.004016876220703125,-0.00794219970703125,0.021148681640625,0.01261138916015625,-0.01375579833984375,-0.0148468017578125,-0.00902557373046875,0.00391387939453125,0.0015239715576171875,-0.0079803466796875,0.01300811767578125,0.02227783203125,-0.0040283203125,0.008209228515625,0.0010080337524414062,0.01580810546875,-0.02630615234375,0.01099395751953125,0.00661468505859375,-0.0010137557983398438,0.0002923011779785156,0.0740966796875,-9.769201278686523e-05,-0.0083465576171875,-0.00022363662719726562,-0.002666473388671875,0.0097808837890625,0.0091400146484375,-0.0007338523864746094,0.00762176513671875,0.01482391357421875,0.00279998779296875,-0.0003247261047363281,-0.004467010498046875,0.00991058349609375,-0.0087890625,-0.01020050048828125,-0.0134735107421875,0.005840301513671875,-0.016143798828125,-0.00508880615234375,0.002445220947265625,0.0024356842041015625,-0.025787353515625,-0.019744873046875,0.021392822265625,0.0038433074951171875,-0.026092529296875,-0.002002716064453125,-0.0156097412109375,0.0171966552734375,0.0160980224609375,-0.02703857421875,-0.00772857666015625,-0.01265716552734375,0.0191497802734375,0.01258087158203125,-0.0037784576416015625,0.01177215576171875,-0.00994873046875,0.022918701171875,0.0303802490234375,-0.020751953125,-0.006427764892578125,-0.015411376953125,0.0013113021850585938,0.007457733154296875,0.0091400146484375,-0.00397491455078125,-0.0016622543334960938,-0.01215362548828125,0.01418304443359375,0.006000518798828125,-0.006610870361328125,-0.00785064697265625,0.0023174285888671875,0.00785064697265625,0.0170745849609375,0.0047454833984375,0.0014781951904296875,0.0082855224609375,-0.01026153564453125,-0.003482818603515625,-0.0085906982421875,0.01129150390625,0.011749267578125,0.01983642578125,-0.0051727294921875,0.0012683868408203125,0.005016326904296875,0.00658416748046875,0.00983428955078125,-0.0182037353515625,-0.003917694091796875,-0.0274658203125,-0.00995635986328125,-0.0103759765625,0.0112152099609375,-0.0003056526184082031,0.00794219970703125,-0.0010051727294921875,-0.0071563720703125,-0.0011758804321289062,0.0244598388671875,-0.0043182373046875,0.01837158203125,-0.01019287109375,0.01096343994140625,0.0026111602783203125,-0.0017375946044921875,-0.01001739501953125,-0.037017822265625,-0.00359344482421875,0.003917694091796875,-0.00794219970703125,0.042205810546875,-0.006195068359375,0.00032782554626464844,-0.0113677978515625,-0.006267547607421875,0.0162200927734375,0.01358795166015625,0.0164337158203125,0.0004298686981201172,0.01123046875,0.00968170166015625,0.0019207000732421875,0.005954742431640625,0.006023406982421875,0.00499725341796875,0.004787445068359375,0.00952911376953125,-0.004093170166015625,-0.01300048828125,0.0010061264038085938,0.0170745849609375,0.00908660888671875,0.0091705322265625,0.0019893646240234375,-0.0002694129943847656,0.02593994140625,0.00788116455078125,0.007549285888671875,0.0028839111328125,0.01080322265625,-0.0256500244140625,0.0241851806640625,0.010345458984375,0.016632080078125,0.0107574462890625,-0.01522064208984375,0.01495361328125,0.01181793212890625,-0.0005025863647460938,0.01537322998046875,-0.0029125213623046875,-0.0007739067077636719,-0.03216552734375,0.0033111572265625,0.008941650390625,-0.002948760986328125,-0.024444580078125,0.004581451416015625,0.00290679931640625,0.01117706298828125,0.003482818603515625,-0.01873779296875,-0.01171875,-0.007049560546875,-0.02398681640625,-0.022491455078125,0.01267242431640625,-0.003173828125,-0.003604888916015625,-0.013092041015625,-0.0234375,0.0182647705078125,-2.7358531951904297e-05,0.0036525726318359375,-0.02978515625,-0.004024505615234375,0.0088043212890625,-0.0125274658203125,0.0289306640625,0.00783538818359375,0.01380157470703125,0.01236724853515625,0.0211181640625,-0.0162506103515625,0.00922393798828125,0.003955841064453125,0.0019350051879882812,0.018096923828125,-0.0010480880737304688,-0.0079803466796875,-0.0130767822265625,-0.006103515625,0.01186370849609375,-0.0089569091796875,0.013946533203125,-0.01153564453125,-0.0200347900390625,-0.00200653076171875,0.0050201416015625,0.005764007568359375,-0.0175628662109375,0.01425933837890625,-0.010223388671875,0.01305389404296875,-0.00403594970703125,-0.0185089111328125,0.021728515625,-0.0025348663330078125,0.014312744140625,-0.02838134765625,-0.00984954833984375,0.01451873779296875,0.0250244140625,0.017852783203125,0.005184173583984375,-0.0154266357421875,-0.0026378631591796875,0.01332855224609375,0.020294189453125,0.013397216796875,0.00252532958984375,0.02386474609375,0.0092315673828125,0.01145172119140625,-0.01200103759765625,0.0069580078125,0.0006999969482421875,0.004367828369140625,0.0012521743774414062,-0.00037980079650878906,0.004413604736328125,0.018707275390625,-0.00016176700592041016,-0.0296783447265625,0.0039005279541015625,0.01210784912109375,0.0162811279296875,0.015899658203125,0.0084991455078125,-0.0194549560546875,-0.0003688335418701172,-0.00010228157043457031,-0.000732421875,0.0125885009765625,-0.00279998779296875,0.0105743408203125,0.004581451416015625,-0.006092071533203125,-0.01197052001953125,0.00539398193359375,0.008148193359375,-0.01739501953125,0.0117340087890625,-0.07708740234375,0.01947021484375,0.0021190643310546875,0.0266571044921875,0.006900787353515625,-0.03466796875,-0.004138946533203125,0.0157012939453125,-0.0048828125,0.013641357421875,0.002399444580078125,0.002628326416015625,-0.008087158203125,-0.0167999267578125,0.01377105712890625,0.005504608154296875,0.0020294189453125,0.0173797607421875,0.0021953582763671875,-0.0028705596923828125,0.01285552978515625,-0.01546478271484375,0.023468017578125,0.01120758056640625,-0.0132904052734375,-0.01433563232421875,-0.00730133056640625,-0.004131317138671875,-0.006565093994140625,-0.00585174560546875,-0.002674102783203125,0.01165008544921875,0.00261688232421875,0.01520538330078125,0.0152435302734375,-0.005970001220703125,-0.0084991455078125,0.0208282470703125,-0.01611328125,0.003284454345703125,0.004863739013671875,-0.006381988525390625,0.01922607421875,0.05987548828125,0.00909423828125,0.01415252685546875,-0.015045166015625,0.00101470947265625,0.03289794921875,-0.00556182861328125,-0.00795745849609375,0.037445068359375,-0.01342010498046875,-0.0154266357421875,0.00531768798828125,-0.0016489028930664062,-0.006206512451171875,-0.031005859375,-0.00960540771484375,0.0014972686767578125,0.00897216796875,0.007122039794921875,-0.0168914794921875,-0.00020051002502441406,0.0209503173828125,-0.005947113037109375,0.0148773193359375,-0.01079559326171875,-0.00034689903259277344,0.002490997314453125,0.00493621826171875,-0.0033397674560546875,-0.005741119384765625,0.00572967529296875,-0.0015010833740234375,0.0005578994750976562,-0.0007753372192382812,-0.0232696533203125,-0.004634857177734375,-0.0024433135986328125,-0.0014524459838867188,0.01081085205078125,-0.04339599609375,0.00302886962890625,-0.00495147705078125,0.0215606689453125,-0.00762939453125,-0.0180206298828125,-0.00411224365234375,-1.7940998077392578e-05,-0.003520965576171875,-0.0016574859619140625,0.0159759521484375,-0.00644683837890625,1.2099742889404297e-05,-0.004650115966796875,0.00873565673828125,0.0006284713745117188,0.01136016845703125,-0.004791259765625,-0.0195159912109375,-0.0009160041809082031,0.0007562637329101562,-0.003810882568359375,-0.0014171600341796875,-0.0047607421875,0.00870513916015625,0.008026123046875,0.00772857666015625,-0.024932861328125,0.03240966796875,0.038421630859375,0.007419586181640625,-0.0141143798828125,-0.0080718994140625,0.0142974853515625,-0.00432586669921875,0.0004639625549316406,0.02532958984375,-0.0025081634521484375,0.005916595458984375,-0.0015125274658203125,-0.007495880126953125,-0.0122528076171875,0.005077362060546875,0.0259552001953125,0.007549285888671875,0.001972198486328125,0.007366180419921875,0.0227203369140625,-0.0079345703125,-0.00746917724609375,-0.01136016845703125,0.00814056396484375,-0.00669097900390625,-0.01451873779296875,-0.0094451904296875,0.0242462158203125,0.0156707763671875,0.0271759033203125,-0.00388336181640625,0.01062774658203125,0.0007925033569335938,-0.019439697265625,0.0029239654541015625,-0.01024627685546875,0.01288604736328125,-0.0118865966796875,-0.030487060546875,0.0104522705078125,-0.00429534912109375,0.0156402587890625,0.000652313232421875,-0.01776123046875,-0.00733184814453125,-0.0018215179443359375,-0.005611419677734375,0.01142120361328125,-0.0008573532104492188,0.019378662109375,0.0028228759765625,0.0078125,0.029205322265625,-0.03009033203125,-0.0174102783203125,0.01235198974609375,0.00714874267578125,-0.0009331703186035156,0.00539398193359375,-0.0088043212890625,-0.0041046142578125,0.004665374755859375,0.0028839111328125,0.00018906593322753906,0.0077667236328125,-0.0635986328125,0.0080718994140625,-0.00782012939453125,0.01357269287109375,-0.003406524658203125,0.01055908203125,-0.013519287109375,0.0220947265625,0.00719451904296875,0.0002040863037109375,0.01096343994140625,-0.0014238357543945312,0.006847381591796875,0.012908935546875,-0.01287078857421875,-0.007396697998046875,-0.01202392578125,-0.005290985107421875,-0.000640869140625,0.023712158203125,-0.0157318115234375,-0.0213470458984375,-0.00751495361328125,-0.018310546875,0.026275634765625,0.001171112060546875,0.00042700767517089844,-0.01491546630859375,0.03973388671875,0.0137176513671875,0.012786865234375,-0.0198974609375,0.016021728515625,-0.0158233642578125,-0.00988006591796875,-0.004322052001953125,0.020599365234375,-0.019775390625,0.01319122314453125,-0.0213623046875,0.00949859619140625,-0.0130615234375,-0.039031982421875,-0.024566650390625,0.00128936767578125,0.0012187957763671875,0.038055419921875,0.02783203125,-0.0007796287536621094,-0.017181396484375,-0.015777587890625,0.0018320083618164062,-0.004619598388671875,0.040435791015625,0.024566650390625,-0.0287322998046875,0.0228424072265625,0.0267791748046875,-0.01126861572265625,-0.0020751953125,0.0161590576171875,-0.0137176513671875,-0.0091552734375,0.011749267578125,-0.005695343017578125,0.006591796875,0.004817962646484375,-0.00777435302734375,-0.018707275390625,0.0308837890625,0.005828857421875,0.0037288665771484375,-0.0134735107421875,-0.008575439453125,-0.0059051513671875,-0.0174713134765625,0.002750396728515625,-0.005481719970703125,0.0219268798828125,0.00583648681640625,-0.003116607666015625,-0.006702423095703125,-0.0037746429443359375,-0.01064300537109375,-0.0132598876953125,0.005970001220703125,-0.01508331298828125,-0.0302734375,-0.01136016845703125,0.00423431396484375,0.02862548828125,0.03131103515625,0.019195556640625,-0.02069091796875,0.0168914794921875,-0.0230560302734375,0.01959228515625,0.0194549560546875,-0.0030384063720703125,0.02435302734375,-0.007038116455078125,-0.00550079345703125,0.0087890625,0.04034423828125,-0.005893707275390625,0.032470703125,-0.004337310791015625,0.0018072128295898438,0.003574371337890625,0.016265869140625,-0.0313720703125,-0.01043701171875,-0.01050567626953125,0.002899169921875,0.00574493408203125,-0.01366424560546875,-0.006305694580078125,-0.0115203857421875,-0.0030269622802734375,0.01461029052734375,-0.0186920166015625,-0.0016422271728515625,-0.0279693603515625,0.0027866363525390625,0.006710052490234375,-0.0115509033203125,0.009185791015625,0.01331329345703125,0.0026378631591796875,-0.0143890380859375,0.010162353515625,-0.01436614990234375,0.02099609375,-0.0063018798828125,0.00827789306640625,-0.0242919921875,-0.0035552978515625,-0.0216827392578125,-0.01763916015625,-0.0004451274871826172,0.019744873046875,-0.0007796287536621094,-0.0176544189453125,0.005771636962890625,0.019561767578125,-0.003238677978515625,-0.0131072998046875,-0.02142333984375,-0.0019350051879882812,-0.001247406005859375,0.0118865966796875,0.0119476318359375,-0.0007295608520507812,-0.003231048583984375,0.0013751983642578125,-0.032470703125,-0.006984710693359375,-0.0027008056640625,-0.01727294921875,-0.0121307373046875,-0.0081787109375,-0.04364013671875,-0.0017786026000976562,0.015228271484375,0.0022449493408203125,-0.0031833648681640625,0.004058837890625,-0.0003809928894042969,-0.008514404296875,-0.001354217529296875,-0.00972747802734375,0.013275146484375,-0.028045654296875,-0.0112762451171875,-0.0031032562255859375,-0.0215606689453125,-0.0002906322479248047,-0.03033447265625,-0.01148223876953125,0.01360321044921875,0.0031108856201171875,-0.004322052001953125,0.0056915283203125,-0.004802703857421875,-0.0175018310546875,-0.018463134765625,0.00959014892578125,-0.00783538818359375,0.01837158203125,-0.00922393798828125,-0.009124755859375,0.0011682510375976562,-0.01305389404296875,-0.018829345703125,-0.021636962890625,-0.006946563720703125,-0.007904052734375,-0.0012340545654296875,0.0195159912109375,0.005161285400390625,0.0079345703125,-0.0325927734375,0.0020923614501953125,0.0005588531494140625,0.01451873779296875,-0.0186614990234375,-0.0304107666015625,0.0263519287109375,0.00739288330078125,0.01207733154296875,-0.0025272369384765625,0.01763916015625,0.00891876220703125,0.0036869049072265625,0.0255279541015625,-0.0300140380859375,0.013092041015625,0.03411865234375,-0.01338958740234375,-0.037322998046875,0.0035686492919921875,-0.0020236968994140625,0.002033233642578125,-0.01194000244140625,0.008056640625,0.009063720703125,0.01404571533203125,-0.0048370361328125,0.0031261444091796875,0.0011301040649414062,-0.004398345947265625,0.00027441978454589844,-0.003475189208984375,0.00921630859375,-0.00850677490234375,-0.01389312744140625,-0.003353118896484375,0.01079559326171875,0.008209228515625,-0.0029754638671875,0.00728607177734375,0.0082244873046875,0.00659942626953125,0.0207672119140625,-0.00472259521484375,0.01276397705078125,-0.0218505859375,-0.0091400146484375,-0.00701904296875,-0.0028438568115234375,-0.02081298828125,0.00860595703125,0.006427764892578125,0.00894927978515625,0.01384735107421875,-0.0094451904296875,-0.0010118484497070312,-0.00798797607421875,-0.0149383544921875,0.01226043701171875,-0.0018939971923828125,-0.00354766845703125,-0.006443023681640625,-0.00885009765625,0.0117950439453125,-0.033172607421875,-0.031646728515625,-0.007259368896484375,-0.0056915283203125,-0.0093841552734375,-0.0029239654541015625,-0.01165771484375,0.00078582763671875,-0.0037937164306640625,0.0025310516357421875,-0.0058135986328125,-0.003841400146484375,-0.0187835693359375,0.006664276123046875,0.0200042724609375,-0.0039005279541015625,-0.003742218017578125,-0.00560760498046875,-0.00829315185546875,-0.0044403076171875,-0.00045871734619140625,-0.015960693359375,-0.01230621337890625,0.00380706787109375,0.01049041748046875,0.005130767822265625,0.00238037109375,0.008880615234375,-0.005428314208984375,-0.0047454833984375,0.0276031494140625,0.0018320083618164062,-0.0056610107421875,0.01142120361328125,0.01190948486328125,0.0078582763671875,0.0227203369140625,-0.0027904510498046875,0.0190582275390625,-0.007076263427734375,0.0249481201171875,0.031494140625,-0.0019741058349609375,0.0248565673828125,-0.00864410400390625,0.0020904541015625,0.006893157958984375,-0.0177001953125,0.00478363037109375,-0.009552001953125,0.003757476806640625,-0.0015516281127929688,0.005977630615234375,-0.0030193328857421875,-0.00681304931640625,0.0152435302734375,0.01418304443359375,0.0109405517578125,-0.01490020751953125,-0.01219940185546875,0.007640838623046875,0.01104736328125,-0.031646728515625,0.007511138916015625,-0.004276275634765625,-0.0078887939453125,-0.036102294921875,0.006244659423828125,-0.0224609375,-0.0212554931640625,-0.00957489013671875,-0.00630950927734375,-0.023651123046875,-0.0115966796875,0.03985595703125,-0.00543212890625,0.0092315673828125,-0.031585693359375,0.006832122802734375,0.0167083740234375,0.0238189697265625,0.009735107421875,0.0067291259765625,0.0182037353515625,-0.0024394989013671875,-0.00222015380859375,-0.01398468017578125,0.01220703125,-0.02447509765625,0.02655029296875,0.0017328262329101562,-0.00626373291015625,-0.0036602020263671875,0.0062103271484375,0.00955963134765625,-0.018463134765625,-0.01361083984375,-0.0151519775390625,-0.01885986328125,-0.003978729248046875,-0.0027065277099609375,0.005870819091796875,-0.00634002685546875,-0.00036144256591796875,0.006252288818359375,-0.0065460205078125,0.0168914794921875,-0.01015472412109375,-0.086181640625,0.00374603271484375,-0.0192108154296875,-0.01490020751953125,-0.01171875,0.01140594482421875,0.0095672607421875,0.0218048095703125,0.0100860595703125,-0.0030841827392578125,-0.006633758544921875,0.002048492431640625,0.01020050048828125,-0.00208282470703125,-0.002986907958984375,-0.0030689239501953125,-0.005931854248046875,0.0008797645568847656,0.011566162109375,-0.00691986083984375,-0.038330078125,0.0058746337890625,-0.0177459716796875,-0.01242828369140625,0.0134124755859375,0.0199737548828125,0.01258087158203125,-0.0021114349365234375,-0.0095367431640625,0.0156097412109375,-0.004627227783203125,-0.0030689239501953125,-0.0037689208984375,0.01308441162109375,0.0021648406982421875,-0.0184783935546875,0.0203857421875,0.0041046142578125,0.007785797119140625,-0.0019283294677734375,0.0006198883056640625,-0.01169586181640625,-0.01174163818359375,-0.0159759521484375,-0.01340484619140625,-0.0035877227783203125,6.556510925292969e-06,0.0237884521484375,-0.0134124755859375,-0.021514892578125,-0.00930023193359375,0.002223968505859375,0.004497528076171875,0.02825927734375,0.01483917236328125,-0.01006317138671875,-0.0013790130615234375,-0.019744873046875,-0.0036067962646484375,-0.022735595703125,0.0022754669189453125,0.0075836181640625,0.0016050338745117188,-0.0009584426879882812,-0.025054931640625,0.0196533203125,-0.01113128662109375,0.005970001220703125,0.0127105712890625,-8.636713027954102e-05,-0.015350341796875,-0.007259368896484375,0.006473541259765625,-0.010498046875,0.0146636962890625,-0.006740570068359375,0.01094818115234375,-0.0092010498046875,0.00150299072265625,0.01039886474609375,0.0172882080078125,0.0139312744140625,-0.01119232177734375,-0.02020263671875,-0.00762176513671875,-0.016265869140625,0.01294708251953125,-0.01558685302734375,-0.01172637939453125,0.02685546875,-0.01727294921875,-0.0212860107421875,-0.00804901123046875,0.0169525146484375,-0.01837158203125,0.0020751953125,0.013092041015625,-0.00981903076171875,0.00685882568359375,-0.00015056133270263672,0.003940582275390625,0.003017425537109375,0.0020008087158203125,0.00017452239990234375,-0.0190277099609375,0.0275421142578125,0.0166778564453125,0.0034618377685546875,0.022552490234375,0.009063720703125,0.00403594970703125,0.01177978515625,0.0093994140625,0.0283050537109375,0.007541656494140625,9.125471115112305e-05,0.0089569091796875,0.0078277587890625,-0.00714111328125,0.004283905029296875,-0.004009246826171875,0.01404571533203125,0.0026187896728515625,-0.03350830078125,-0.0093841552734375,0.022552490234375,-0.0237274169921875,-0.0095367431640625,0.00969696044921875,0.0016422271728515625,0.006145477294921875,-0.00829315185546875,0.0377197265625,-0.00962066650390625,-0.011688232421875,-0.0229949951171875,0.011871337890625,-0.0090179443359375,-0.021759033203125,-0.018157958984375,0.00540924072265625,0.00714111328125,0.0033416748046875,0.0158538818359375,-0.0195159912109375,0.0012865066528320312,-0.0163421630859375,0.00922393798828125,-0.0032596588134765625,0.01025390625,0.0019588470458984375,-0.0023212432861328125,0.005706787109375,0.02239990234375,0.0038967132568359375,-0.0033435821533203125,0.0219268798828125,-0.00078582763671875,-0.0007605552673339844,0.002582550048828125,0.0095062255859375,-0.01605224609375,0.0011568069458007812,-0.00489044189453125,0.00720977783203125,-0.0078887939453125,0.0100250244140625,0.01233673095703125,-0.0234375,0.004009246826171875,0.01058197021484375,0.017181396484375,-0.01026153564453125,0.01073455810546875,-0.00640106201171875,-0.0004057884216308594,-0.0239105224609375,0.0147857666015625,-0.026214599609375,-0.0177459716796875,0.004364013671875,0.0136260986328125,0.01251220703125,