,0,1,2,3,4,5,6,7,8,9,10,11,12,13,14,15,16,17,18,19,20,21,22,23,24,25,26,27,28,29,30,31,32,33,34,35,36,37,38,39,40,41,42,43,44,45,46,47,48,49,50,51,52,53,54,55,56,57,58,59,60,61,62,63,64,65,66,67,68,69,70,71,72,73,74,75,76,77,78,79,80,81,82,83,84,85,86,87,88,89,90,91,92,93,94,95,96,97,98,99,100,101,102,103,104,105,106,107,108,109,110,111,112,113,114,115,116,117,118,119,120,121,122,123,124,125,126,127,128,129,130,131,132,133,134,135,136,137,138,139,140,141,142,143,144,145,146,147,148,149,150,151,152,153,154,155,156,157,158,159,160,161,162,163,164,165,166,167,168,169,170,171,172,173,174,175,176,177,178,179,180,181,182,183,184,185,186,187,188,189,190,191,192,193,194,195,196,197,198,199,200,201,202,203,204,205,206,207,208,209,210,211,212,213,214,215,216,217,218,219,220,221,222,223,224,225,226,227,228,229,230,231,232,233,234,235,236,237,238,239,240,241,242,243,244,245,246,247,248,249,250,251,252,253,254,255,256,257,258,259,260,261,262,263,264,265,266,267,268,269,270,271,272,273,274,275,276,277,278,279,280,281,282,283,284,285,286,287,288,289,290,291,292,293,294,295,296,297,298,299,300,301,302,303,304,305,306,307,308,309,310,311,312,313,314,315,316,317,318,319,320,321,322,323,324,325,326,327,328,329,330,331,332,333,334,335,336,337,338,339,340,341,342,343,344,345,346,347,348,349,350,351,352,353,354,355,356,357,358,359,360,361,362,363,364,365,366,367,368,369,370,371,372,373,374,375,376,377,378,379,380,381,382,383,384,385,386,387,388,389,390,391,392,393,394,395,396,397,398,399,400,401,402,403,404,405,406,407,408,409,410,411,412,413,414,415,416,417,418,419,420,421,422,423,424,425,426,427,428,429,430,431,432,433,434,435,436,437,438,439,440,441,442,443,444,445,446,447,448,449,450,451,452,453,454,455,456,457,458,459,460,461,462,463,464,465,466,467,468,469,470,471,472,473,474,475,476,477,478,479,480,481,482,483,484,485,486,487,488,489,490,491,492,493,494,495,496,497,498,499,500,501,502,503,504,505,506,507,508,509,510,511,512,513,514,515,516,517,518,519,520,521,522,523,524,525,526,527,528,529,530,531,532,533,534,535,536,537,538,539,540,541,542,543,544,545,546,547,548,549,550,551,552,553,554,555,556,557,558,559,560,561,562,563,564,565,566,567,568,569,570,571,572,573,574,575,576,577,578,579,580,581,582,583,584,585,586,587,588,589,590,591,592,593,594,595,596,597,598,599,600,601,602,603,604,605,606,607,608,609,610,611,612,613,614,615,616,617,618,619,620,621,622,623,624,625,626,627,628,629,630,631,632,633,634,635,636,637,638,639,640,641,642,643,644,645,646,647,648,649,650,651,652,653,654,655,656,657,658,659,660,661,662,663,664,665,666,667,668,669,670,671,672,673,674,675,676,677,678,679,680,681,682,683,684,685,686,687,688,689,690,691,692,693,694,695,696,697,698,699,700,701,702,703,704,705,706,707,708,709,710,711,712,713,714,715,716,717,718,719,720,721,722,723,724,725,726,727,728,729,730,731,732,733,734,735,736,737,738,739,740,741,742,743,744,745,746,747,748,749,750,751,752,753,754,755,756,757,758,759,760,761,762,763,764,765,766,767
image_26611_1,0.177315846085548,-0.145472928881645,-0.372767865657806,0.037081036716699003,-0.48869976401329,0.005040032323449,0.032464165240526005,0.044924598187208,0.11837332695722501,0.071560449898242,-0.1171875,-0.04931204766035,0.196986600756645,-0.099539622664451,-0.230678007006645,0.095249719917774,-0.061270575970411,-0.031069073826074003,-0.257045209407806,-0.16678293049335402,0.082432337105274,-0.059291295707225,0.032972063869237005,0.036978583782911,0.046161107718944,0.15286691486835402,-0.24560546874999997,0.24281528592109602,-0.09408133476972501,-0.38797432184219305,-0.09114293009042701,-0.038072858005762,0.000716890615876,-0.237374439835548,0.34012275934219305,0.066388808190822,0.015890939161181002,0.030511038377881,0.065025329589843,0.05799102783203101,-0.100149974226951,-0.027778079733252,-0.357561379671096,0.18743024766445102,-0.055524554103612005,0.048130579292774006,-0.079345703125,0.077444896101951,0.067173279821872,0.28913226723670904,-0.31005859375,-0.05411529541015601,-0.4306640625,-0.037301201373338005,0.061901636421680006,-0.23597934842109602,-0.22893415391445102,0.082877025008201,0.066013880074024,-0.015334538184106001,0.388811379671096,-0.3681640625,-0.113163538277149,-0.040786880999803,0.08786882460117301,-0.11865234374999999,0.098807200789451,0.47126117348670904,0.08095877617597501,0.178780689835548,0.3330078125,-0.16810825467109602,-0.043021064251661,0.004980904515832001,-0.08430699259042701,-0.006310599390417001,0.31291851401329,0.146798267960548,-0.07125963270664201,-0.159528464078903,-0.0799560546875,-0.032483782619237005,-0.236049100756645,-0.164899557828903,-0.12496512383222501,-0.086111888289451,0.101728163659572,-0.37137275934219305,-0.35825893282890303,0.021755218505859,-0.10793631523847501,-0.386439740657806,-0.424525678157806,0.037328448146581004,0.091352187097072,0.024941036477684003,0.44768413901329,0.10543387383222501,0.1884765625,-0.130475729703903,0.180908203125,-0.256556928157806,-0.06392996758222501,0.031780786812305,0.44029018282890303,-0.127894803881645,-0.12379673868417701,-0.146937772631645,-0.051894325762987005,0.0030059814453120004,0.023001534864306002,-0.072614394128322,0.24016462266445102,-0.159772604703903,0.028281075879931002,-0.16162109375,-0.20207868516445102,-0.12465123087167701,-0.002090454101562,-0.38811382651329,-0.087018691003322,-0.241908475756645,-0.24302455782890303,0.002839224645867,0.118756972253322,0.217982694506645,0.0019567352719600003,-0.012828282080590002,0.152169361710548,0.123639784753322,-0.30461773276329,0.013882705010473001,-0.17892892658710402,0.016572134569287002,-0.047472272068262,0.210553854703903,-0.188337057828903,0.189418241381645,-0.47516742348670904,0.3505859375,-0.081883020699024,0.260463178157806,0.28620257973670904,0.11914062500000001,0.042021613568067,-0.043084282428026005,0.07466343790292701,-0.019501278176903003,0.077671594917774,0.12737165391445102,0.44377788901329,0.16238839924335402,0.22649274766445102,0.06292724609375,-0.049375262111425004,-0.227887839078903,0.27985492348670904,-0.106794081628322,-0.00355093809776,0.162353515625,-0.2578125,-0.09592764824628801,0.12465123087167701,0.184814453125,0.184291288256645,0.37039619684219305,-0.07670811563730201,0.157784596085548,0.045233588665723,-0.37234932184219305,0.273088723421096,-0.17445591092109602,-0.33244976401329,0.071241103112697,-0.15482003986835402,0.337890625,0.010210310108959,-0.082380019128322,-0.118390761315822,-0.0633544921875,-0.22746931016445102,-0.27043804526329,0.29771205782890303,0.06925392150878901,-0.136439725756645,-0.241768971085548,-0.25397601723670904,0.215890064835548,0.09952653944492301,-0.18178012967109602,-0.17410714924335402,0.37779018282890303,-0.358119428157806,0.319963723421096,0.47209820151329,-0.167550221085548,0.46847099065780606,0.210170194506645,0.080723352730274,0.022994995117187,-0.089896067976951,-0.33579799532890303,0.138392850756645,-0.029214041307568002,0.36872211098670904,-0.005135672632604,-0.04369681328535,-0.18739536404609602,0.072456359863281,-1.4168875168252272e-05,0.33440288901329,-0.174142017960548,-0.095982141792774,-0.36286273598670904,0.006681442260742,-0.004649571143090001,0.028397696092724002,0.018327984958887003,0.231026783585548,0.400390625,-0.027512686327099002,0.031441826373338005,-0.022164480760693002,0.12077985703945102,0.136335104703903,-0.24197824299335402,-0.13239179551601402,-0.152064725756645,-0.22021484375,-0.26499721407890303,-0.014726911671459002,-0.0036228725221000005,0.035736083984375,0.08736746758222501,0.145612448453903,0.010947636328637001,-0.066580638289451,-0.2138671875,0.403459817171096,0.17424665391445102,0.0017741067567840002,0.01221752166748,0.077915735542774,-0.203473776578903,0.033961705863475,0.028708321973681002,0.226632252335548,0.06805419921875,-0.037910461425781,-0.103009901940822,0.39494976401329,-0.28616768121719305,-0.09535435587167701,0.384486615657806,-0.30113002657890303,-0.045811243355274006,0.127546042203903,0.30412945151329,-0.18474470078945102,0.087890625,-0.416015625,0.244349882006645,-0.027245657518506,0.19377790391445102,0.29059711098670904,0.006690911017358,-0.167933866381645,0.124180383980274,0.07557024061679801,0.20947265625,-0.110212050378322,-0.14871652424335402,0.109549388289451,0.05908203124999999,0.135567799210548,0.282435834407806,0.056771416217088005,0.195172995328903,0.24365234374999997,-0.09032548964023501,0.023100921884179,0.062094550579786,-0.02783203125,0.17302595078945102,0.1070556640625,-0.196498319506645,-0.181501120328903,-0.129743307828903,-0.013451712206006002,-0.026999337598681002,-0.136369973421096,0.085501536726951,0.027229037135839,0.0022212436888360003,0.028559548780322002,-0.169538229703903,0.007066999096423001,-0.21965681016445102,0.124372206628322,-0.261021196842193,0.015718732029199,-0.34528461098670904,0.134660989046096,-0.17543247342109602,-0.055428642779588005,0.018135070800781,-0.10822404921054801,0.18470981717109602,-0.127057760953903,0.1097412109375,-0.385463178157806,0.188546314835548,0.025122234597802003,0.006701878271996001,-0.263811379671096,0.07001604139804801,0.151611328125,0.13671875,-0.09003557264804801,0.060163225978612005,-0.01161084882915,-0.000320434570312,-0.064130507409572,-0.025803701952099002,-0.11085728555917701,0.25718471407890303,0.003912789281457,0.00165339873638,0.205636158585548,-0.24155971407890303,-0.357561379671096,0.139678955078125,0.012154715135693,0.050541467964649006,-0.322265625,-0.29743304848670904,0.156947538256645,0.06784275919198901,0.083295546472072,0.150146484375,-0.139229908585548,-0.10085841268301,-0.33063617348670904,-0.317592084407806,-0.25083705782890303,-0.133056640625,0.025820050388574003,-0.16043527424335402,0.080374583601951,0.32805523276329,-0.0011536733945830002,0.37737163901329,-0.467912942171096,-0.046168327331542004,-0.0074710845947260004,-0.125802174210548,0.19873046875,-0.140869140625,-0.39118304848670904,0.039823260158300004,-0.0452880859375,0.15422712266445102,0.26890346407890303,0.098807200789451,-0.25732421875,-0.442522317171096,-0.11244419962167701,0.19022043049335402,-0.18680246174335402,-0.161097928881645,0.004889079369604,0.156354635953903,-0.067905969917774,-0.047927856445312,-0.157540455460548,-0.047855921089649006,0.07948521524667701,-0.135149270296096,0.13357980549335402,0.15691266953945102,-0.149135038256645,0.11769322305917701,0.34333148598670904,0.304408490657806,0.079306468367576,-0.027111053466796,-0.045950751751661,0.041451591998338005,-0.27573940157890303,-0.0043785911984740005,0.185346335172653,-0.140590116381645,0.36328125,0.062142509967088005,0.150634765625,-0.09901646524667701,0.11635044962167701,-0.0021416801027950003,0.17093332111835402,0.26939174532890303,-0.071112498641014,-0.116489954292774,-0.097638808190822,-0.35281807184219305,-0.112775526940822,0.17327009141445102,-0.07606724649667701,0.013267517089843,0.26688057184219305,0.006232091225683,0.06398228555917701,0.0282265804708,0.25129047036170904,-0.23270089924335402,-0.321916848421096,0.16434152424335402,-0.11464146524667701,0.16605050861835402,0.24700056016445102,0.18397739529609602,0.22460937500000003,0.25237163901329,-0.018402099609375,-0.27190288901329,0.052315711975097004,0.041386194527149006,0.142054960131645,0.076346263289451,0.20228794217109602,0.34451729059219305,0.027531215921044003,-0.084625244140625,-0.002192905871197,-0.004273551050573,-0.15080915391445102,0.024197986349463,0.017892019823193002,-0.17864118516445102,0.20110212266445102,0.015620640479028001,0.035813469439744006,-0.21658761799335402,-0.27922710776329,-0.064511977136135,-0.038836888968944,0.18143136799335402,-0.070905409753322,-0.21233259141445102,-0.139857694506645,-0.14554269611835402,-0.09181431680917701,-0.06329345703125,-0.087088450789451,-0.18212890625,0.128278464078903,0.147705078125,-0.21937778592109602,0.018132891505956,0.084904260933399,0.144723072648048,0.127022877335548,0.12012590467929801,0.059552874416112005,-0.331752240657806,-0.028660366311669003,-0.154750272631645,-0.077619276940822,-0.182373046875,-0.3193359375,-0.21707589924335402,-0.019263131543993003,0.113874159753322,0.24916294217109602,-0.088483534753322,0.20598493516445102,-0.035562787204980004,0.12496512383222501,-0.169259205460548,0.019456045702099002,-0.13807895779609602,0.19035993516445102,0.426897317171096,-0.130231589078903,0.107666015625,-0.032627325505018005,-0.11293248087167701,-0.226876392960548,-0.056806292384862005,-0.03302001953125,-0.036917548626661,0.016284396871924,0.002546038012951,-0.024797711521387003,0.237862721085548,0.0517578125,0.15925815701484602,0.177594870328903,0.060224261134862005,-0.174281522631645,-0.300013959407806,-0.11640276014804801,-0.060459680855274006,-0.33035713434219305,-0.14773996174335402,0.07244873046875,0.424944192171096,0.05271911621093701,0.115025110542774,0.18108259141445102,0.10109166055917701,0.33189174532890303,-0.046982903033494006,0.064329013228416,-0.159493580460548,-0.021294729784131,0.173549100756645,-0.0053862161003050005,0.010238647460937,-0.128278464078903,-0.159388944506645,-0.13089425861835402,0.137922018766403,0.234584257006645,-0.16605050861835402,-0.092320032417774,0.31033760309219305,0.3876953125,-0.115339003503322,0.09169224649667701,0.0023280552122740003,-0.037950787693262,-0.178083151578903,-0.069998607039451,0.085989817976951,-0.25279018282890303,0.130231589078903,-0.2958984375,0.35770088434219305,-0.21142578125,0.006519862450659,-0.246337890625,-0.19241769611835402,-0.22049386799335402,-0.008147792890667001,-0.07843889296054801,-0.08497837930917701,0.29813057184219305,-0.097952708601951,-0.137276783585548,0.1826171875,0.094373427331447,-0.009502410888671,-0.31501117348670904,-0.040685381740331004,0.32868304848670904,0.020649502053856003,0.182477682828903,0.003807067871093,0.114048548042774,-0.4375,-0.5528739094734191,-0.010245187208056,0.122314453125,0.009859357960522001,0.23611886799335402,-0.18017578125,0.115164622664451,0.20668247342109602,-0.221888944506645,-0.089202880859375,-0.030617849901318002,0.060036797076463005,0.30419921875,0.064200945198535,0.251116067171096,-0.018383571878075003,0.15431430935859602,0.005819593090564,0.025612967088818002,0.056115288287401005,0.092947825789451,-0.023352487012743003,-0.018896920606493003,0.116385325789451,0.381975442171096,0.39341518282890303,0.082510814070701,0.348772317171096,-0.05303955078125,-0.10804966837167701,-0.14515903592109602,0.30350166559219305,0.044638495892286,0.111083984375,0.088675364851951,0.056969780474901005,0.33970424532890303,0.27329799532890303,0.14714704453945102,0.25327846407890303,-0.02569580078125,0.038708277046680006,-0.25913783907890303,0.061924524605274006,-0.129743307828903,-0.14442661404609602,0.039167132228612005,-0.106061659753322,0.31926617026329,-0.156354635953903,-0.140877857804298,-0.15576171875,0.43708148598670904,-0.020986011251807,-0.24428012967109602,0.051201958209276005,-0.038378033787012,0.120640344917774,0.237862721085548,0.14250837266445102,-0.023544311523437,0.10302734375,-0.41196987032890303,-0.010229928418993001,-0.056069511920213005,-0.09638322889804801,-0.07024710625410001,0.07686070352792701,0.15272739529609602,0.074241638183593,-0.224958151578903,0.30231586098670904,0.34500557184219305,0.0855712890625,-0.21854074299335402,0.130684986710548,0.10445731133222501,-0.155482694506645,-0.013046264648437,0.096182689070701,0.101353235542774,-0.23821149766445102,0.16796875,0.040793281048536,-0.045078821480274006,-0.40904018282890303,-0.07966832071542701,-0.000299726205412,0.185128346085548,-0.0347900390625,0.045079912990331004,0.117361888289451,0.017030987888574,0.183314725756645,0.19719587266445102,0.031216213479638003,-0.0819091796875,0.203369140625,0.021547589451074,-0.07564000040292701,0.014774867333471001,-0.15740095078945102,-0.27727398276329,0.109130859375,0.046175274997949003,0.34333148598670904,-0.16678293049335402,-0.03955078125,-0.0064896172843870005,-0.017650058493018,-0.093994140625,-0.179879322648048,-0.0615234375,0.03802490234375,0.099400110542774,0.163888111710548,0.11054338514804801,-0.23430524766445102,0.044110979884862005,0.189034596085548,-0.05110604315996101,-0.066220961511135,-0.320521771907806,0.198800221085548,-0.123779296875,-0.13640485703945102,0.128522604703903,-0.06703404337167701,-0.019635882228612,0.004143851343542,-0.041453499346971005,-0.024202618747949003,-0.24002511799335402,-0.125802174210548,-0.183175221085548,-0.40625000000000006,-0.166259765625,-0.37820869684219305,-0.039616174995899006,-0.08048357069492301,0.074528284370899,0.20521762967109602,0.091740198433399,-0.53125,0.018161227926611002,0.045049395412206004,-0.13577707111835402,0.15530832111835402,0.23563058674335402,0.15227399766445102,0.100934706628322,0.16420200467109602,-0.163330078125,0.142159596085548,0.059090752154588005,-0.041661944240331004,-0.43903461098670904,-0.30545479059219305,-0.0008764266967770001,0.1943359375,-0.258998334407806,-0.02523367665708,-0.076878137886524,0.031257085502147,0.06349400430917701,-0.050752911716699003,0.38699775934219305,0.16531808674335402,-0.063572473824024,0.054140362888574003,-0.32917132973670904,0.04541015625,-0.23172433674335402,-0.136823385953903,0.28180804848670904,0.103367395699024,-0.045676093548536,0.030534472316503,-0.033756799995899,0.227155417203903,0.09225028008222501,-0.41043525934219305,0.189034596085548,0.34905132651329,0.119803294539451,0.08217076212167701,-0.286760598421096,0.317103803157806,0.147321432828903,-0.213448658585548,0.198451444506645,0.12077985703945102,0.055205207318067,-0.236397877335548,-0.199079245328903,-0.057477679103612005,-0.112967357039451,-0.250209271907806,0.29436382651329,0.209437772631645,0.09223283827304801,0.021471295505762003,0.13378469645977,-0.10743059217929801,0.123779296875,-0.26715961098670904,0.14065988361835402,-0.082122802734375
image_26611_2,0.06849747896194401,0.10246662050485601,0.042232394218444005,-0.18825002014636902,-0.190838783979415,-0.005366473458707,-0.107196427881717,0.012165138497948001,0.312851905822753,-0.14332044124603202,-0.042222041636705,-0.23611257970333102,-0.004160601645708,0.118850298225879,-0.145154803991317,0.20311179757118203,-0.16504566371440801,-0.091736391186714,-0.284408420324325,-0.22278821468353202,-0.063841745257377,-0.12888590991497,0.189140796661376,0.184013843536376,-0.182652384042739,0.09128996729850701,-0.14870692789554502,0.026484163478016003,0.09466497600078501,0.04873676970601001,0.18963788449764202,0.14382742345333102,0.5040293931961061,0.139757305383682,0.386604368686676,0.132845491170883,-0.14095272123813601,-0.04752681404352101,-0.057768676429986,0.09073711186647401,-0.5061408877372741,0.05929270014166801,0.091614045202732,0.15524181723594602,-0.299857467412948,-0.098986104130744,-0.23160807788372,0.067904360592365,0.005980105139315001,0.25570979714393605,-0.028329106047749002,0.17697006464004503,-0.164450705051422,-0.048820976167917,-0.30353498458862305,-0.193803668022155,0.046444006264209005,0.19741079211235002,-0.007267170120030001,-0.25121849775314303,0.211577549576759,0.019356710836291,-0.30893686413764904,0.27385979890823303,-0.22636014223098702,-0.00895055104047,-0.07910754531621901,0.154464036226272,-0.042311970144510005,-0.019495125859975003,0.114187017083168,-0.28701260685920704,0.011265935376286,-0.196425423026084,-0.24279014766216203,-0.13270582258701302,0.10972292721271501,0.11561322957277201,0.133258998394012,-0.06222534179687501,-0.042963184416294,-0.020308040082454,-0.12063282728195102,0.035469055175781,-0.10480121523141801,0.28287321329116805,0.14926999807357702,-0.293021529912948,-0.271765917539596,0.091781206429004,-0.149860560894012,-0.26866906881332403,-0.29384854435920704,-0.23260222375392903,0.024799587205052,0.26365429162979104,0.20673294365406,0.2351536154747,-0.221983209252357,-0.033412158489227003,0.38195031881332403,-0.15440519154071802,-0.036096230149269,-0.147122219204902,0.137268617749214,-0.242156714200973,0.28750526905059803,-0.027136141434311003,0.070826351642608,-0.14061620831489502,-0.207849457859992,-0.351166605949401,0.025985442101955,-0.026819040998816,0.15085554122924802,0.12241672724485302,-0.24283194541931102,-0.19739758968353202,-0.17004944384098,-0.011431444436311,-0.259171783924102,0.132241010665893,0.01294270902872,0.201105892658233,-0.04414589330554,-0.23372395336627902,0.11732798814773501,0.05020420998334801,0.14720469713211,-0.009188746102154,0.14632381498813601,0.06207536533474901,-0.12809903919696802,-0.058231301605701,0.20786704123020103,-0.16068412363529203,-0.17509061098098702,0.258120417594909,-0.440165758132934,0.34396114945411604,-0.142180576920509,0.09457122534513401,0.268009215593338,-0.14367483556270602,-0.007899791002273001,0.017687445506453,-0.16121199727058402,0.337169200181961,0.044792108237743,-0.031148137524724003,0.073093995451927,-0.198048636317253,0.36793532967567405,0.15431447327136902,0.21165892481803802,-0.26141083240509,0.19705227017402602,-0.033318165689706004,-0.009818008169531,0.034344095736742006,-0.32841533422470004,0.055979412049055,-0.3984375,-0.0787890329957,0.202271610498428,0.44005137681961004,-0.058764412999153005,0.175574496388435,0.08018301427364301,-0.37998837232589705,0.124052442610263,0.306737393140792,0.070103771984577,0.253976643085479,-0.33203125,0.11278747022151901,-0.056408118456602006,-0.10656435787677701,-0.10397943854331901,0.095113530755043,-0.22589386999607003,-0.12393985688686301,0.15135289728641502,0.167135700583457,-0.24722866714000702,-0.17233029007911602,-0.10504356771707501,-0.12930256128311102,0.10261274129152201,0.015544341877102002,-0.16978220641613,0.119267091155052,-0.26147240400314303,0.27962240576744,0.251628160476684,-0.033442076295614,0.172794371843338,0.067825183272361,-0.046787846833467005,-0.04566515609622,-0.118935525417327,0.14281979203224102,0.14050842821598,-0.029957452788949002,0.067098408937454,-0.13883464038372,-0.02335450425744,-0.154732376337051,0.014492060989141001,-0.199007600545883,0.26331996917724604,-0.267754077911376,-0.017740489915013,-0.198778852820396,-0.051393665373325,0.058437313884496,0.271396398544311,0.160471871495246,-0.06179340928792901,0.37413781881332403,-0.022169234231114002,-0.142291501164436,-0.13548925518989502,-0.040508151054382005,-0.14854747056961,-0.020179232582449,-0.043007355183362,-0.243841499090194,-0.280915677547454,0.015685141086578,0.04821605607867201,0.14763028919696802,-0.010128002613782001,0.05104516819119401,-0.025890573859214002,-0.020111909136176002,-0.17250844836235002,-0.11719629913568401,-0.113280802965164,-0.08644086867570801,0.150412619113922,0.12152044475078501,-0.007795557379722,0.148232951760292,-0.198983401060104,-0.04035276174545201,0.12215402722358701,0.110162407159805,0.363765120506286,0.148037195205688,-0.025427311658859003,-0.303552567958831,0.10980362445116001,-0.12725307047367002,-0.39695945382118203,0.024348318576812,0.066139906644821,0.39685389399528503,-0.08209613710641801,0.037918433547019,0.08718184381723401,0.27614724636077803,0.100970841944217,0.077553138136863,-0.12656657397747,0.067981757223606,-0.128083646297454,0.128817170858383,0.11691696941852502,0.306640625,0.24442654848098702,0.319942981004714,-0.166369184851646,-0.017241744324564,-0.031312685459852004,0.245988175272941,0.30766338109970004,0.09333005547523401,0.014758273027837,0.0014481759862970001,0.058761630207300006,0.058975700289011,0.053502298891544,-0.268121391534805,0.008294990286231001,-0.27926167845726,-0.41110640764236406,-0.011457494460046002,0.140270337462425,-0.264569252729415,0.052235234528779005,0.22676044702529902,-0.044701412320137,-0.004665615502744001,0.10494967550039201,0.179375171661376,0.027793789282441,0.009210436604917,-0.062229104340076,-0.28683224320411604,-0.005191579461097,-0.107550784945487,0.281329184770584,-0.5205693840980531,-0.004973351489752,0.023710750043392,-0.041192613542079,0.09020556509494701,0.071015365421772,0.163200303912162,-0.276393592357635,-0.011424227617681,0.01123294327408,-0.024704171344637003,-0.099966786801815,-0.16510504484176602,-0.18147785961627902,-0.20774388313293402,0.08942849189043,0.304375171661376,0.029291616752743003,0.10893950611352901,-0.28943201899528503,-0.195514857769012,0.22798752784729,-0.227433487772941,-0.017099913209676,0.149775326251983,0.15686805546283702,-0.068808063864707,-0.14940746128559101,0.12541349232196802,-0.051490303128957006,0.234375,-0.027372222393751002,0.307230085134506,0.26101052761077803,-0.005775382742285001,-0.46178209781646706,0.044842660427093006,-0.294710725545883,-0.24530194699764202,-0.21311056613922102,-0.138571798801422,0.06345625221729201,-0.123917862772941,-0.13747976720333102,0.022764824330806,0.061655953526496006,0.032970186322927,-0.0030344026163220002,0.3251953125,-0.153795391321182,0.1405029296875,-0.09364909678697501,0.079936258494853,-0.18521694839000702,-0.041361507028341,0.050336357206106006,-0.098325438797473,-0.0077483546920120005,0.00032672367524300003,0.34438344836235,0.22525601089000702,-0.31011578440666204,-0.124118015170097,-0.011746656149625001,0.023727348074316004,-0.262928456068038,-0.083529360592365,-0.238250464200973,0.050608042627573006,-0.042684022337198,0.14488096535205802,0.14926229417324002,-0.027429537847638002,-0.139463678002357,0.21012809872627203,0.22621938586235002,0.078955851495265,0.35023403167724604,0.310441315174102,0.539502382278442,0.135135129094123,0.007673418149352001,0.10301084816455801,-0.157136380672454,0.07154750078916501,-0.17852398753166202,-0.129482507705688,0.22126509249210302,-0.28871059417724604,-0.104614108800888,0.534206092357635,-0.40169271826744,0.12727369368076302,-0.00018544240447200002,0.122565396130084,0.040567841380834004,0.046541094779968005,0.160125464200973,-0.012081876397132001,-0.07420534640550601,-0.195088148117065,-0.17620794475078502,0.028518097475171002,-0.10109058022499001,-0.06544580310583101,-0.018595840781927,-0.050313588231801,-0.252973675727844,0.11429987847805001,0.30379891395568803,-0.326391816139221,-0.11131437867879801,0.089681677520275,0.035687815397977,-0.034202042967081,0.16845703125,0.081459663808345,0.067343838512897,-0.12338779121637301,0.096768766641616,-0.341867268085479,0.329119145870208,0.293918907642364,-0.059513334184885004,0.052453599870204,0.025391450151801002,0.00253752968274,0.038332894444465006,-0.06666925549507101,0.114763692021369,-0.13523548841476402,-0.25512036681175204,-0.18671698868274603,0.000563544221222,0.15486653149127902,-0.040607348084449005,-0.17650707066059101,0.12272850424051202,-0.029683945700526,-0.09754431992769201,0.12744361162185602,-0.125252932310104,0.038376815617084004,0.043432526290416,0.108182616531848,-0.014299169182777,0.09334055334329601,-0.32109549641609103,-0.012198508717119002,-0.174608930945396,-0.139698892831802,0.406989008188247,-0.295423358678817,-0.040851350873708,0.14779965579509702,-0.13118270039558402,-0.10127767175436,-0.0068998080678280005,0.40485993027687,-0.102668277919292,0.002072789706289,-0.011845356784760001,-0.11408625543117501,-0.026366122066974,0.136206269264221,-0.163560196757316,-0.008420966565608,0.17768599092960302,-0.0033404720015820003,0.064231738448143,-0.271123677492141,0.06589872390031801,0.349547803401947,-0.060842908918857005,0.316093921661376,0.018330313265323,0.032466966658830004,-0.056063540279865,-0.007715311367064001,0.001029624603688,0.14371304214000702,-0.356999576091766,-0.21135099232196802,-0.24924118816852503,-0.057879216969013006,-0.514322936534881,-0.24238105118274603,-0.10652889311313601,0.20781865715980502,-0.048518002033233004,0.032874304801225,-0.096146591007709,0.078624382615089,-0.038245655596256006,-0.20725119113922102,-0.131677582859992,0.028619920834898,0.0717204362154,0.20165136456489502,-0.071128845214843,-0.179014459252357,0.033347122371196004,-0.0091984719038,0.038077965378761,0.14390660822391502,0.020638512447476002,0.28519582748413,0.06476812809705701,-0.15216340124607,0.258278787136077,0.044228751212358,0.009859445504844001,0.07382858544588,0.22899511456489502,-0.033064592629671,-0.22539238631725303,0.093980945646762,-0.31440913677215504,0.06472449749708101,0.11252985894680001,0.131448283791542,-0.06019296869635501,0.27182748913764904,0.206564962863922,-0.049949508160352006,0.261173278093338,0.16167607903480502,0.04979671537876101,-0.120607808232307,-0.082081839442253,0.19840495288372,-0.170907229185104,0.24419340491294803,-0.11911423504352502,0.07153733074665,0.09532976895570701,0.019068349152803,-0.36151286959648105,0.05190936848521201,-0.24739582836627902,-0.125923782587051,0.032513037323951,-0.22976492345333102,0.074975088238716,-0.04801300913095401,-0.259897589683532,0.033379115164279,-0.066622860729694,-0.026621680706739002,-0.39602687954902605,-0.010905033908784001,0.081369489431381,0.15870679914951302,0.103713579475879,-0.056608080863952005,0.301696240901947,0.06428503990173301,-0.039894808083772,-0.065711222589015,-0.178372219204902,0.31982862949371305,0.31091639399528503,-0.23856277763843503,0.20895798504352503,0.181572437286376,-0.40006509423255904,0.11289156973361901,-0.29883691668510404,-0.235527515411376,0.049355242401361,-0.25029033422470004,0.201734945178031,-0.009824116714298,0.06368588656187,0.03961893171072,-0.18431517481803802,-0.048540543764829004,0.39368665218353205,0.118432395160198,-0.001552787958644,0.27722057700157104,0.276314407587051,-0.08285742253065101,0.23034557700157102,0.39106488227844205,0.18672138452529902,-0.130574405193328,-0.06207550317049001,0.31895762681961004,0.342412739992141,-0.030666720122098003,0.18900883197784402,0.146462649106979,0.002313141245394,-0.19563362002372703,-0.186829984188079,0.20445017516613,-0.18487493693828502,0.040677115321159,-0.336808502674102,-0.12857852876186301,0.093402482569217,-0.089837424457073,0.009034096263349,0.28622078895568803,0.11947157233953401,-0.335471212863922,-0.007812310941517001,-0.38940209150314303,0.083088234066963,0.028553867712616,-0.21955940127372703,-0.350603520870208,-0.058431882411241004,0.15810634195804502,0.018460128456354002,0.21601825952529902,-0.10245658457279201,0.080194145441055,-0.064141623675823,-0.181288704276084,0.23302012681961,0.059832185506820006,-0.282481700181961,0.066683620214462,-0.07647705078125,-0.18947072327136902,-0.15477855503559101,0.30408045649528503,0.18508937954902602,0.163059547543525,-0.104079790413379,-0.020545169711112,-0.15815143287181802,0.10736331343650801,0.09119641780853201,0.23956574499607003,-0.26136684417724604,-0.186158329248428,0.263531118631362,-0.000258557440247,-0.21021167933940801,-0.141343399882316,-0.19287109375,-0.06239021569490401,0.09534846246242501,0.292352885007858,0.06961403042078,-0.06356928497552801,-0.128492757678031,0.16747167706489502,0.095239728689193,0.49743101000785805,0.109648831188678,0.08701778203248901,-0.09107270091772,-0.08177996426820701,-0.00033868325408500005,-0.167132958769798,0.15541639924049303,0.209252715110778,0.022781956940889,0.21889516711235002,0.10174945741891801,-0.151231914758682,-0.09498266130685801,0.048571232706308004,-0.023810446262359,0.284276455640792,-0.34545677900314303,-0.09695242345333101,0.142483547329902,-0.015288550406694001,-0.12641315162181802,0.036735441535711004,-0.074732601642608,0.037026893347501005,-0.14431570470333102,-0.139155760407447,0.008474401198327,0.188960447907447,0.10235403478145601,0.24332241714000702,-0.035330832004547,-0.402616471052169,-0.131193697452545,-0.19793425500392903,0.120879299938678,0.091832548379898,0.09961212426424,-0.07110334187746001,-0.44439750909805303,-0.30351737141609103,-0.174518764019012,-0.23632812500000003,-0.062170054763555006,-0.059839501976966004,0.161590307950973,-0.161073699593544,0.055357605218887,0.020418528467416,-0.10272368043661101,0.301775395870208,0.115225575864315,0.130083233118057,0.24795009195804502,0.106009267270565,0.179322391748428,0.068186543881893,-0.013148264959454,0.16483120620250702,-0.005891396198421,-0.103109821677207,-0.019866324961185,-0.22610060870647403,0.125204548239707,-0.024695800617337,0.12102336436510001,-0.041412558406591006,-0.20874683558940801,0.009825629182159,-0.27182748913764904,0.11838510632514901,0.15224477648735002,0.286951005458831,-0.23377674818038902,0.26401498913764904,-0.357105165719985,0.356366127729415,-0.045561369508504,0.2275390625,-0.041698936372995,0.230028852820396,0.019275562837719,-0.027058541774749003,0.148878499865531,0.355204820632934,-0.16751125454902602,-0.30394849181175204,-0.22581687569618203,0.129920199513435,0.20939786732196802,0.39034345746040305,-0.37822002172470004,0.114267438650131,0.23496885597705802,0.162388712167739,0.274458050727844,-0.148191154003143,0.308540970087051,0.12240573018789201,0.09352510422468101,-0.047035906463861,0.16655668616294803,-0.072332091629505,-0.165131986141204,0.10473577678203501,0.11043459177017201,-0.13028311729431102,0.01074397470802,0.22667686641216203,-0.030931456014513,-0.44130069017410206,-0.005407006945461,-0.09478484839200901
image_26611_3,-0.08423591405153201,-0.176343515515327,0.13078539073467202,-0.253432750701904,-0.172452062368392,0.06344512104988001,-0.09373520314693401,0.009300434030592001,0.256007343530654,0.19395123422145802,-0.08844178915023801,-0.21940104663372,0.353515625,0.07661761343479101,-0.105547353625297,0.17459753155708302,-0.10384854674339201,-0.027246706187725,-0.26876184344291604,-0.092448838055133,-0.112718984484672,-0.16207978129386902,0.15090849995613,0.21164032816886902,-0.038562197238206,0.040433015674352,-0.23366476595401703,-0.21883878111839203,0.159135296940803,0.10211736708879401,-0.017463453114032003,0.20707564055919603,0.42507103085517806,0.024147756397724002,0.440932750701904,0.095762312412261,-0.22931462526321403,-0.061385184526443,0.038596414029598,0.18568004667758903,-0.205995500087738,-0.033613726496696,0.13429214060306502,0.08077355474233601,-0.32629024982452304,-0.16276042163372,-0.37861031293869,-0.029934970661997,-0.077485054731369,0.121241711080074,-0.23913943767547602,0.11473499983549101,-0.10126749426126401,-0.07575757801532701,-0.183223843574523,-0.32629024982452304,0.19602273404598203,0.23088304698467202,-0.12105109542608201,-0.22671046853065402,0.43140387535095204,-0.131776750087738,0.139278531074523,0.19992898404598203,0.018330892547965,0.06019777059555,-0.08217181265354101,0.15218098461627902,0.082705408334732,-0.104151867330074,0.11895890533924101,-0.24739582836627902,0.132753312587738,-0.44111031293869,-0.24557587504386902,-0.16881214082241,0.268288344144821,0.096339367330074,0.11350122839212401,0.04732559621334,-0.012832641601562,0.012106924317777,0.016282515600323,0.067006431519985,0.045767121016979,0.23169314861297602,0.038600113242864005,-0.101599492132663,-0.22203479707241003,0.09285482019186,-0.152388140559196,-0.21343809366226102,-0.465790718793869,-0.032147377729415005,-0.047686953097581,0.12265477329492501,0.152143999934196,0.08454293757677,-0.047756310552358,0.032522026449441,0.30817943811416604,-0.171875,-0.012363318353891001,-0.09451201558113001,0.019544659182429,-0.12117513269186,0.46851325035095204,-0.006196686532348001,0.03851156681776,-0.05029574409127201,-0.023038718849420003,-0.313565343618392,-0.10196939855813901,0.20371685922145802,0.346413344144821,0.25553384423255904,0.040411286056041,-0.063091859221458,-0.350733906030654,0.164025515317916,-0.31244081258773804,0.306522250175476,0.087468929588794,0.20642459392547602,-0.132309421896934,-0.120908796787261,0.021612456068396003,-0.009570497088134,0.286044031381607,-0.18773674964904702,0.010236335918307,0.111609257757663,-0.36878550052642806,-0.138856828212738,0.10108161717653201,0.183549359440803,-0.10387814044952301,0.034761834889650005,-0.434718281030654,0.43625709414482106,-0.27343934774398804,0.145936906337738,0.15959398448467202,0.076150603592395,-0.143073797225952,-0.04172770306468,-0.209812968969345,0.09505208581686,-0.12798887491226102,-0.376953125,0.219223484396934,-0.024960836395621,0.23029118776321403,-0.11823064833879401,0.307528406381607,-0.261363625526428,-0.06342489272356,-0.06953892856836301,0.087572500109672,0.026154952123761004,-0.26964962482452304,0.08987334370613001,-0.42755681276321406,0.029170643538236004,0.139988750219345,0.32646781206130904,-0.243104875087738,0.10684481263160701,-0.040698427706956,-0.351029843091964,0.057615339756011005,0.27630800008773804,-0.20663174986839203,0.015560959465801001,-0.24277935922145802,0.094819039106369,-0.20649857819080303,0.025139085948467,-0.24588659405708302,0.004358927253633,-0.284949094057083,0.139411687850952,0.258848249912261,0.26707506179809504,-0.39364346861839206,-0.21564275026321403,-0.40926846861839206,-0.291429936885833,0.148104578256607,0.016520876437425003,0.036006927490234,0.24479167163372,-0.19096235930919603,0.11583363264799101,0.132886484265327,0.11962890624999999,0.150479406118392,-0.051832258701324005,0.124615296721458,0.008047277107834,0.114316999912261,0.095717921853065,0.19406960904598203,-0.032858069986104,0.147682890295982,-0.22866359353065402,-0.05183549225330301,-0.16039299964904702,0.134567722678184,-0.030751025304198,0.284623593091964,-0.14771987497806502,0.06359215825796101,-0.16311553120613,-0.065424367785453,-0.092801183462142,0.10139234364032701,0.12100496888160701,0.001028118655085,0.260387063026428,-0.09716241806745501,0.048888858407735006,-0.263494312763214,-0.023615982383489,-0.10107976943254401,0.04660103470087,0.045872543007135,-0.303799718618392,-0.19898940622806502,0.107725203037261,-0.042321868240833005,0.042157866060733004,0.019027594476938,-0.07777144759893401,0.027291037142276,-0.009347626939415,-0.28261128067970204,-0.21721117198467202,0.052074547857046,-0.116425484418869,0.07347060739994,-0.18525095283985102,0.038769576698541,0.016294768080115003,-0.017275955528020002,-0.043434143066406,0.270123094320297,0.023178100585937,0.432054936885833,-0.05217396095395,0.06624025106430001,-0.18201793730258903,0.164291843771934,-0.1668701171875,-0.395300656557083,-0.307587593793869,0.131236687302589,0.500473499298095,0.04348350316286,0.024834835901856003,0.06589207798242501,0.06927120685577301,0.16034860908985102,-0.024389700964093004,0.102154359221458,0.180619671940803,-0.252811312675476,0.021355483680963003,0.196584984660148,0.066627733409404,-0.042992793023586,0.26239937543869,-0.11995442956686,0.053515810519456,0.18889085948467202,0.43868371844291604,0.318448156118392,0.153283327817916,-0.10478626936674101,0.33564156293869,0.12286561727523801,0.078916609287261,0.301136374473571,-0.349786937236785,0.09322287887334801,-0.23073507845401703,-0.21463659405708302,0.15945342183113,0.26494437456130904,-0.11228989064693401,-0.10658587515354101,0.31519293785095204,-0.19936671853065402,-0.043196707963943,0.14439807832241,-0.12157278507947901,-0.049897164106369005,-0.159928753972053,0.013502872548997001,-0.052327934652566,-0.214607000350952,-0.13908617198467202,0.093964546918869,-0.464725375175476,0.03506377339363,-0.09843306243419601,0.000931710936129,0.072465375065803,-0.15226976573467202,0.17845940589904702,-0.218957155942916,0.15280243754386902,-0.082165345549583,-0.062575601041316,0.007327917963266001,-0.19084398448467202,-0.23037996888160703,0.049628980457782,-0.029110996052622,0.24280895292758903,-0.13024163246154702,0.067449398338794,-0.21818403899669603,-0.213808000087738,0.095819182693958,0.05012373626232101,0.27962240576744,0.19406960904598203,0.036135818809270005,-0.16555693745613,-0.059257738292217005,0.16105143725872,-0.010092185810208001,0.38239818811416604,0.180442109704017,0.20640979707241003,0.25304806232452304,0.35842803120613104,-0.382694125175476,0.011347510851919,-0.267193406820297,0.17615115642547602,0.014025890268385001,0.011549400165677001,-0.08859715610742501,0.078924007713794,-0.274946719408035,-0.179709687829017,0.002465623896569,0.020240386947989002,-0.13435871899127902,0.35603100061416604,0.041706431657075,0.159475609660148,0.08476026356220201,0.036643173545598005,-0.184659093618392,0.21312737464904702,-0.020529543980956,-0.23600260913372,-0.15147076547145802,-0.277521312236785,0.586055874824523,-0.14820815622806502,-0.038026925176382,-0.038350421935319005,-0.09891764074563901,-0.030890377238392,-0.324277937412261,-0.21943064033985102,0.078083388507366,-0.002312862547114,0.128025859594345,0.061732437461614005,0.07845699787139801,-0.07978311926126401,0.090287640690803,0.015276591293513001,0.083788320422172,0.19078479707241003,0.332208812236785,0.26592093706130904,0.543797373771667,0.044768132269382005,0.18613503873348203,0.042054582387208,-0.220200046896934,0.014246044680476001,-0.18267637491226102,-0.040310483425855005,0.13258592784404702,-0.073935769498348,0.09995894134044601,0.171164765954017,-0.313920468091964,0.00048781884834100004,-0.22298176586627902,-0.000883160217199,0.162982359528541,0.074566468596458,0.096901632845401,-0.167569249868392,-0.20814098417758903,-0.097561925649642,-0.38950046896934504,0.19563801586627902,-0.048991579562425,-0.182661578059196,0.14749053120613,-0.20963542163372,-0.21653054654598203,0.11590021103620501,0.29672703146934504,-0.270419031381607,-0.10279429703950801,0.19390684366226102,0.22952178120613,-0.11205685138702301,0.039569046348333005,-0.11037375777959801,-0.042372733354568,-0.06289117783308,0.072635531425476,-0.18235085904598203,0.33152818679809504,0.36541193723678506,-0.011819897219538002,-0.08151984959840701,-0.215184062719345,0.15475556254386902,0.055384319275617,-0.07766354084014801,0.06870246678590701,-0.075498640537261,-0.20902876555919603,-0.078361742198467,-0.10450744628906201,-0.03327889740467,-0.04802634567022301,-0.245590671896934,0.028266213834285,-0.089169591665267,-0.0540771484375,0.13211706280708302,0.03960071876645,0.035721056163311005,0.065445870161056,0.276633530855178,0.063358187675476,0.132701531052589,-0.434363156557083,-0.089725375175476,-0.30427318811416604,0.17740885913372,0.15562854707241,-0.07099960744380901,0.023297237232327003,-0.149754375219345,-0.143227323889732,-0.2998046875,-0.11020729690790101,0.41933003067970204,-0.013715801760554001,-0.141231656074523,-0.176935374736785,-0.06195068359375,0.000368811859516,-0.12127130478620501,-0.20845170319080303,-0.076727777719497,0.32196968793869,0.075620710849761,-0.136896312236785,-0.22821970283985102,0.066576406359672,0.23049834370613,-0.012021614238619001,0.18653823435306502,0.06532610952854101,0.12480764836072901,0.046990711241960005,0.154659390449523,-0.093644574284553,-0.13393703103065402,-0.09811678528785701,-0.071703359484672,-0.21050840616226102,0.054164309054613,-0.27613043785095204,-0.21277225017547602,-0.31640625,0.18576882779598203,-0.13772490620613,0.093745373189449,0.131277367472648,0.10978560149669601,0.18421520292758903,-0.139544859528541,-0.10907537490129401,-0.24082623422145802,0.19617068767547602,0.23612096905708302,-0.126938328146934,-0.079865425825119,-0.095740117132663,-0.065039433538913,0.17912523448467202,0.19180575013160703,0.05763383209705301,0.39349550008773804,0.071616433560848,-0.340021312236785,0.15758167207241,0.0037138967309140003,0.08735425770282701,-0.003852844238281,-0.025981083512306002,-0.05451133102178501,-0.12696792185306502,-0.007201455067843,-0.205795750021934,-0.069872304797172,-0.09193743765354101,0.161665484309196,-0.30951112508773804,0.278290718793869,0.147401750087738,0.089947327971458,0.020631039515137003,0.406841844320297,0.0060130464844400005,-0.11450935155153201,-0.11762399226427,0.023139953613281,-0.012410481460392002,0.392104625701904,0.017148798331618,-0.013151689432561,0.22138376533985102,0.127981469035148,-0.161957249045372,0.15937204658985102,-0.18955670297145802,-0.1416015625,0.06386126577854101,-0.39192709326744,0.20657995343208302,-1.358263398287817e-05,-0.169611155986785,0.069521814584732,0.13646721839904702,-0.14663234353065402,-0.24795809388160703,0.25500118732452304,0.280983656644821,0.095151960849761,-0.070900656282901,-0.079438179731369,0.071394488215446,0.20401278138160703,-0.020338058471679,-0.215761125087738,-0.28891453146934504,0.335020124912261,0.23502604663372,-0.32063803076744,0.280717343091964,0.12270748615264801,-0.316938906908035,0.057676374912261005,-0.188328593969345,-0.301136374473571,0.156457155942916,-0.146883875131607,0.301846593618392,-0.035405244678258,0.30045571923255904,0.13245275616645802,0.075044460594654,0.013832554221153,0.22600023448467202,0.20969460904598203,0.036748711019754,0.14700224995613,0.09955018758773801,-0.075210109353065,0.17202296853065402,0.24192117154598203,0.056396484375,-0.066234238445758,-0.09917380660772301,0.127870500087738,0.277314156293869,-0.146558359265327,0.089936226606369,-0.06571451574563901,-0.008937604725360001,-0.046527285128831,-0.13016393780708302,0.17252604663372,-0.26898378133773804,0.079526960849761,-0.38665956258773804,0.045128561556339,0.11681759357452301,-0.19176135957241003,-0.19000059366226102,0.212298765778541,0.102331914007663,-0.167554453015327,-0.076393820345401,0.012620637193322001,0.239997625350952,0.11688787490129401,-0.267637312412261,0.0016138300998130002,-0.07539968937635401,0.022166397422552,0.013624508865177002,0.19830137491226102,-0.38843512535095204,0.0225830078125,-0.12423058599233601,-0.021449234336614,0.34972774982452304,0.006337743718177,-0.23828125,-0.199559062719345,-0.16576409339904702,0.23668323457241003,-0.15244732797145802,0.24615293741226102,0.366181343793869,0.13597893714904702,0.085149593651294,0.06072443351149501,-0.187618374824523,-0.019673665985465,0.043126422911882005,0.15758167207241,-0.16891571879386902,-0.38446968793869,0.16360381245613,-0.08229573816061,-0.094253078103065,0.092529296875,-0.30924478173255904,-0.065339520573616,0.12545868754386902,0.031443279236555,0.006717809941619001,0.072509765625,-0.043678514659404005,0.138117015361785,0.049353398382663005,0.34493371844291604,-0.24636007845401703,0.30320787429809504,-0.011866251938045,-0.265595406293869,-0.091375179588794,0.18720407783985102,0.269412875175476,0.163041546940803,0.034383136779069005,-0.027033487334847003,0.17643229663372,-0.12906901538372,-0.18639798462390902,-0.025873126462101003,-0.005435365717858001,0.12634646892547602,-0.060931582003831,0.127818718552589,0.237600609660148,0.075811214745044,0.18931995332241003,-0.048829972743988,-0.270774155855178,0.093472570180892,0.043320626020431005,0.173325046896934,-0.3828125,0.22457978129386902,-0.075328476727008,0.072497278451919,0.049217224121093,-0.5052083134651181,0.055994439870119005,-0.202977031469345,-0.126272484660148,-0.27391099929809504,0.03052076511085,0.257457375526428,-0.368312031030654,-0.38529828190803506,-0.003765684086829,-0.26769649982452304,0.015971790999174,-0.063775725662708,0.188905656337738,-0.052158240228891005,-0.03605143353343,0.16764323413372,-0.10389292985200801,0.07782167196273801,-0.00020645603945,0.214118719100952,0.372040718793869,-0.020326556637883002,0.05434070900082501,0.305723249912261,-0.036929506808519,-0.13246108591556502,-0.003827644046396,0.039617363363504,-0.054583095014095,-0.07070136815309501,-0.07076933979988001,0.030893729999661,0.161532312631607,-0.078197129070758,-0.260919749736785,-0.14488635957241,-0.10625665634870501,0.22848603129386902,-0.07269471883773801,0.07457571476697901,-0.214074343442916,0.009773716330528,-0.367424249649047,0.42294034361839206,0.020271532237529002,0.088128753006458,0.23157848417758903,-0.018127325922250002,-0.012191426008939,0.002926270244643,-0.005687598139047001,0.48254024982452304,-0.21807676553726102,-0.026309389621019003,0.04736790433526,-0.100858747959136,-0.012331413105130001,0.33072915673255904,-0.342684656381607,0.21792140603065402,0.13789875805377902,-0.027196710929274,-0.07093094289302801,-0.16944839060306502,0.401515156030654,-0.200402468442916,0.262961655855178,-0.08709624409675501,0.10344903916120501,-0.103519320487976,-0.22354403138160703,-0.073906175792217,0.167598843574523,-0.2275390625,0.080144710838794,0.26728218793869,0.046734433621168005,-0.40015387535095204,0.28119081258773804,0.074651546776294
image_26611_4,0.0041104829870160006,0.006385216489434,0.16222205758094702,0.001139714149758,-0.019142737612128,0.10257662087678901,0.09498948603868401,0.057321436703205005,0.237229570746421,-0.16310471296310403,0.133451014757156,0.133836016058921,0.14655949175357802,0.217172473669052,0.042465209960937,0.13870944082736902,0.086439862847328,-0.062406100332736004,-0.15463492274284302,-0.20560397207736902,0.16556490957736902,-0.252478957176208,0.126352161169052,0.14697265625,-0.07177734375,-0.291541457176208,0.14701022207736902,-0.058067910373210005,-0.23677884042263,0.141000598669052,0.054762620478868006,0.09120530635118401,0.26953125,-0.22798977792263,0.319711536169052,0.10206956416368401,-0.052762545645236004,0.16564002633094702,0.372896641492843,-0.08252657204866401,-0.250826328992843,-0.17867337167263,-0.045443020761013,-0.032768249511718,-0.17818509042263,0.13825871050357802,-0.06935472041368401,-0.21439303457736902,-0.27309945225715604,0.07401216775178901,-0.312349766492843,-0.186185389757156,-0.30881911516189503,0.040402926504611004,-0.275240391492843,-0.179086536169052,0.139423072338104,0.13754507899284302,0.256234973669052,-0.289362967014312,-0.06608699262142101,-0.078542858362197,0.1513671875,0.068378157913684,-0.011449960991740001,0.133188098669052,-0.14753605425357802,0.026932936161756002,0.18930289149284302,0.029273400083184003,0.16041916608810403,-0.010217226110398001,0.006232335232198001,0.159423828125,-0.679387032985687,0.11478365212678901,0.260141223669052,-0.004671536851674,0.237229570746421,0.038475625216960005,-0.2607421875,0.063213638961315,-0.085054837167263,0.22851562500000003,0.05218505859375,0.34480169415473905,0.13326321542263,-0.165189296007156,-0.11236102879047301,0.12894381582736902,-0.14622527360916102,-0.222055286169052,-0.332782447338104,-0.21724759042263,0.08706430345773601,0.14652194082736902,0.081157974898815,0.2177734375,-0.25383111834526,-0.075340121984481,-0.078481823205947,-0.252328723669052,0.08806903660297301,-0.23362380266189503,0.205754205584526,-0.12838040292263,0.319185703992843,-0.075758710503578,-0.036450900137424004,-0.045518141239881,0.142521783709526,-0.49864783883094704,-0.248422473669052,0.27629205584526,0.159067004919052,-0.125150233507156,0.22423377633094702,0.15941444039344702,-0.269831717014312,-0.23302283883094702,-0.052462063729763,0.107403092086315,-0.10477388650178901,0.037076510488986004,-0.067702069878578,-0.23294772207736902,-0.019303541630506002,0.06515268236398601,0.068889908492565,-0.403695911169052,0.056373007595539,0.0006526066572400001,-0.32219049334526,-0.00861123856157,-0.021085299551486,0.16413761675357802,0.12633338570594702,0.070913463830947,-0.46574518084526,0.1630859375,-0.44966948032379106,-0.0062216245569280005,0.160794764757156,0.027903042733669003,0.011129526421427002,0.17435397207736902,-0.15166766941547302,-0.051532451063394005,-0.154071509838104,-0.18877704441547302,0.057110127061605,-0.31114783883094704,0.368539661169052,0.10697115212678901,0.25157752633094704,-0.18776291608810403,0.41331130266189503,-0.00610615639016,0.15050330758094702,-0.10295222699642101,0.006864107679575001,-0.255408644676208,-0.144418567419052,-0.1796875,0.352914661169052,0.281775832176208,-0.14145132899284302,0.010544996708631,-0.046281080693006,-0.16586539149284302,-0.168259844183921,0.08974985033273601,0.234074518084526,-0.15840969979763,-0.22468449175357802,0.15142352879047302,-0.33743989467620805,0.07498873025178901,-0.2490234375,0.01708280108869,0.021089993417263003,-0.361778855323791,0.41368690133094704,-0.14731070399284302,-0.004927414935082,0.15963040292263,0.062002327293157,-0.040702231228351,0.255183279514312,0.16733492910861902,0.163311302661895,0.3359375,-0.20830829441547302,-0.016929039731621,-0.033578727394342,-0.004396291915327,0.18727463483810403,0.26862981915473905,0.040003851056098,-0.07435960322618401,0.10206016898155201,0.27944710850715604,0.46108773350715604,-0.258338332176208,-0.021287184208631002,-0.239182695746421,-0.39378005266189503,0.255183279514312,0.067495495080947,-0.054615315049886,0.07595590502023601,-0.025470439344644002,-0.07613431662321,-0.11196664720773601,0.16530197858810403,0.09673602879047301,0.21311599016189503,-0.20049579441547302,-0.270057082176208,0.038245566189289,0.055654671043157,0.065370999276638,-0.16646634042263,0.09671724587678901,0.11865234374999999,-0.19752854108810403,-0.234750598669052,-0.13407076895236902,0.137469947338104,-0.149545520544052,-0.11110276728868401,0.42232573032379106,-0.281775832176208,0.12315955758094702,0.24338942766189503,0.006603419780731001,-0.017856378108263002,0.0019214337226000002,0.07417649775743401,-0.37890625,-0.038332425057888,0.23272235691547302,-0.043358437716960005,-0.12161958962678901,0.056842509657144005,0.23294772207736902,0.15335787832736902,0.018348693847656,0.43179085850715604,-0.170823320746421,0.234375,-0.024573693051934003,-0.005956209730356,0.07919076830148601,-0.027168273925781004,-0.389423072338104,0.07232196629047301,0.311899036169052,-0.193584740161895,0.136155351996421,0.112004205584526,-0.069279596209526,0.037907674908638,0.019256591796875,-0.147122889757156,0.031247653067111,-0.105055585503578,-0.176645129919052,-0.185960039496421,0.078594498336315,-0.21754807233810403,0.32414361834526,-0.022908138111233003,0.002633314812555,-0.032410841435194,0.331430286169052,0.081486627459526,0.08599384129047301,0.22122897207736902,0.445162266492843,0.013383131474256,0.151029139757156,0.08609712868928901,-0.116032525897026,0.107853814959526,-0.24053485691547302,-0.11540339887142101,0.29612380266189503,0.260591953992843,-0.104830227792263,-0.032273512333631,0.188701927661895,-0.240609973669052,-0.064241848886013,0.076791614294052,-0.18990384042263,-0.132718592882156,-0.0037821256555610003,0.24045974016189503,-0.008251483552157001,-0.02420425415039,-0.12950721383094702,0.12972317636013,-0.383263230323791,-0.032191351056098,-0.072807900607585,-0.08988130837678901,0.18118990957736902,-0.08340219408273601,0.003993694670498,-0.157902643084526,0.08715350925922301,-0.010500101372599002,0.14302884042263,-0.031900260597467,-0.11538461595773601,-0.301081717014312,-0.0035071740858250004,-0.1739501953125,0.11378831416368401,-0.018223689869046003,0.041891243308782,0.0038921649102120004,-0.09634164720773601,0.36328125,-0.202524036169052,-0.188626796007156,-0.133000299334526,0.107891373336315,-0.051945611834526007,-0.22325721383094702,0.27756911516189503,0.053025465458631,0.21957632899284302,-0.003529475303366,-0.014298658818006,0.29071515798568703,0.199894830584526,-0.38822114467620805,0.007793719880282,0.033529426902532,-0.19527493417263,-0.0033275897148990004,-0.151141822338104,0.115309491753578,0.09014423191547301,-0.246018633246421,0.027800926938652003,-0.21980167925357802,-0.007128789089620001,0.085054837167263,0.310396641492843,0.13972355425357802,0.309044480323791,0.140362083911895,0.11500901728868401,-0.159367486834526,0.208871692419052,-0.18609149754047302,-0.060227613896131,-0.054541952908039,0.066960260272026,0.46394231915473905,-0.14948917925357802,0.126690208911895,-0.138164818286895,-0.025507999584078,-0.002765362150967,-0.378380417823791,-0.2470703125,-0.049861028790473,-0.154935389757156,0.19381009042263,0.20703125,0.201847955584526,-0.16222205758094702,0.22340744733810403,-0.063185468316078,0.034932944923639006,0.07955228537321,0.0014026348944750002,0.30784255266189503,0.331355154514312,-0.143329322338104,0.17439152300357802,-0.074838489294052,-0.088970474898815,-0.10584434866905201,-0.16710487008094702,-0.251502394676208,-0.045757587999105,-0.024110060185194,0.247746393084526,0.29191705584526,-0.201322108507156,0.082388073205947,0.002356895944103,-0.11959134787321,0.088491588830947,0.1279296875,0.089153580367565,-0.26675179600715604,0.056043770164251,0.11358173191547301,-0.18246695399284302,0.11902794241905201,0.09070762991905201,-0.31310096383094704,0.058668870478868006,-0.39122596383094704,-0.103740982711315,0.04449462890625,0.24072265624999997,-0.13961087167263,-0.2685546875,0.11275541037321,0.38987380266189503,0.26457330584526,0.24594351649284302,0.18366886675357802,0.148662865161895,0.015521709807217001,0.251727759838104,-0.163499101996421,0.07008714228868401,0.22783954441547302,0.020078219473361,-0.030044555664062004,-0.29582330584526,0.134990990161895,-0.07305438816547301,-0.12101863324642101,0.281024634838104,-0.14314152300357802,-0.31219953298568703,0.055842474102973,-0.00040611854637900006,0.272986769676208,-0.14607121050357802,-0.13330078125,0.05624389648437501,-0.20612980425357802,0.053965643048286,0.044626090675592006,0.077862076461315,0.41917067766189503,0.19978214800357802,0.328575730323791,0.058262750506401007,0.194260820746421,-0.242563098669052,0.016647925600409,-0.12056791037321,-0.13619290292263,0.24436599016189503,-0.2119140625,0.067004866898059,0.021331787109375,0.084759049117565,-0.251727759838104,-0.148099452257156,-0.043331440538167,-0.18126502633094702,0.007216233294457,-0.22859074175357802,-0.25848859548568703,0.064227767288684,-0.38777044415473905,-0.08805964887142101,0.043100211769342006,0.179086536169052,0.032554037868976,0.36808893084526,0.042121298611164,-0.13142277300357802,0.313852161169052,0.11974158883094702,0.075474075973033,-0.206280052661895,0.13656851649284302,0.265174269676208,-0.050048828125,-0.12137544900178901,-0.046086236834526007,-0.035562369972467006,0.051762506365776007,-0.147385820746421,-0.25405648350715604,-0.19606369733810403,-0.226938098669052,-0.28117486834526,-0.030231770128011003,-0.46454328298568703,0.20943509042263,-0.19876803457736902,0.41263520717620805,0.029940091073513003,-0.08195613324642101,-0.18734976649284302,-0.27997297048568703,0.037700947374105,0.19283352792263,-0.203500598669052,-0.38837140798568703,0.091890774667263,0.07949359714984801,0.11722505837678901,0.08949632197618401,0.032484788447618006,0.150540858507156,-0.060300387442111004,0.026620130985975002,0.0673828125,0.30686599016189503,0.18697415292263,-0.017072238028049,-0.061786357313394005,0.042546197772026007,-0.029633741825819,-0.145282447338104,0.021029839292168003,0.27216047048568703,-0.024811964482069,0.058537408709526007,-0.208683893084526,0.126389726996421,0.028756948187947003,-0.12233323603868401,0.267352759838104,0.17720852792263,0.09615384787321,-0.19118088483810403,0.046785794198513,-0.08757136762142101,0.12117356806993401,0.29807692766189503,0.029652815312147,-0.07869075238704601,0.17457932233810403,0.044048603624105,-0.127422630786895,0.028127817437052,-0.39227765798568703,-0.041851337999105,-0.112886868417263,0.013808030635118,0.19005408883094702,-0.103985123336315,-0.11793870478868401,0.05323439463973,0.19809195399284302,0.08390925824642101,-0.28801080584526,0.17848557233810403,0.244290858507156,0.056096002459526007,-0.21882511675357802,-0.16049429774284302,-0.120060846209526,-0.00019836425781200002,-0.123610273003578,-0.257361769676208,-0.20064602792263,-0.051250752061605,0.384615391492843,-0.16706730425357802,0.039588339626789,0.14900089800357802,-0.31047174334526,-0.025639461353421003,-0.17728365957736902,-0.13037109375,0.32962739467620805,-0.12009840458631502,-0.135441705584526,0.026414137333631002,0.011857252568006,0.0039039026014500004,-0.25743690133094704,0.031534049659967,0.008386464789509001,-0.059157151728868006,-0.093599759042263,0.085392877459526,0.42668268084526,0.012310321442782001,0.089449368417263,0.20665565133094702,-0.2646484375,-0.114351712167263,-0.126352161169052,0.32316705584526,0.304086536169052,0.08644456416368401,0.242563098669052,0.056546725332736004,-0.11662410199642101,-0.071420520544052,0.233097955584526,0.16826923191547302,0.031591121107339006,0.07027494162321,-0.40910455584526,-0.11345027387142101,0.308143019676208,-0.13750751316547302,-0.132566004991531,0.19489933550357802,0.23174579441547302,-0.10107421875,-0.031780537217855,-0.18629807233810403,-0.129131615161895,-0.062849774956703,-0.264197707176208,0.041264459490776007,-0.147198021411895,0.049457255750894005,-0.097412109375,-0.26171875,-0.14900089800357802,0.16391226649284302,0.16706730425357802,-0.16019381582736902,0.247220546007156,0.16098257899284302,-0.23790565133094702,-0.21920071542263,-0.32474458217620805,-0.37605169415473905,0.059823844581842006,0.049147386103868006,0.20710636675357802,-0.09382981806993401,-0.11929086595773601,-0.052727334201335005,-0.196636497974395,0.016340989619493002,-0.107943020761013,0.37394830584526,0.21897536516189503,-0.044292744249105,0.186673671007156,-0.017972212284803002,0.08608774095773601,0.103346601128578,-0.09266075491905201,0.051532451063394005,0.14701022207736902,0.136606067419052,0.089909479022026,0.324669480323791,-0.2158203125,0.228665858507156,0.235501796007156,0.269981980323791,0.08382474631071,0.045729417353868006,-0.19005408883094702,0.08402193337678901,0.024401150643825,-0.044072076678276007,0.201885521411895,0.034304104745388,0.21657150983810403,0.42397835850715604,0.19809195399284302,-0.021167792379856002,0.126239478588104,-0.13750751316547302,-0.267878592014312,0.133713945746421,-0.049776516854763,-0.17123648524284302,-0.1103515625,0.055654671043157,-0.06551419943571,-0.140286952257156,-0.11500901728868401,-0.15685096383094702,-0.25255408883094704,-0.027179423719644002,-0.14464393258094702,-0.035552978515625,-0.068500228226184,0.13097205758094702,-0.017152858898043,-0.212064296007156,-0.0830078125,-0.005106999538838,-0.05414405092597,-0.04912743344902901,-0.041854858398437,-0.024698110297322003,-0.17119891941547302,-0.553485572338104,0.030458889901638003,-0.207181483507156,0.069326549768447,-0.07698880881071,0.121431790292263,-0.230168268084526,0.05182647705078101,0.10600398480892101,-0.13705679774284302,0.015918437391519002,0.28703424334526,-0.025531474500894002,0.170823320746421,0.195988580584526,-0.22483474016189503,0.19606369733810403,-0.145432695746421,-0.014793982729315001,-0.028847327455878,-0.035547696053981004,-0.027545634657144002,-0.355769217014312,-0.010037935338914,-0.10513070970773601,0.07497934252023601,0.24534255266189503,-0.270057082176208,-0.031212439760565,-0.257361769676208,0.12959171831607802,-0.037811279296875,0.28876203298568703,-0.091749921441078,0.24849759042263003,-0.140305742621421,0.28034856915473905,-0.13585487008094702,-0.068866439163684,0.25796273350715604,-0.33097955584526,0.0028792161028830003,0.054593600332736004,0.18411959707736902,0.087590143084526,-0.115065351128578,-0.1533203125,-0.012198815122246002,-0.24421574175357802,0.19613882899284302,0.32872596383094704,-0.385066092014312,-0.0906982421875,0.13559195399284302,0.180063098669052,0.12521597743034302,0.16345450282096802,0.357421875,-0.22423377633094702,0.166729271411895,0.06929133832454601,0.28973859548568703,-0.12826773524284302,-0.073467545211315,0.014997041784226001,0.085637018084526,-0.15579928457736902,0.133488580584526,-0.005678616929799001,0.07173978537321,-0.15508563816547302,0.12255859374999999,-0.08768404275178901
image_44025_1,0.177315846085548,-0.145472928881645,-0.372767865657806,0.037081036716699003,-0.48869976401329,0.005040032323449,0.032464165240526005,0.044924598187208,0.11837332695722501,0.071560449898242,-0.1171875,-0.04931204766035,0.196986600756645,-0.099539622664451,-0.230678007006645,0.095249719917774,-0.061270575970411,-0.031069073826074003,-0.257045209407806,-0.16678293049335402,0.082432337105274,-0.059291295707225,0.032972063869237005,0.036978583782911,0.046161107718944,0.15286691486835402,-0.24560546874999997,0.24281528592109602,-0.09408133476972501,-0.38797432184219305,-0.09114293009042701,-0.038072858005762,0.000716890615876,-0.237374439835548,0.34012275934219305,0.066388808190822,0.015890939161181002,0.030511038377881,0.065025329589843,0.05799102783203101,-0.100149974226951,-0.027778079733252,-0.357561379671096,0.18743024766445102,-0.055524554103612005,0.048130579292774006,-0.079345703125,0.077444896101951,0.067173279821872,0.28913226723670904,-0.31005859375,-0.05411529541015601,-0.4306640625,-0.037301201373338005,0.061901636421680006,-0.23597934842109602,-0.22893415391445102,0.082877025008201,0.066013880074024,-0.015334538184106001,0.388811379671096,-0.3681640625,-0.113163538277149,-0.040786880999803,0.08786882460117301,-0.11865234374999999,0.098807200789451,0.47126117348670904,0.08095877617597501,0.178780689835548,0.3330078125,-0.16810825467109602,-0.043021064251661,0.004980904515832001,-0.08430699259042701,-0.006310599390417001,0.31291851401329,0.146798267960548,-0.07125963270664201,-0.159528464078903,-0.0799560546875,-0.032483782619237005,-0.236049100756645,-0.164899557828903,-0.12496512383222501,-0.086111888289451,0.101728163659572,-0.37137275934219305,-0.35825893282890303,0.021755218505859,-0.10793631523847501,-0.386439740657806,-0.424525678157806,0.037328448146581004,0.091352187097072,0.024941036477684003,0.44768413901329,0.10543387383222501,0.1884765625,-0.130475729703903,0.180908203125,-0.256556928157806,-0.06392996758222501,0.031780786812305,0.44029018282890303,-0.127894803881645,-0.12379673868417701,-0.146937772631645,-0.051894325762987005,0.0030059814453120004,0.023001534864306002,-0.072614394128322,0.24016462266445102,-0.159772604703903,0.028281075879931002,-0.16162109375,-0.20207868516445102,-0.12465123087167701,-0.002090454101562,-0.38811382651329,-0.087018691003322,-0.241908475756645,-0.24302455782890303,0.002839224645867,0.118756972253322,0.217982694506645,0.0019567352719600003,-0.012828282080590002,0.152169361710548,0.123639784753322,-0.30461773276329,0.013882705010473001,-0.17892892658710402,0.016572134569287002,-0.047472272068262,0.210553854703903,-0.188337057828903,0.189418241381645,-0.47516742348670904,0.3505859375,-0.081883020699024,0.260463178157806,0.28620257973670904,0.11914062500000001,0.042021613568067,-0.043084282428026005,0.07466343790292701,-0.019501278176903003,0.077671594917774,0.12737165391445102,0.44377788901329,0.16238839924335402,0.22649274766445102,0.06292724609375,-0.049375262111425004,-0.227887839078903,0.27985492348670904,-0.106794081628322,-0.00355093809776,0.162353515625,-0.2578125,-0.09592764824628801,0.12465123087167701,0.184814453125,0.184291288256645,0.37039619684219305,-0.07670811563730201,0.157784596085548,0.045233588665723,-0.37234932184219305,0.273088723421096,-0.17445591092109602,-0.33244976401329,0.071241103112697,-0.15482003986835402,0.337890625,0.010210310108959,-0.082380019128322,-0.118390761315822,-0.0633544921875,-0.22746931016445102,-0.27043804526329,0.29771205782890303,0.06925392150878901,-0.136439725756645,-0.241768971085548,-0.25397601723670904,0.215890064835548,0.09952653944492301,-0.18178012967109602,-0.17410714924335402,0.37779018282890303,-0.358119428157806,0.319963723421096,0.47209820151329,-0.167550221085548,0.46847099065780606,0.210170194506645,0.080723352730274,0.022994995117187,-0.089896067976951,-0.33579799532890303,0.138392850756645,-0.029214041307568002,0.36872211098670904,-0.005135672632604,-0.04369681328535,-0.18739536404609602,0.072456359863281,-1.4168875168252272e-05,0.33440288901329,-0.174142017960548,-0.095982141792774,-0.36286273598670904,0.006681442260742,-0.004649571143090001,0.028397696092724002,0.018327984958887003,0.231026783585548,0.400390625,-0.027512686327099002,0.031441826373338005,-0.022164480760693002,0.12077985703945102,0.136335104703903,-0.24197824299335402,-0.13239179551601402,-0.152064725756645,-0.22021484375,-0.26499721407890303,-0.014726911671459002,-0.0036228725221000005,0.035736083984375,0.08736746758222501,0.145612448453903,0.010947636328637001,-0.066580638289451,-0.2138671875,0.403459817171096,0.17424665391445102,0.0017741067567840002,0.01221752166748,0.077915735542774,-0.203473776578903,0.033961705863475,0.028708321973681002,0.226632252335548,0.06805419921875,-0.037910461425781,-0.103009901940822,0.39494976401329,-0.28616768121719305,-0.09535435587167701,0.384486615657806,-0.30113002657890303,-0.045811243355274006,0.127546042203903,0.30412945151329,-0.18474470078945102,0.087890625,-0.416015625,0.244349882006645,-0.027245657518506,0.19377790391445102,0.29059711098670904,0.006690911017358,-0.167933866381645,0.124180383980274,0.07557024061679801,0.20947265625,-0.110212050378322,-0.14871652424335402,0.109549388289451,0.05908203124999999,0.135567799210548,0.282435834407806,0.056771416217088005,0.195172995328903,0.24365234374999997,-0.09032548964023501,0.023100921884179,0.062094550579786,-0.02783203125,0.17302595078945102,0.1070556640625,-0.196498319506645,-0.181501120328903,-0.129743307828903,-0.013451712206006002,-0.026999337598681002,-0.136369973421096,0.085501536726951,0.027229037135839,0.0022212436888360003,0.028559548780322002,-0.169538229703903,0.007066999096423001,-0.21965681016445102,0.124372206628322,-0.261021196842193,0.015718732029199,-0.34528461098670904,0.134660989046096,-0.17543247342109602,-0.055428642779588005,0.018135070800781,-0.10822404921054801,0.18470981717109602,-0.127057760953903,0.1097412109375,-0.385463178157806,0.188546314835548,0.025122234597802003,0.006701878271996001,-0.263811379671096,0.07001604139804801,0.151611328125,0.13671875,-0.09003557264804801,0.060163225978612005,-0.01161084882915,-0.000320434570312,-0.064130507409572,-0.025803701952099002,-0.11085728555917701,0.25718471407890303,0.003912789281457,0.00165339873638,0.205636158585548,-0.24155971407890303,-0.357561379671096,0.139678955078125,0.012154715135693,0.050541467964649006,-0.322265625,-0.29743304848670904,0.156947538256645,0.06784275919198901,0.083295546472072,0.150146484375,-0.139229908585548,-0.10085841268301,-0.33063617348670904,-0.317592084407806,-0.25083705782890303,-0.133056640625,0.025820050388574003,-0.16043527424335402,0.080374583601951,0.32805523276329,-0.0011536733945830002,0.37737163901329,-0.467912942171096,-0.046168327331542004,-0.0074710845947260004,-0.125802174210548,0.19873046875,-0.140869140625,-0.39118304848670904,0.039823260158300004,-0.0452880859375,0.15422712266445102,0.26890346407890303,0.098807200789451,-0.25732421875,-0.442522317171096,-0.11244419962167701,0.19022043049335402,-0.18680246174335402,-0.161097928881645,0.004889079369604,0.156354635953903,-0.067905969917774,-0.047927856445312,-0.157540455460548,-0.047855921089649006,0.07948521524667701,-0.135149270296096,0.13357980549335402,0.15691266953945102,-0.149135038256645,0.11769322305917701,0.34333148598670904,0.304408490657806,0.079306468367576,-0.027111053466796,-0.045950751751661,0.041451591998338005,-0.27573940157890303,-0.0043785911984740005,0.185346335172653,-0.140590116381645,0.36328125,0.062142509967088005,0.150634765625,-0.09901646524667701,0.11635044962167701,-0.0021416801027950003,0.17093332111835402,0.26939174532890303,-0.071112498641014,-0.116489954292774,-0.097638808190822,-0.35281807184219305,-0.112775526940822,0.17327009141445102,-0.07606724649667701,0.013267517089843,0.26688057184219305,0.006232091225683,0.06398228555917701,0.0282265804708,0.25129047036170904,-0.23270089924335402,-0.321916848421096,0.16434152424335402,-0.11464146524667701,0.16605050861835402,0.24700056016445102,0.18397739529609602,0.22460937500000003,0.25237163901329,-0.018402099609375,-0.27190288901329,0.052315711975097004,0.041386194527149006,0.142054960131645,0.076346263289451,0.20228794217109602,0.34451729059219305,0.027531215921044003,-0.084625244140625,-0.002192905871197,-0.004273551050573,-0.15080915391445102,0.024197986349463,0.017892019823193002,-0.17864118516445102,0.20110212266445102,0.015620640479028001,0.035813469439744006,-0.21658761799335402,-0.27922710776329,-0.064511977136135,-0.038836888968944,0.18143136799335402,-0.070905409753322,-0.21233259141445102,-0.139857694506645,-0.14554269611835402,-0.09181431680917701,-0.06329345703125,-0.087088450789451,-0.18212890625,0.128278464078903,0.147705078125,-0.21937778592109602,0.018132891505956,0.084904260933399,0.144723072648048,0.127022877335548,0.12012590467929801,0.059552874416112005,-0.331752240657806,-0.028660366311669003,-0.154750272631645,-0.077619276940822,-0.182373046875,-0.3193359375,-0.21707589924335402,-0.019263131543993003,0.113874159753322,0.24916294217109602,-0.088483534753322,0.20598493516445102,-0.035562787204980004,0.12496512383222501,-0.169259205460548,0.019456045702099002,-0.13807895779609602,0.19035993516445102,0.426897317171096,-0.130231589078903,0.107666015625,-0.032627325505018005,-0.11293248087167701,-0.226876392960548,-0.056806292384862005,-0.03302001953125,-0.036917548626661,0.016284396871924,0.002546038012951,-0.024797711521387003,0.237862721085548,0.0517578125,0.15925815701484602,0.177594870328903,0.060224261134862005,-0.174281522631645,-0.300013959407806,-0.11640276014804801,-0.060459680855274006,-0.33035713434219305,-0.14773996174335402,0.07244873046875,0.424944192171096,0.05271911621093701,0.115025110542774,0.18108259141445102,0.10109166055917701,0.33189174532890303,-0.046982903033494006,0.064329013228416,-0.159493580460548,-0.021294729784131,0.173549100756645,-0.0053862161003050005,0.010238647460937,-0.128278464078903,-0.159388944506645,-0.13089425861835402,0.137922018766403,0.234584257006645,-0.16605050861835402,-0.092320032417774,0.31033760309219305,0.3876953125,-0.115339003503322,0.09169224649667701,0.0023280552122740003,-0.037950787693262,-0.178083151578903,-0.069998607039451,0.085989817976951,-0.25279018282890303,0.130231589078903,-0.2958984375,0.35770088434219305,-0.21142578125,0.006519862450659,-0.246337890625,-0.19241769611835402,-0.22049386799335402,-0.008147792890667001,-0.07843889296054801,-0.08497837930917701,0.29813057184219305,-0.097952708601951,-0.137276783585548,0.1826171875,0.094373427331447,-0.009502410888671,-0.31501117348670904,-0.040685381740331004,0.32868304848670904,0.020649502053856003,0.182477682828903,0.003807067871093,0.114048548042774,-0.4375,-0.5528739094734191,-0.010245187208056,0.122314453125,0.009859357960522001,0.23611886799335402,-0.18017578125,0.115164622664451,0.20668247342109602,-0.221888944506645,-0.089202880859375,-0.030617849901318002,0.060036797076463005,0.30419921875,0.064200945198535,0.251116067171096,-0.018383571878075003,0.15431430935859602,0.005819593090564,0.025612967088818002,0.056115288287401005,0.092947825789451,-0.023352487012743003,-0.018896920606493003,0.116385325789451,0.381975442171096,0.39341518282890303,0.082510814070701,0.348772317171096,-0.05303955078125,-0.10804966837167701,-0.14515903592109602,0.30350166559219305,0.044638495892286,0.111083984375,0.088675364851951,0.056969780474901005,0.33970424532890303,0.27329799532890303,0.14714704453945102,0.25327846407890303,-0.02569580078125,0.038708277046680006,-0.25913783907890303,0.061924524605274006,-0.129743307828903,-0.14442661404609602,0.039167132228612005,-0.106061659753322,0.31926617026329,-0.156354635953903,-0.140877857804298,-0.15576171875,0.43708148598670904,-0.020986011251807,-0.24428012967109602,0.051201958209276005,-0.038378033787012,0.120640344917774,0.237862721085548,0.14250837266445102,-0.023544311523437,0.10302734375,-0.41196987032890303,-0.010229928418993001,-0.056069511920213005,-0.09638322889804801,-0.07024710625410001,0.07686070352792701,0.15272739529609602,0.074241638183593,-0.224958151578903,0.30231586098670904,0.34500557184219305,0.0855712890625,-0.21854074299335402,0.130684986710548,0.10445731133222501,-0.155482694506645,-0.013046264648437,0.096182689070701,0.101353235542774,-0.23821149766445102,0.16796875,0.040793281048536,-0.045078821480274006,-0.40904018282890303,-0.07966832071542701,-0.000299726205412,0.185128346085548,-0.0347900390625,0.045079912990331004,0.117361888289451,0.017030987888574,0.183314725756645,0.19719587266445102,0.031216213479638003,-0.0819091796875,0.203369140625,0.021547589451074,-0.07564000040292701,0.014774867333471001,-0.15740095078945102,-0.27727398276329,0.109130859375,0.046175274997949003,0.34333148598670904,-0.16678293049335402,-0.03955078125,-0.0064896172843870005,-0.017650058493018,-0.093994140625,-0.179879322648048,-0.0615234375,0.03802490234375,0.099400110542774,0.163888111710548,0.11054338514804801,-0.23430524766445102,0.044110979884862005,0.189034596085548,-0.05110604315996101,-0.066220961511135,-0.320521771907806,0.198800221085548,-0.123779296875,-0.13640485703945102,0.128522604703903,-0.06703404337167701,-0.019635882228612,0.004143851343542,-0.041453499346971005,-0.024202618747949003,-0.24002511799335402,-0.125802174210548,-0.183175221085548,-0.40625000000000006,-0.166259765625,-0.37820869684219305,-0.039616174995899006,-0.08048357069492301,0.074528284370899,0.20521762967109602,0.091740198433399,-0.53125,0.018161227926611002,0.045049395412206004,-0.13577707111835402,0.15530832111835402,0.23563058674335402,0.15227399766445102,0.100934706628322,0.16420200467109602,-0.163330078125,0.142159596085548,0.059090752154588005,-0.041661944240331004,-0.43903461098670904,-0.30545479059219305,-0.0008764266967770001,0.1943359375,-0.258998334407806,-0.02523367665708,-0.076878137886524,0.031257085502147,0.06349400430917701,-0.050752911716699003,0.38699775934219305,0.16531808674335402,-0.063572473824024,0.054140362888574003,-0.32917132973670904,0.04541015625,-0.23172433674335402,-0.136823385953903,0.28180804848670904,0.103367395699024,-0.045676093548536,0.030534472316503,-0.033756799995899,0.227155417203903,0.09225028008222501,-0.41043525934219305,0.189034596085548,0.34905132651329,0.119803294539451,0.08217076212167701,-0.286760598421096,0.317103803157806,0.147321432828903,-0.213448658585548,0.198451444506645,0.12077985703945102,0.055205207318067,-0.236397877335548,-0.199079245328903,-0.057477679103612005,-0.112967357039451,-0.250209271907806,0.29436382651329,0.209437772631645,0.09223283827304801,0.021471295505762003,0.13378469645977,-0.10743059217929801,0.123779296875,-0.26715961098670904,0.14065988361835402,-0.082122802734375
image_44025_2,0.10668154805898601,0.07136171311140001,0.0023507263977080002,-0.274736672639846,-0.23573085665702803,-0.008269445970654,-0.13848876953125,0.084605082869529,0.284624367952346,-0.080893382430076,0.048875536769628004,-0.16055978834629,0.034662861377000004,-0.035087790340185006,-0.19066074490547102,0.226056784391403,-0.025754349306225003,-0.059462137520313006,-0.30258613824844305,-0.232064381241798,-0.06339581310749,-0.15252563357353202,0.230355396866798,0.15866252779960602,-0.164223805069923,0.043741192668676,-0.17143903672695102,-0.09028393775224601,0.065404348075389,0.038907323032617,0.131528586149215,0.172607421875,0.45807757973670904,0.12842451035976402,0.29904609918594305,0.15964181721210402,-0.17950820922851501,-0.06789493560791,-0.09354618936777101,0.052009720355272,-0.34174457192420904,0.022171659395098003,0.12349919229745801,0.23592050373554202,-0.31683349609375,-0.12003408372402101,-0.24747140705585402,0.007320191245526001,0.05667860060930201,0.31841167807579,0.05778728052973701,0.178291872143745,-0.077122010290622,-0.06747899949550601,-0.252101361751556,-0.233864918351173,0.11033739149570401,0.189069479703903,-0.12588378787040702,-0.31827217340469305,0.22302682697772902,0.056384067982435004,-0.19741821289062503,0.23585292696952803,-0.1348876953125,-0.04771251231431901,-0.112056322395801,0.23584420979022902,-0.07070350646972601,-0.050793953239917006,0.08926500380039201,-0.307155072689056,0.048237118870019004,-0.31676372885704,-0.12635694444179502,-0.11947141587734202,0.18430002033710402,0.24081857502460402,0.193385526537895,-0.10406739264726601,-0.12307576090097401,-0.029007928445935003,-0.14710889756679502,-0.0019348689820610002,-0.105607710778713,0.21042306721210402,0.0786669626832,-0.24542236328125,-0.274614602327346,0.0031375628896050003,-0.146383017301559,-0.371337890625,-0.221357077360153,-0.17409460246562902,0.0034524712245910002,0.211164206266403,0.24480329453945102,0.28649029135704,-0.293910443782806,0.016142129898071,0.39475795626640303,-0.191022604703903,-0.122372217476367,-0.087521143257617,0.12465422600507702,-0.10292761772871001,0.293544232845306,-0.004021826665848,0.138238087296485,-0.032374400645494,-0.22273908555507602,-0.301173627376556,-0.042680330574512,0.023151397705078,0.23476955294609003,0.142278403043746,-0.272936135530471,-0.13888986408710402,-0.12411199510097501,-0.043734412640333,-0.28033882379531805,0.099403657019138,0.086668834090232,0.13415744900703402,-0.034979622811079004,-0.20226614177227,0.164258688688278,0.012924977578222,0.147977009415626,0.057038970291614005,0.170144215226173,0.08008725196123101,-0.12146268784999802,-0.11307682096958101,0.248665943741798,-0.086747847497463,-0.20332553982734602,0.15593174099922102,-0.42034038901329,0.372889935970306,-0.15431921184062902,0.128673002123832,0.26592144370079,-0.109959878027439,-0.05553644150495501,-0.00715889269486,-0.103844232857227,0.3555908203125,0.022765669971704,-0.07297352701425501,-0.032348904758691004,-0.23158481717109602,0.46580287814140303,0.11861964315176,0.14485822618007602,-0.262050092220306,0.09228515625,-0.057572875171899004,-0.023150308057665003,0.038387853652238006,-0.33238872885704,0.036112718284130006,-0.36609759926795904,-0.10646057128906201,0.149911060929298,0.41655620932579,-0.001829181448556,0.13228715956211,0.05747761204838701,-0.356767922639846,0.138238087296485,0.34183174371719305,0.02109863050282,0.277971535921096,-0.34648784995079,0.04420907050371101,-0.09273842722177501,-0.07856000959873201,-0.102032251656055,0.070051603019237,-0.2998046875,-0.044288005679845005,0.19207000732421803,0.11400822550058301,-0.22494943439960402,-0.20996530354022902,-0.160006925463676,-0.21529279649257602,0.067267552018165,0.07674973458051601,-0.214133948087692,0.121397837996482,-0.14452035725116702,0.18325805664062503,0.303294599056243,0.06084874644875501,0.129257202148437,0.105712890625,0.001728074857965,-0.117664881050586,-0.15459333360195102,0.166896268725395,0.113664351403713,-0.019665466621518003,0.017051031813025003,-0.16977365314960402,-0.0014600753784170001,-0.15199933946132602,0.082861766219139,-0.11978803575038902,0.24891880154609602,-0.40007671713829,0.001760210259817,-0.18776157498359602,-0.07888180762529301,0.0034142625518140002,0.168060302734375,0.155329570174217,-0.037240166217088005,0.36235699057579,-0.093255043029785,-0.159615650773048,-0.15789794921875,-0.057830266654491,-0.10207366943359301,0.029720118269324,-0.072516918182373,-0.24892316758632602,-0.21247318387031502,0.08376012742519301,0.145732328295707,0.13400922715663902,0.012836013920605,0.069369859993457,0.026395695284008,-0.024441719055175,-0.180428639054298,-0.127672463655471,-0.07315560430288301,-0.133477345108985,0.129638671875,0.086531572043895,-0.057851519435644004,0.022659063339233003,-0.144572660326957,-0.07779911905527101,0.129622057080268,0.08241844177246001,0.46245464682579,0.13832309842109602,0.040240969508886004,-0.32842144370079,0.16805812716484,-0.04813507571816401,-0.36127582192420904,-0.0332627967,0.08525470644235601,0.439531594514846,0.058596748858690005,0.005009395536035,0.044610362499952004,0.237710133194923,0.093655176460742,0.06124373897910101,-0.036140579730272,0.075576782226562,-0.14659772813320102,0.086742401123046,0.058501295745372,0.27532958984375,0.28710064291954,0.30915179848670904,-0.21457345783710402,-0.114502497017383,0.029930336400866002,0.218791410326957,0.29914638400077803,0.135830879211425,-0.045150689780712,0.030480368062853,0.06305257976055101,0.027314603328704,-0.07414923608303,-0.32926288247108404,0.031855516135692,-0.223279684782028,-0.41521343588829,0.042232375591993006,0.076952166855335,-0.325212746858596,0.11782945692539201,0.28394427895545904,-0.07566560804843901,-0.016925606876611002,0.11613682657480201,0.167384549975395,-0.001650084392167,-0.039405889809131005,-0.07190336287021601,-0.22916086018085402,-0.067597799003124,-0.035330969840288,0.245125904679298,-0.29657855629920904,0.06561122834682401,0.014305659569799001,-0.150331005454063,0.058357510715723,-0.005367609206587001,0.080387115478515,-0.31553432345390303,0.036541257053613004,-0.051920823752880006,-0.054061345756053,-0.099658831954002,-0.15276663005352,-0.11906160414218901,-0.216347828507423,0.07287093251943501,0.121990747749805,0.017116818577051,0.11499895155429801,-0.27786689996719305,-0.08175986260175701,0.34984478354454,-0.26232036948204,-0.008844153955578,0.267412453889846,0.183999195694923,-0.070655837655067,-0.163556784391403,0.085268840193748,0.004025118891149,0.24631173908710402,-0.007372834719717,0.26007080078125,0.299957275390625,-0.026453733444213003,-0.47537666559219305,0.007083314005285,-0.38134765625,-0.11069006472826001,-0.26116070151329,-0.12823186814785,0.036849431693553,-0.077934883534908,-0.12225560098886401,0.036940660327672,0.073014259338378,-0.060253586620092,0.007589233573526001,0.379115521907806,-0.16387502849102,0.028336081653833,-0.104533329606056,0.099342890083789,-0.172539845108985,-0.061523046344518,0.10308837890625,-0.1279848664999,-0.001974582672119,0.012395237572491,0.3876953125,0.061831507831811,-0.28275844454765303,-0.12300328165292701,-0.035932965576648004,0.08995451033115301,-0.232400074601173,-0.076223917305469,-0.31992012262344305,0.0586344525218,-0.074881449341773,0.11574881523847501,0.105984278023242,-0.041380457580089,-0.207929342985153,0.19799368083477,0.22818429768085402,0.078935347497463,0.308061867952346,0.285487592220306,0.48552593588829,0.166253224015235,0.046810422092676,0.179818287491798,-0.18694196641445102,0.073883056640625,-0.16986520588397902,-0.087482757866382,0.151321411132812,-0.26719447970390303,-0.129308432340621,0.40937152504920904,-0.37473842501640303,0.094280518591403,0.008664948865771,0.076415605843067,0.049488954246044006,-0.011319398880004002,0.14135959744453402,0.009674514643847,-0.041360139846801,-0.26362392306327803,-0.11951555311679801,0.09451512247323901,-0.10053116828203201,-0.056094918400049,0.013889619149267,-0.09816251695156,-0.214320585131645,0.155129566788673,0.406572610139846,-0.43266949057579,-0.11878722161054601,0.138389587402343,-0.057849269360303004,-0.039666719734668,0.004051072057336001,0.067628249526023,0.128080919384956,-0.07021522521972601,0.08933700621128,-0.306535989046096,0.33721923828125,0.24699184298515303,-0.02679450251162,0.108633860945701,-0.036147993057966,0.0023556777741760002,0.020764980465173003,0.004133786540478,0.05636075511574701,-0.009975160472095,-0.22261264920234602,-0.14493452012538902,0.039006125181913,0.13971601426601402,-0.076256684958934,-0.258056640625,0.10629068315029101,-0.007320404052734,0.019923422485589003,0.18422153592109602,-0.046513549983501004,-0.019527163356542,-8.368492126464845e-05,0.10543959587812402,0.091697968542575,0.14606367051601402,-0.319689065217971,-0.053037233650684,-0.200925558805465,-0.07144349068403201,0.38255962729454,-0.33958217501640303,-0.076419830322265,0.23318918049335402,-0.082951173186302,-0.042331833392381,-0.08741487562656401,0.372881203889846,-0.08462633192539201,-0.093120507895946,-0.024864520877599,-0.09371948242187501,0.036355130374431,0.10328674316406201,-0.14130020141601501,-0.033283710479736,0.118627272546291,-0.035012993961572,0.07323256880044901,-0.28479877114295904,0.029006412252783,0.33074951171875,-0.061236210167407004,0.20419038832187603,0.041488911956548004,-0.006525516510009001,0.07800272852182301,0.042002063244581,0.056483767926692005,0.19618442654609602,-0.35594829916954,-0.18623569607734602,-0.293930053710937,-0.026921272277832003,-0.542166590690612,-0.23453195393085402,-0.12511743605136802,0.20474243164062503,0.027140548452734004,-0.027778226882219002,-0.072384133934974,-0.065948009490966,0.011576584540307001,-0.162270680069923,-0.17670114338397902,-0.08716038614511401,0.051018681377172005,0.21518380939960402,-0.09778322279453201,-0.10579109191894501,0.021925585344433,-0.013726524077355001,0.09734521806240001,0.166425436735153,0.027535941451787,0.27796283364295904,0.030749933794140004,-0.039800506085157006,0.252284467220306,0.035280279815196006,-0.014820320531725,0.108072005212306,0.23564802110195102,-0.11006685346364901,-0.244384765625,0.103460036218166,-0.21973092854022902,-0.006484627723693,0.09014211595058401,0.0476182885468,-0.10870987921953201,0.269975930452346,0.24598911404609602,-0.079843930900096,0.27393451333045904,0.256077349185943,-0.010416303761303002,-0.11581529676914201,-0.08507864922285001,0.23660714924335402,-0.17398288846015902,0.274897992610931,-0.056488174945116,0.116212911903858,0.12846048176288602,0.006850484758615,-0.453386574983596,0.09360694885253901,-0.219918385148048,-0.13549368083477,0.028798921033740002,-0.20932443439960402,0.049803886562585005,-0.095517568290233,-0.2567138671875,0.091814555227756,-0.009054354391992,0.018771359696984003,-0.304277688264846,0.074553355574607,0.12205505371093701,0.13181196153163902,0.149718970060348,-0.056210499256849004,0.23069545626640303,0.124799452722072,-0.06840733438730201,-0.010387076064944,-0.201856344938278,0.21289499104022902,0.32782855629920904,-0.311767578125,0.204201832413673,0.119747437536716,-0.389665871858596,0.09223835915327001,-0.28447613120079,-0.30779156088829,0.14235496520996002,-0.29083251953125,0.206769675016403,-0.011420624330639001,0.0494653172791,0.07857023179531,-0.12514604628086,-0.015828030183911,0.30638775229454,0.224208280444145,0.014096821658313,0.236903592944145,0.30522808432579,-0.068350382149219,0.19274030625820102,0.44961982965469305,0.20088849961757602,-0.223842069506645,-0.086648739874362,0.35355922579765303,0.31187221407890303,-0.076843537390232,0.14997264742851202,0.134999141097068,-0.022778782993555003,-0.185328885912895,-0.091998644173145,0.148223876953125,-0.25648280978202803,0.010677771642804,-0.42742046713829,-0.058422632515430006,0.016808679327368,0.053597945719957005,0.055790491402149006,0.237008228898048,0.05638780444860401,-0.17064993083477,-0.048805706202983,-0.32828193902969305,0.10909815877676,0.06946890801191301,-0.25017437338829,-0.28922817111015303,0.006786686833947,0.08154719322919801,-0.004495050292462,0.14116342365741702,-0.071365222334861,0.06456838548183401,-0.044993467628955,-0.028998808935284004,0.24476841092109602,0.126817971467971,-0.24366542696952803,0.02073641680181,-0.086530074477195,-0.150554105639457,-0.264927446842193,0.315638959407806,0.21257673203945102,0.24664306640625,-0.16074045002460402,0.042815897613763004,-0.096280507743358,0.12902995944023102,0.059591326862573006,0.26673236489295904,-0.246224537491798,-0.18848092854022902,0.186745777726173,-0.032914638519287005,-0.180385038256645,-0.083139881491661,-0.198850363492965,-0.093493595719337,0.134084433317184,0.29362270236015303,0.07628161460161201,0.060515265911817,-0.11593846231698901,0.147988453507423,0.182986661791801,0.430803567171096,0.126007080078125,0.13711330294609,-0.09658813476562501,-0.074518576264381,0.00018328428268400002,-0.17316110432147902,0.063171796500682,0.35868617892265303,-0.046985320746898006,0.19661167263984602,0.13151142001152,-0.034001845866441005,-0.19341278076171803,-0.009002574719488001,0.010631978511810001,0.17149570584297102,-0.29411968588829,-0.10582951456308301,0.074677191674709,-0.016911284998059002,-0.036216814070940004,0.029477851465344002,-0.12375777214765502,0.022995097562670003,-0.034524254500865,-0.128189086914062,-0.046693529933691004,0.22072055935859602,0.060300078243017,0.31424385309219305,-0.041523795574903,-0.44550433754920904,-0.059191890060901,-0.17493112385272902,0.087800301611423,0.121735572814941,0.08671229332685401,-0.08289445936679801,-0.5116838812828061,-0.23013742268085402,-0.088042393326759,-0.20465087890625,-0.044084277004003004,-0.047221831977367006,0.060819216072559,-0.11983422189950901,0.035162858664989,-0.054982252418994,-0.070140019059181,0.23614501953125,0.092141114175319,0.18577766418457,0.31421771645545904,0.06263630837202,0.206429615616798,0.010171277448534001,-0.128367826342582,0.064107075333595,-0.08620923012495,-0.043158315122127006,-0.030281390994787,-0.164660856127738,0.092102631926536,0.078194208443164,0.055110864341259,-0.055782180279493006,-0.21630859375,0.11953517049551,-0.243172779679298,0.180585592985153,0.13785226643085402,0.26709857583045904,-0.121907912194728,0.16661289334297102,-0.41856166720390303,0.36185127496719305,-0.088605336844921,0.21566772460937503,0.090884342789649,0.27729144692420904,-0.043978113681077007,-0.002930113347247,0.210066795349121,0.39763531088829,-0.21594674885272902,-0.201699391007423,-0.281982421875,0.14563642442226402,0.180855885148048,0.37315151095390303,-0.429042279720306,0.16070993244647902,0.23770578205585402,0.095051355659961,0.177228659391403,-0.078549109399318,0.376368939876556,0.154052734375,-0.024692704901099,-0.02606271021068,0.053457122296094006,-0.11026000976562501,-0.19066837430000302,-0.003706250805407,0.15715244412422102,-0.16949026286602,0.046860527247190004,0.131238669157028,-0.049427781254053005,-0.4205322265625,0.031417127698659,0.010874918662011
